{"0.weight": [[-0.9396944642066956, -1.0496445894241333, -0.15703140199184418, -1.7289063930511475, -0.8995234966278076, -1.1038014888763428, 0.2007812261581421, -1.2573622465133667, -0.2278657853603363, 1.3307021856307983, -1.6801166534423828, -1.4914538860321045, 2.124234914779663, 0.6933295726776123, 0.17439836263656616, -0.13739557564258575, -0.15089063346385956, -1.3873357772827148, 0.0950351357460022, 1.4764697551727295, 0.38515499234199524, -1.238690972328186, -1.0930554866790771, 0.3276155889034271, 0.1342383176088333, 2.056960105895996, -0.3806992173194885, -1.2796366214752197, -0.41397273540496826, 0.563689112663269, 0.5323373675346375, 1.5559755563735962, -1.166975736618042, 1.1131892204284668, 0.4410451054573059, -0.17921903729438782, -0.7566512823104858, -1.3114944696426392, -1.9574873447418213, 0.6701999306678772, 0.3186597228050232, -0.1187056228518486, -0.2648988962173462, 0.9573783278465271, -0.8531867265701294, -0.61379075050354, -1.1382871866226196, -0.3593662977218628], [-0.7832504510879517, -1.9856120347976685, -1.1355100870132446, 1.5866888761520386, 0.6923395395278931, -1.5973694324493408, 0.07724923640489578, 0.06508180499076843, 0.2550191879272461, 0.168828085064888, -0.42430853843688965, -0.17866313457489014, 1.2971960306167603, -0.660554826259613, 3.201531410217285, -0.7090252637863159, 1.4392797946929932, -0.468616783618927, 0.6341120600700378, -1.5029187202453613, -0.44410401582717896, 1.0434527397155762, 1.8485243320465088, -1.7613040208816528, 1.0339009761810303, -0.044241130352020264, -0.5071901679039001, 0.050804585218429565, -1.0934419631958008, -0.6853609681129456, 0.9370665550231934, 1.903988003730774, 0.7630521059036255, 0.9296108484268188, 1.10135018825531, -1.6744946241378784, -0.7650866508483887, -0.5422411561012268, -0.2508312165737152, 0.4755299389362335, -1.2880427837371826, 1.1933038234710693, 0.33746761083602905, -0.7277777194976807, -0.5138711333274841, -0.008760854601860046, -0.3915761411190033, 1.0448716878890991], [0.767794668674469, -0.9559717178344727, -0.6793598532676697, -1.0682733058929443, 0.5081878900527954, 0.6279191374778748, 0.6330249905586243, -0.4652663469314575, 0.8466790318489075, 0.9879376888275146, 1.354127049446106, -1.6411579847335815, 1.8498672246932983, -0.31252187490463257, -1.6747742891311646, -0.3965293765068054, -0.1634572148323059, -0.38229644298553467, 1.141033411026001, 0.03507799655199051, 0.6878276467323303, 1.0280377864837646, -0.8516059517860413, 0.6366565227508545, 0.3075450658798218, 0.3045245409011841, -2.527547836303711, 0.8389782905578613, 0.9898378849029541, -0.8467956781387329, 0.6798763275146484, 0.27693262696266174, 0.6693253517150879, 0.032521188259124756, 0.08997917920351028, -0.5725196599960327, 1.2524564266204834, 0.09206537902355194, -0.45272132754325867, -0.5539944171905518, -0.9537186622619629, -0.7472827434539795, -0.25112301111221313, -0.05882157385349274, -0.1078178808093071, 0.23231852054595947, 1.585720419883728, -0.8703585267066956], [0.008268337696790695, 0.15642917156219482, -0.29257363080978394, 0.27590516209602356, -0.5467463135719299, -0.6486703753471375, 0.12029144167900085, -1.1241668462753296, 0.2121305763721466, 0.6536553502082825, -1.016882300376892, -1.0244331359863281, -0.9586635231971741, 0.1854080855846405, -1.052431344985962, 0.4631616473197937, 0.4984405040740967, 0.2011660635471344, -1.472172498703003, -1.3245019912719727, 1.6024165153503418, 2.0525755882263184, -1.658307433128357, 0.7133700251579285, -0.3768095076084137, 0.9412400126457214, -0.753395676612854, 1.4115022420883179, -1.5740870237350464, -1.6447105407714844, -0.5545440912246704, 0.21709340810775757, 0.04727039113640785, -2.2712149620056152, -0.11953191459178925, -0.4738399088382721, 0.11894460022449493, -0.5844846963882446, -0.30946290493011475, -0.8976756930351257, -1.3378794193267822, 0.23756180703639984, 1.023789644241333, -0.3058033287525177, 0.345294713973999, 0.10693970322608948, 0.9930934906005859, -0.595172643661499], [1.6186672449111938, 0.027431640774011612, 0.7706465721130371, 0.5517378449440002, -1.5671049356460571, 0.7311182022094727, -1.5982897281646729, 1.3260239362716675, -1.258154273033142, 0.6103357076644897, -0.45306864380836487, -1.2134872674942017, 0.40304815769195557, -0.5660871863365173, 0.33105072379112244, -0.7374854683876038, 2.42859148979187, 1.2811297178268433, -0.1496281772851944, 0.0035270871594548225, 1.9239424467086792, 0.23064568638801575, -0.3665851056575775, -0.5949239730834961, 0.9852132797241211, 0.9594590663909912, -1.8752729892730713, -0.28002965450286865, -0.9910246133804321, 1.2864136695861816, -1.1889843940734863, 0.9356593489646912, -0.43772727251052856, 0.7068111300468445, 0.23693405091762543, -0.361255407333374, -0.3396404981613159, -0.8511995673179626, 1.0754776000976562, -0.8798750042915344, -0.01790107786655426, -1.0600584745407104, -1.8170748949050903, -0.40994295477867126, 0.21896497905254364, -0.25306087732315063, -0.47484689950942993, -0.6675124764442444], [0.5678000450134277, -0.04266922175884247, 2.892671585083008, -0.9862819910049438, 0.4584236145019531, 1.1719931364059448, -0.48048514127731323, -0.8648836016654968, -0.6718805432319641, -0.21954841911792755, -0.46797406673431396, -0.5938366055488586, -0.08387388288974762, 0.44993603229522705, -0.3830012083053589, -0.29664698243141174, -0.7914591431617737, -0.30343493819236755, 0.3654623031616211, 0.6188758015632629, 1.6891189813613892, 0.781536877155304, -0.24669508635997772, -1.7365868091583252, 1.7227779626846313, -0.9216142296791077, -0.7234851717948914, -1.1159125566482544, 1.4784561395645142, 0.814602255821228, -1.4495211839675903, 1.6580405235290527, -0.9186263084411621, -0.2913563847541809, 1.1674436330795288, -0.9796262979507446, -0.13840362429618835, -0.3542633354663849, 1.2939735651016235, 0.826213538646698, -0.8245319724082947, -1.8697254657745361, -0.6727685928344727, -0.01017618179321289, -0.25055134296417236, -0.143362358212471, 0.2965695261955261, -0.9158586859703064], [1.0762431621551514, -1.3156793117523193, -1.944269061088562, -0.634119987487793, -0.9385995864868164, 1.036048173904419, -0.3718705177307129, -0.010333449579775333, 0.7229238152503967, 0.5265429019927979, -0.3508203625679016, -0.5646768808364868, -0.13699917495250702, 0.6575993895530701, -0.6856076717376709, -0.5876320004463196, 0.0681137889623642, -1.2469209432601929, -1.6419503688812256, -1.6378096342086792, -0.07984824478626251, -1.299949049949646, -1.6485333442687988, 0.5719846487045288, 0.26175373792648315, -0.37683379650115967, 0.15202279388904572, 0.6426601409912109, 0.09978978335857391, -0.15419848263263702, 0.230015829205513, 0.6457217931747437, -0.9530800580978394, -0.8703976273536682, -0.23406565189361572, 0.8718160390853882, 1.673020839691162, -1.0652058124542236, 0.8651247024536133, -0.6708406209945679, 0.833382785320282, -0.3784126043319702, -1.3887258768081665, 0.5690764784812927, 1.1400607824325562, 0.8817110657691956, -0.4690552353858948, -0.16165444254875183], [-0.6019266843795776, 1.0372042655944824, -0.48189684748649597, 0.5182173252105713, -2.038757085800171, -0.27355054020881653, -0.15448197722434998, -0.7342042922973633, -1.1025716066360474, 0.0935063287615776, -1.1187940835952759, -0.6787433624267578, 0.07003188878297806, -1.562363862991333, -1.4446455240249634, 0.6043437719345093, 0.3057428300380707, 0.2824575901031494, -0.00026992708444595337, 1.2123997211456299, 1.286204218864441, 0.3654170334339142, -1.3041808605194092, -0.09700928628444672, 0.9617565274238586, 0.3457441031932831, 0.0294148288667202, 0.7804446816444397, 0.6432309150695801, 0.6911289095878601, 1.3067370653152466, -0.4668847322463989, -0.6027036309242249, -1.3743382692337036, 1.007960557937622, 0.4747098982334137, -0.3289579749107361, 0.364982545375824, 0.16163606941699982, 0.9925016164779663, -0.6659688353538513, -0.9125134348869324, 1.505128264427185, -0.08341386169195175, 0.2811950743198395, -0.26471611857414246, -0.1353631317615509, -0.6856062412261963], [-0.3154315650463104, 0.6976012587547302, -0.3824651539325714, -0.19249287247657776, -1.2046157121658325, 1.9720097780227661, 0.5004903674125671, 0.517057478427887, -0.7233446836471558, -0.437107652425766, -0.24350476264953613, -1.0380789041519165, -0.36200758814811707, 0.8125088214874268, -0.3679489493370056, -0.10287118703126907, -0.150132417678833, 0.39646944403648376, 0.17716708779335022, -1.6451748609542847, 0.7257510423660278, 1.3713430166244507, -1.3231357336044312, -1.0940133333206177, -0.7017056345939636, -0.4116186797618866, 0.32524755597114563, -0.1739288866519928, -0.19338765740394592, 0.6173304319381714, 0.4854499399662018, -1.098996877670288, 1.405678629875183, -1.5822149515151978, 0.22711381316184998, -0.26887571811676025, 2.039186716079712, -1.5983326435089111, 0.8735030293464661, -0.7377600073814392, -0.20884959399700165, 0.7834740877151489, -0.13707031309604645, -0.6517016291618347, -1.7892614603042603, 0.06961771845817566, -1.3876537084579468, -0.13532249629497528], [-0.04651309549808502, -0.07512454688549042, -0.6911725401878357, 0.740736722946167, -1.6251368522644043, 0.6133388876914978, 1.8480075597763062, -0.05006920546293259, -0.17261406779289246, 0.20779775083065033, -0.32052868604660034, -0.018727514892816544, 0.12073908746242523, -0.09014216810464859, 1.096251368522644, -0.9254213571548462, 0.13941621780395508, -0.4036175608634949, 0.39160698652267456, -1.3089874982833862, -0.46111854910850525, 0.8490467667579651, -0.9333568215370178, -1.3680858612060547, -0.03126212954521179, 0.019209299236536026, 0.05419724062085152, 0.8419398069381714, -0.10529610514640808, 1.5146524906158447, -0.5331414341926575, 0.17977769672870636, 2.1080808639526367, -0.5186620950698853, 1.200761079788208, -0.16906626522541046, -0.25931888818740845, 0.24840715527534485, -0.4483661949634552, 0.3298410177230835, -0.4659169316291809, -0.264495313167572, -0.9156947731971741, -0.2499571144580841, -1.4591630697250366, 0.20229363441467285, 0.6062512397766113, -0.6220027208328247], [0.6220090389251709, 0.9000891447067261, -0.4587275981903076, 0.11178924143314362, -0.007877528667449951, 1.004778265953064, 2.000140428543091, 0.7848121523857117, 1.2649550437927246, -1.1362248659133911, 0.8003023862838745, 0.13453128933906555, 0.8998556137084961, 0.32302576303482056, -1.4400008916854858, -0.06226343661546707, 1.0449857711791992, -1.2179288864135742, -1.0396738052368164, 0.10469900071620941, 0.028111081570386887, -1.2686158418655396, -0.339261531829834, 1.2082064151763916, -1.0925672054290771, 0.3853040039539337, 0.876220703125, -1.1563588380813599, -0.6003312468528748, 1.2169684171676636, -0.27861157059669495, -0.0220993310213089, 0.266313374042511, 1.0269567966461182, -1.3655675649642944, 0.6299763917922974, 0.8948239684104919, 0.5740309953689575, 0.40989553928375244, -1.4945917129516602, -0.03166580945253372, 0.868107259273529, -0.046790383756160736, -0.2806888222694397, -1.2121416330337524, 1.0507786273956299, -0.5871317386627197, -0.4265500009059906], [0.11640943586826324, 0.8432668447494507, 0.4613417685031891, 1.7303740978240967, 0.6230874061584473, 0.7210599184036255, -0.3794478476047516, -0.32059216499328613, -0.27418217062950134, 0.6590806841850281, 0.00773539487272501, -0.08693146705627441, 0.6700952053070068, 0.8575922250747681, 0.16783690452575684, 1.001899003982544, -0.4301978051662445, 0.18894174695014954, -0.6831837892532349, 1.1708307266235352, 2.110569715499878, -0.027005188167095184, 0.03415314480662346, -1.4856816530227661, -1.2949610948562622, -1.3580139875411987, -1.0442173480987549, 0.5103479623794556, -0.46809113025665283, -0.9587435722351074, -0.8205134868621826, 1.1348179578781128, 0.7804515361785889, -1.019700527191162, -0.4729222059249878, 0.2607206702232361, 1.3922359943389893, -1.0030746459960938, 1.3440139293670654, 0.9004136323928833, 0.1568070948123932, 0.7753718495368958, 0.4812081754207611, 1.1423406600952148, -0.09416326880455017, 1.5422720909118652, -0.5513920783996582, -0.5639065504074097], [-0.2720928192138672, 0.1956392079591751, -0.9704282879829407, -0.5264613628387451, -0.12458010762929916, -0.7564309239387512, 0.7464247941970825, -0.20001961290836334, -1.0551836490631104, -0.739142894744873, -0.970637321472168, -0.6369224786758423, 0.04338923096656799, 0.8976790308952332, 0.9826693534851074, -0.6359220743179321, -0.10992089658975601, -1.2144043445587158, -0.6667357087135315, 0.2644866108894348, 0.25294339656829834, -0.6162757277488708, -0.3439182639122009, 0.7486442923545837, -1.640825629234314, 0.37789055705070496, 0.4537336826324463, -0.9211524128913879, 0.6253238320350647, 0.9572844505310059, -1.116445541381836, 2.1226325035095215, 0.2937341332435608, 0.2617442011833191, 1.2114624977111816, 0.2907728850841522, 0.43933558464050293, -0.34506648778915405, -0.5401716828346252, -0.22375015914440155, -1.0054632425308228, -0.3559959828853607, 1.0406136512756348, 0.7675472497940063, 0.2940022647380829, -0.1683061420917511, 1.207327961921692, -0.6779174208641052], [-1.7318512201309204, -0.11671023070812225, -0.4897906482219696, -0.42669573426246643, 0.15125127136707306, 0.8187569975852966, 0.6519150733947754, 1.6320254802703857, -0.25031325221061707, 1.2516329288482666, 1.5446505546569824, -0.023120976984500885, 0.20232495665550232, -0.5366858243942261, 0.923420250415802, 0.4497813880443573, -0.04130810499191284, -1.1963404417037964, -0.2204090803861618, -0.8451265096664429, -0.5326697826385498, -0.6883621215820312, 1.7495629787445068, -0.387103796005249, 0.17559833824634552, -1.7414947748184204, -0.8209418058395386, -0.20169398188591003, 0.7058265805244446, 1.777941346168518, 0.9093359112739563, -0.10410547256469727, 0.09878334403038025, 0.0840463638305664, 0.7550630569458008, -0.801051676273346, 0.8268892168998718, -0.08156822621822357, -0.6486679911613464, 0.8640967011451721, 0.1795867383480072, -0.060435567051172256, -0.23263999819755554, 0.8732458353042603, -0.4229866564273834, 0.2182961404323578, -0.9453009366989136, 0.7348572015762329], [-0.18963974714279175, 0.9957821369171143, -0.7924776077270508, 0.7392289638519287, -1.0530788898468018, -1.2024970054626465, -1.3773752450942993, -0.7691996693611145, -0.3844531178474426, -1.2153244018554688, -1.0568972826004028, 1.536726474761963, -0.7285757064819336, -0.6537281274795532, 0.8494112491607666, -0.5415084958076477, -1.0193672180175781, -0.43203631043434143, -0.2304897904396057, 0.11597248911857605, 1.188841700553894, -0.7732404470443726, 0.31890952587127686, -1.758983850479126, 0.5354568958282471, 0.43773698806762695, 0.5249904990196228, 1.7314752340316772, 0.2008318305015564, -0.3073449432849884, 0.16385939717292786, 0.9814898371696472, 0.6378084421157837, 0.7518515586853027, 0.12824489176273346, 1.668589472770691, -0.210534006357193, 0.4933110475540161, -0.5569835901260376, -1.2167109251022339, -0.290604829788208, -0.8683336973190308, 0.7830843329429626, 1.0490968227386475, -0.6126332879066467, 0.853193461894989, 0.4981095790863037, -0.654407262802124], [-1.4049122333526611, 0.3657108545303345, -0.27391213178634644, -1.993397831916809, 0.3857998847961426, 0.14652563631534576, 0.3053717613220215, -0.871724009513855, 0.5201712846755981, -0.25086548924446106, 0.47561001777648926, 0.6710132956504822, -0.8401488065719604, -0.5860322117805481, -1.087390422821045, -0.7521751523017883, 1.099636435508728, -0.5944151878356934, -0.630362868309021, -0.22587832808494568, -0.12883314490318298, -1.1447895765304565, -0.1708718091249466, -0.3318086564540863, -0.5578786134719849, -0.2612079679965973, 0.9564200043678284, 0.18458466231822968, -0.2596152722835541, 0.7899115085601807, 0.23204059898853302, -2.2525172233581543, 0.4602327346801758, 1.3442469835281372, -0.34966981410980225, 0.342227041721344, 0.363020122051239, 0.17176634073257446, -1.256360411643982, -1.2770264148712158, 0.5351427793502808, -1.6196980476379395, 0.24126280844211578, -0.05656411871314049, -0.929092526435852, -2.4651670455932617, 0.8790571689605713, 0.5783441066741943], [-1.0637547969818115, -0.981369137763977, 0.4841008186340332, -0.8514562845230103, -0.20196932554244995, 0.3700277507305145, -0.06438586115837097, 0.3641124665737152, -0.06637468934059143, 0.7792192697525024, -1.6492340564727783, -0.560643196105957, 1.9481064081192017, -0.5184138417243958, -0.17683729529380798, 0.9580740332603455, -0.1423160880804062, 1.4491379261016846, 0.5769535303115845, -0.05023247003555298, -0.5445305705070496, -0.11028099060058594, -1.321638584136963, 1.4789385795593262, 0.6669343113899231, 0.9962531924247742, -0.5882585048675537, 0.1802128255367279, 1.267307996749878, 0.9876416921615601, -0.1432560235261917, 0.14172235131263733, -1.7203798294067383, -0.5093002319335938, -1.881701111793518, -0.9808889031410217, -0.8165079355239868, -1.5586129426956177, -0.7289175987243652, -1.2495143413543701, -0.5013970732688904, 0.19632798433303833, -0.20436400175094604, 0.28112995624542236, -0.35182926058769226, -1.170568585395813, 0.710156261920929, -1.2185933589935303], [1.0444878339767456, 0.1098768562078476, -1.0675435066223145, 0.12118509411811829, 0.3304334878921509, -0.7895728349685669, 2.2425050735473633, 0.10278809070587158, 0.5673287510871887, -0.38441455364227295, -0.8287287354469299, 0.9143603444099426, 0.7785488367080688, -2.082118511199951, 1.6130762100219727, -0.4967989921569824, 0.843702495098114, -0.24995273351669312, -0.5443236827850342, 0.6921522617340088, 0.615985631942749, 0.4539835751056671, 0.28040432929992676, 1.0200704336166382, -0.517811119556427, 0.7483228445053101, -0.19825172424316406, 0.5253793597221375, 0.5417835712432861, -0.2398068606853485, 0.8950899243354797, -0.873224675655365, -0.3364304304122925, 1.115214228630066, -0.9825197458267212, -1.280131459236145, -0.810291588306427, 0.5859377384185791, 0.7866026163101196, -0.172568216919899, -0.9551689028739929, 0.19916099309921265, 0.6416032314300537, 0.36261558532714844, 1.0320745706558228, -0.3724587857723236, -1.1524477005004883, 0.838022768497467], [-0.9363398551940918, -1.2409229278564453, -0.4536292850971222, 1.962693691253662, -0.318837434053421, 2.337280511856079, -1.35365629196167, 0.04191870987415314, 0.30563032627105713, -1.5965520143508911, 0.03246070817112923, -0.6674862504005432, 0.968268632888794, -1.4413002729415894, 0.18475081026554108, 0.3443676233291626, 1.8796972036361694, -1.2074408531188965, 0.2246081829071045, -0.01778639294207096, 0.7352054119110107, -0.6473898887634277, 0.20348742604255676, 2.427133560180664, -0.13566574454307556, -0.2547420561313629, 0.28913062810897827, 0.10066749155521393, -0.057182058691978455, -0.26711833477020264, 0.6584402322769165, -0.3071499466896057, -0.018553663045167923, -0.20368647575378418, -1.1644574403762817, 0.7233184576034546, 0.46391791105270386, -0.1508336365222931, 0.8225390911102295, -1.1094285249710083, 0.14285120368003845, 0.002447810024023056, -0.936460018157959, 0.3588358759880066, 1.1389957666397095, 0.04436371102929115, 0.007390487939119339, 0.5474067330360413], [0.29510951042175293, 0.5717658996582031, -1.1819612979888916, 0.9793152213096619, -1.1930967569351196, 0.28824251890182495, 1.240022897720337, 1.202763557434082, 1.081402063369751, -2.2299129962921143, -0.772638738155365, -0.6795963644981384, 0.6280525922775269, -0.9650586247444153, -1.4107211828231812, -0.0608886256814003, 0.2629207372665405, 0.9934496283531189, 0.8146966695785522, -0.08644171059131622, 0.9362397193908691, -1.5347272157669067, 0.3476589322090149, 1.31459641456604, -0.6285115480422974, 0.3004518151283264, 0.17231525480747223, -0.023620305582880974, -1.325393795967102, 1.3817452192306519, 0.9927870035171509, -0.122883640229702, -0.3946189880371094, -0.8711864948272705, -1.1782034635543823, 1.8134510517120361, 0.5152027010917664, 0.07006128132343292, -0.795066773891449, 1.23667573928833, 0.4967436194419861, -0.08983996510505676, 0.652720034122467, -0.11193791031837463, 0.7024053931236267, -1.107743501663208, 0.17461973428726196, -0.15191832184791565], [-0.09553663432598114, -0.7904220819473267, 0.5614564418792725, 0.14985355734825134, -0.44842445850372314, 0.4348334074020386, -0.7284602522850037, -0.34234270453453064, 0.10308071970939636, 0.24307096004486084, -0.6085519194602966, -0.9780302047729492, 1.4604227542877197, 1.5148950815200806, -0.12734347581863403, 1.0507911443710327, 0.7984120845794678, -0.7123260498046875, -1.8864675760269165, -1.333100438117981, -0.7884392738342285, 1.0829254388809204, 1.997227430343628, 0.4443516731262207, 0.9973878264427185, 0.44586557149887085, -0.1846463978290558, -0.7375996112823486, 0.06703206896781921, -0.2868937849998474, 0.023586183786392212, -0.27586495876312256, -0.1499774158000946, -1.544011116027832, 0.5284565091133118, -1.1565825939178467, 1.1821885108947754, 0.2894747257232666, 0.4638543128967285, -0.26378995180130005, -0.18890157341957092, -0.2675614058971405, -0.794054388999939, 1.5859510898590088, 0.43126365542411804, -0.2964214086532593, -0.0015569478273391724, -1.7145634889602661], [0.7812705039978027, 0.07270436733961105, 0.02673676796257496, 0.4764684736728668, 1.301656723022461, -0.16340988874435425, -0.27953866124153137, -1.3063753843307495, 0.09047560393810272, -1.8078185319900513, 0.46505287289619446, 0.21373440325260162, -0.1905585676431656, 0.2388872504234314, 0.34392526745796204, -0.7758491635322571, -0.27943873405456543, -0.6737624406814575, 0.010806649923324585, -1.181488037109375, 1.1465253829956055, -0.955005407333374, -1.1958926916122437, -1.9067438840866089, 0.6322123408317566, -0.8678324818611145, 0.435844361782074, 0.8100353479385376, 1.276102900505066, 1.000042200088501, -0.6265621185302734, 0.1602526307106018, 0.5711612105369568, 0.02493530511856079, -0.34561586380004883, 0.5334470868110657, -1.126670002937317, -0.6916550993919373, -0.14748594164848328, -0.3153550922870636, -0.7477362155914307, -0.43059539794921875, 0.4884285032749176, 1.4189006090164185, -0.12367652356624603, -0.8553711175918579, 0.7720125913619995, 1.0996490716934204], [-0.5558731555938721, -1.116593360900879, -2.0543386936187744, 0.15944236516952515, -1.126310110092163, -0.23858511447906494, -0.4602944254875183, 0.16154907643795013, -1.791683554649353, 0.03093136101961136, -0.1790248453617096, -1.4402915239334106, -0.7174017429351807, -0.5178016424179077, 0.6099550724029541, -1.4538239240646362, -0.02396349236369133, 0.5155958533287048, -0.7109590172767639, 0.2653789520263672, -1.2288856506347656, 0.9960092902183533, 0.059627920389175415, -0.43844130635261536, -0.4830808937549591, -0.6365473866462708, 0.5152896046638489, 0.841119647026062, -1.360656976699829, 1.3124492168426514, -1.090230107307434, 0.5915251970291138, -0.6717866659164429, 0.21896006166934967, -0.7369116544723511, 0.10110002756118774, -0.8219622373580933, 0.4187600016593933, 1.1169569492340088, -0.1664414405822754, -0.9913443922996521, 1.253125786781311, 0.46039879322052, -0.001106753945350647, -0.25091201066970825, -0.7431005239486694, -0.2214493602514267, 0.8442873954772949], [0.4673652648925781, -1.5544205904006958, -0.03666379675269127, 0.05469376593828201, -1.7994316816329956, 0.5846312046051025, 0.006075255572795868, -1.0334676504135132, -0.17150424420833588, 0.794264554977417, 0.28793466091156006, 1.2172656059265137, 1.246074914932251, 0.06593608856201172, 1.5265827178955078, 0.6242592334747314, -0.3758578896522522, -0.879580557346344, -0.05618295073509216, 2.0605838298797607, 0.2605527639389038, 0.2891417443752289, -0.6742752194404602, 2.5841588973999023, -1.3635766506195068, -0.7776195406913757, 1.1840157508850098, -0.753169059753418, 1.057213544845581, -1.0336428880691528, -1.956632137298584, -1.086279034614563, -0.2204238325357437, -0.7617844939231873, -0.03499241918325424, 0.15383280813694, -0.11761981248855591, -0.04786638915538788, -1.1908031702041626, 0.35806623101234436, -0.4699123501777649, 0.0748969167470932, -0.33165243268013, 1.1142913103103638, -0.2969520092010498, 0.8646467328071594, -0.8335887789726257, 0.15233980119228363], [2.369980573654175, 1.1868685483932495, -0.42535367608070374, 0.9917547702789307, -0.9858279824256897, -0.30841532349586487, 1.4584354162216187, -0.12975625693798065, 1.0453964471817017, 0.2113557904958725, 1.6035242080688477, 0.15956981480121613, 0.4604395627975464, 1.9397071599960327, -0.8955193161964417, -1.0046292543411255, 1.2069694995880127, -0.12422280013561249, -0.7261753678321838, -0.4385320246219635, -0.8586004376411438, 0.21596269309520721, 0.45425891876220703, 0.3695638179779053, -0.6166170239448547, 1.0350240468978882, 0.4252520203590393, -0.4569995105266571, 0.1375080943107605, -0.6429619789123535, -0.6355727314949036, 0.05243165045976639, -0.10298025608062744, -0.9013538360595703, 0.3555430471897125, -0.6491684913635254, -0.10254091769456863, -0.6128416061401367, -0.37197446823120117, 0.21945494413375854, 1.5767453908920288, 0.0039574941620230675, -0.2364700883626938, -0.42337101697921753, -0.6096628904342651, 0.5164970755577087, -0.11948984116315842, -0.6920291185379028], [2.1419200897216797, -0.5074623823165894, 0.2257392704486847, -1.846404790878296, -0.1479129195213318, -0.34718018770217896, -1.0227417945861816, -0.1928449273109436, -1.0405995845794678, -0.2320680171251297, -0.4588557183742523, -0.10628341138362885, -0.9288337826728821, -0.15934526920318604, -0.7679979205131531, 0.3594672977924347, -0.4385749101638794, 1.4594916105270386, -0.6404235363006592, -0.984352707862854, 0.7154295444488525, -0.22307918965816498, 0.4013669192790985, 0.20794029533863068, 1.1856824159622192, 0.39179709553718567, -0.2525574564933777, 0.8134765625, -0.26007139682769775, -0.6126751899719238, 0.44259756803512573, -0.273684561252594, -0.3703894317150116, -0.6907511949539185, -0.8260583281517029, -0.4009017050266266, 1.978338599205017, -1.347684621810913, -0.9840191006660461, 0.16664043068885803, -1.1412464380264282, -0.6380560994148254, 0.7728939056396484, 0.0058256834745407104, -0.18543072044849396, 1.0836596488952637, -0.8362650275230408, 0.7438716888427734], [-0.6978278160095215, -0.34794363379478455, -1.3443578481674194, -0.3450029492378235, 0.008522063493728638, 0.05443450063467026, -0.10075356066226959, -0.012272506952285767, -0.8759610056877136, -0.2965027987957001, 0.14495396614074707, 0.9613087177276611, 0.36408716440200806, 0.7085005640983582, -2.9748828411102295, 0.14045141637325287, 0.310762494802475, 0.4216303825378418, -1.5362751483917236, 0.16902287304401398, 0.9360348582267761, 1.500906229019165, 1.0091863870620728, -1.0979173183441162, -0.5047951340675354, -0.4248959422111511, -0.20667126774787903, 1.001603364944458, -0.2863030731678009, 0.11280687153339386, 0.8352588415145874, -0.6145387291908264, -0.4448607563972473, 1.193613886833191, -0.5043948888778687, -0.08250214904546738, -0.11238226294517517, 0.038319677114486694, 1.5595691204071045, -0.02934064343571663, 0.7519352436065674, 0.20852375030517578, 1.5003390312194824, -1.1081032752990723, -1.7574985027313232, -0.47971099615097046, -0.3046114146709442, -0.6434037089347839], [-0.6523906588554382, 0.11083357036113739, -0.8875178098678589, 0.7685980796813965, -0.6834514141082764, -0.04887692257761955, 1.0780342817306519, -0.04908694326877594, -0.7708492279052734, -0.38299962878227234, 0.8682995438575745, -0.9154173135757446, -0.8418245911598206, -0.8201336860656738, 0.8335981369018555, -0.9604479074478149, -0.636749804019928, 0.5130167007446289, 1.1006159782409668, 0.10439566522836685, -0.2821465730667114, -1.3740078210830688, -0.6603970527648926, 1.810394048690796, 1.4043647050857544, -0.5270004868507385, 0.35068488121032715, -1.6232131719589233, -0.3501913547515869, -0.31388410925865173, 1.3220808506011963, -1.1936514377593994, 0.0021202415227890015, 0.7446892857551575, 0.018642369657754898, -2.22373366355896, -0.11874071508646011, -0.08077752590179443, -0.06534463167190552, -0.49224406480789185, -0.8552706837654114, 0.5795495510101318, -0.6768444180488586, -0.9383254051208496, -0.23017233610153198, 1.0072174072265625, 0.006640296429395676, -0.031162530183792114], [-3.055180311203003, 0.5327243208885193, -0.5408419966697693, 0.07893569767475128, -0.957285463809967, -0.7198349833488464, -1.5883375406265259, 0.4358471632003784, 0.5663883090019226, 0.7255067229270935, 0.22368909418582916, 1.0833792686462402, 0.50099116563797, -0.9532836675643921, -2.2219178676605225, -0.30894219875335693, -1.1044321060180664, -0.9989867806434631, 0.4892893135547638, -0.3470088243484497, 0.8589258790016174, -1.1922533512115479, 0.2605263590812683, 0.38112935423851013, 0.8263521790504456, -0.4843209981918335, -0.6475088000297546, -0.8401710987091064, -0.8904057741165161, -0.8190497159957886, -0.4166189730167389, 2.0569136142730713, -0.13321834802627563, -0.8968750238418579, 0.6118016242980957, 0.7571658492088318, 0.40070974826812744, -1.1864259243011475, -0.42856305837631226, 0.17458674311637878, 0.2860967218875885, -0.21449071168899536, -0.5148191452026367, -0.2970326542854309, -0.30510979890823364, 1.5408352613449097, 1.514336109161377, -1.2922295331954956], [0.8080319762229919, -1.7082738876342773, -1.3046491146087646, -1.3754035234451294, -0.5591692924499512, 0.642569363117218, 1.1749931573867798, 0.15622007846832275, 0.44068267941474915, -0.406415730714798, 0.25496914982795715, 1.2976900339126587, -0.4848472774028778, -0.022113412618637085, -1.7113206386566162, -0.6661605834960938, 2.0026745796203613, -0.37739297747612, 0.6111412644386292, -0.11012008786201477, 0.08205537497997284, 0.6223353147506714, -0.5726536512374878, 1.400744915008545, -0.10735253989696503, 1.3346196413040161, 0.8831309080123901, 1.694627046585083, -0.17452360689640045, -0.17802000045776367, -1.03926682472229, 1.1653844118118286, -0.6349462270736694, -0.3723866939544678, 0.18145892024040222, 1.106934905052185, -0.19015632569789886, -1.1250451803207397, -0.22076797485351562, -1.1289587020874023, -0.45477938652038574, -0.5165706276893616, 1.8669819831848145, -0.49220067262649536, 1.193181037902832, 0.27903392910957336, 0.6459432244300842, -1.472052812576294], [-1.017996072769165, -1.5411441326141357, 0.6291961669921875, 0.7939174771308899, -1.0018234252929688, -1.6773717403411865, -0.691089391708374, -0.7965923547744751, 0.16476956009864807, 0.5839278101921082, -0.8164036273956299, -0.5386712551116943, -0.13098593056201935, 1.2311211824417114, 1.7358890771865845, -1.0825976133346558, -1.1258667707443237, 0.44250816106796265, 0.07100334763526917, -2.950244903564453, 0.6442198753356934, 1.166333556175232, -0.06785358488559723, -0.552435576915741, 0.23019802570343018, 0.5572921633720398, 1.9708698987960815, -2.0234358310699463, -1.707497239112854, -0.7529230713844299, 0.5680150985717773, -0.5630031824111938, 0.11824019253253937, 0.9838627576828003, -0.3976651132106781, -0.21145617961883545, -2.1930184364318848, 0.9607325196266174, 0.30151695013046265, 0.3946476876735687, 0.8013799786567688, -0.39159759879112244, 1.1870288848876953, -1.9983714818954468, -0.5147215127944946, 0.024289600551128387, 0.32783880829811096, 0.5086321234703064], [-1.3337633609771729, 1.143973469734192, 0.2940155565738678, 0.5666741132736206, 0.17629148066043854, -1.0205843448638916, 0.24225114285945892, 1.3950618505477905, -0.7266851663589478, -0.1497865617275238, -0.7725293040275574, -0.18943196535110474, 0.5842006802558899, 0.42046448588371277, 1.3422760963439941, -1.037939190864563, -0.19968485832214355, -0.579072117805481, 0.035671137273311615, 1.4882605075836182, -1.2797222137451172, -1.2837730646133423, -0.6221916079521179, -1.1284774541854858, -0.31474626064300537, -0.1578800529241562, 0.10099990665912628, 0.2567722201347351, -0.5126994848251343, -0.4147240221500397, 0.9512441158294678, -0.5362005233764648, -0.3897167146205902, 1.4511711597442627, -1.6428844928741455, -0.2977580428123474, 1.5761829614639282, 0.6470996737480164, 0.34221160411834717, -0.10244706273078918, 0.6793376207351685, -0.10661481320858002, -0.13250693678855896, -1.1226913928985596, -0.29759398102760315, 0.3062417507171631, -0.7197361588478088, 0.6496255993843079], [-0.1558457612991333, 0.6973565220832825, -0.711795449256897, -0.9619972705841064, -0.08082679659128189, 0.3628484010696411, -0.7218714952468872, -1.0146021842956543, 0.8912181258201599, -0.31169599294662476, -0.8591980338096619, -1.091504693031311, -0.039440736174583435, -0.4390745162963867, 0.8350720405578613, 0.8717045187950134, 0.6615867018699646, 0.9685866236686707, -1.376663088798523, -0.9041684865951538, 0.39875996112823486, -0.816017746925354, -0.5731263160705566, 0.046300675719976425, 0.836448073387146, -1.1321598291397095, 0.206609845161438, -0.6812370419502258, -0.5799286365509033, 0.24853655695915222, -1.690883755683899, 0.3794439435005188, 0.33186155557632446, 0.12770554423332214, 1.1183161735534668, 1.7082936763763428, -1.2920207977294922, -1.2984017133712769, 0.4529150724411011, -0.142825648188591, 0.5311383605003357, 0.9647843241691589, -1.0301234722137451, 0.37383008003234863, 0.11976988613605499, -1.6621884107589722, 1.0259889364242554, 0.9719541072845459], [-0.836292564868927, 0.4493524134159088, 1.078358769416809, -0.7890341281890869, 0.43050581216812134, -0.9472797513008118, 0.43148931860923767, 0.3987944424152374, -1.1600219011306763, 0.08458129316568375, 0.10764957964420319, 1.4360313415527344, -0.8786089420318604, -1.2699133157730103, 1.4576455354690552, -0.9581148028373718, -1.1056517362594604, 0.6443710923194885, -1.4323440790176392, 0.9433003664016724, -0.821586012840271, -1.1784262657165527, -0.005182698369026184, 0.4603217542171478, -1.0400766134262085, 1.0892918109893799, -0.3387299180030823, -0.3076355457305908, -1.101440191268921, -0.6235068440437317, 0.5761007070541382, -0.23475877940654755, -0.9505513906478882, 0.8452016115188599, -0.9495965242385864, -0.21934127807617188, -1.3379218578338623, 0.6530272364616394, -0.6525314450263977, 0.28120478987693787, 1.4326115846633911, -1.2860770225524902, 0.3857235908508301, -0.38630908727645874, 1.3841619491577148, -0.5225139856338501, -0.11401404440402985, -0.17430302500724792], [-1.9599114656448364, 0.31751567125320435, 0.4014243483543396, -0.10699969530105591, -0.9275994300842285, -1.6392902135849, 0.7776578664779663, 0.2842702567577362, -0.5718722343444824, -0.3205021917819977, 1.5105372667312622, -0.383602499961853, -1.1451096534729004, -0.8666715025901794, -1.28513765335083, -1.3748434782028198, -0.18243683874607086, -1.4746016263961792, -0.03538624942302704, -1.2349733114242554, 0.7275097370147705, 0.834202766418457, 1.8281352519989014, 0.38463032245635986, -1.116378664970398, 0.35234567523002625, 0.20279626548290253, 0.4784337878227234, 0.07025369256734848, -2.266235828399658, 0.3725541830062866, -0.030296197161078453, -0.1538848578929901, -1.3330590724945068, 1.5331660509109497, -1.136996865272522, -0.503961443901062, 0.18227609992027283, -0.6990183591842651, -1.8543238639831543, 0.5880555510520935, 0.41722217202186584, -0.7336371541023254, 0.9908111095428467, -1.2549543380737305, 0.7076147198677063, 0.9372546076774597, -2.0342042446136475], [1.0955836772918701, 1.4416499137878418, -2.268974542617798, -0.4768577814102173, 1.3663651943206787, -2.0215909481048584, -0.27688661217689514, -0.3784051835536957, -1.2263301610946655, 0.6497079730033875, -0.08668879419565201, 0.38932788372039795, 0.8572397232055664, -0.9239171743392944, -0.969767689704895, 1.0285484790802002, -0.7975042462348938, -0.8211882710456848, -0.10464461892843246, 0.5061984658241272, 0.40807095170021057, -1.060624599456787, -0.20537035167217255, -0.09771677106618881, 1.0772353410720825, 0.40457746386528015, -1.0196397304534912, -0.6738038659095764, -1.1031756401062012, 0.7588355541229248, 0.13896755874156952, -0.08296172320842743, 0.37040382623672485, -0.8976933360099792, 0.48790493607521057, -0.31445327401161194, -0.4106825888156891, -0.7658436894416809, -0.5223588943481445, 0.5876035094261169, -0.41522419452667236, 0.4582171142101288, 0.2575431168079376, 0.4756543040275574, -0.11968938261270523, 1.0723906755447388, 1.2630412578582764, 1.3207579851150513], [-0.28444159030914307, -1.0902398824691772, -0.8603312969207764, 1.433030366897583, -0.5537203550338745, -0.6936293244361877, -0.6900839805603027, 0.7317166328430176, 0.40979433059692383, 1.0219974517822266, 0.3809777498245239, 0.49650928378105164, -0.4493357837200165, 0.6063370108604431, -0.16866450011730194, 1.326022744178772, -0.42367246747016907, -0.12107424437999725, -1.0125197172164917, -0.18267081677913666, -0.6906645894050598, 0.6337475776672363, 1.1084550619125366, -0.7142996788024902, 0.17287111282348633, -1.6621910333633423, -0.3456994891166687, -0.6808212399482727, -0.5329797267913818, -0.15532368421554565, -0.10177697241306305, -0.32387062907218933, 0.36714985966682434, 0.4873370826244354, -1.6249920129776, -1.7753499746322632, -0.9199787378311157, 0.4685821831226349, 1.123595952987671, -0.12926815450191498, -0.47462406754493713, -1.322835922241211, 0.9329196214675903, 0.4696747064590454, 0.1757676899433136, -1.4815376996994019, 0.4382883608341217, -0.07730747014284134], [0.05387495458126068, 0.4649287462234497, -1.4258464574813843, -1.7677383422851562, 0.5695644021034241, -0.6416559219360352, 0.7272558808326721, -0.6934685707092285, -0.6255096197128296, -0.19988815486431122, 0.26006194949150085, 0.9455280900001526, 0.04291805624961853, 1.577361822128296, 1.1151535511016846, 0.5969883799552917, 0.6609381437301636, -1.5703792572021484, 0.3706522583961487, 0.08771196007728577, 0.2233574241399765, -0.5756472945213318, -1.5334595441818237, -0.4266212284564972, 0.5605767965316772, -0.7658491134643555, 0.5683540105819702, -0.629805862903595, 0.47193586826324463, 1.2563765048980713, 0.12782561779022217, -0.8836627006530762, 1.1043881177902222, -0.8006040453910828, -0.6008371114730835, 0.60101318359375, -0.5404181480407715, -0.4418901801109314, 0.008212149143218994, 1.0829859972000122, 0.1091495156288147, 1.5324018001556396, 0.22704234719276428, 0.30744367837905884, 0.11648745834827423, 0.7850117087364197, -1.4827558994293213, 0.25340232253074646], [0.14183396100997925, 0.5511454343795776, -0.5191384553909302, 0.26377326250076294, -0.45593273639678955, 1.9636842012405396, -0.024421527981758118, -1.3353017568588257, -1.076401948928833, 0.751409649848938, -0.7792544960975647, -0.5960043668746948, -0.8835175037384033, -1.44077467918396, -0.19759902358055115, 0.6942927241325378, -0.4607810378074646, -2.373427152633667, -0.1658501923084259, -0.4086223244667053, 0.2093028724193573, -0.9685013890266418, -0.17715424299240112, -0.00894998013973236, -0.6978328824043274, 0.5950133204460144, -0.7615050673484802, -0.8218705654144287, -0.8131296038627625, -0.4760769009590149, -1.2973685264587402, 0.9395619630813599, 0.7136673331260681, 0.020823942497372627, -0.6403965353965759, 0.4846988916397095, -0.18293146789073944, -1.1702808141708374, -0.679703414440155, 0.19873464107513428, -0.11380130052566528, -1.3478398323059082, 0.6818961501121521, 0.44989147782325745, 0.4667978286743164, -0.5902113318443298, -0.18088150024414062, 0.46741101145744324], [-0.9160690903663635, -0.11316874623298645, 1.7869489192962646, -0.361987829208374, 0.5274276733398438, 0.120230533182621, -0.8163730502128601, -2.191706895828247, -0.512572169303894, 0.5276312828063965, -0.9835615158081055, -0.5142496824264526, -1.3889780044555664, -0.6647154688835144, 0.9646047353744507, -0.6123898029327393, -0.841066300868988, 0.6122498512268066, -0.2500922679901123, -0.058271925896406174, 2.0437774658203125, -0.4480222165584564, -0.6225236058235168, 0.5047321915626526, -0.8218632340431213, -0.47565552592277527, -0.803955614566803, -1.3041504621505737, 0.31372177600860596, -0.8005452752113342, -0.014631753787398338, -0.13409815728664398, 0.10870174318552017, -0.5135824680328369, 2.1261229515075684, 0.23725394904613495, 0.1591903567314148, -1.524915337562561, -1.0941314697265625, -0.4939505159854889, -0.18366771936416626, 1.0940970182418823, -0.6632153391838074, -0.3270236849784851, -0.5328391790390015, 1.6518356800079346, 0.31978800892829895, 0.7691522240638733], [0.1999603807926178, 0.2322506606578827, -0.7613527178764343, 0.6936106085777283, -1.6669350862503052, 0.4181212782859802, 0.027622465044260025, 0.1954483687877655, 0.7056668996810913, -1.5776314735412598, 0.260430246591568, 0.5744231939315796, -0.040188372135162354, -0.4628886580467224, 0.15656565129756927, -0.8632017970085144, -1.7240064144134521, 0.27424687147140503, 0.25349557399749756, -0.6223494410514832, 0.6679432392120361, 0.44177713990211487, -0.35919496417045593, -0.8034508228302002, 0.3250451982021332, -0.03548842668533325, 1.0207960605621338, 1.5854703187942505, -0.8253205418586731, -0.02297636866569519, -0.27673041820526123, -0.2405151128768921, -1.2467788457870483, 0.9112652540206909, 0.4592275619506836, -0.3972502052783966, 0.42810139060020447, -0.4883168637752533, -0.358351469039917, -0.818922221660614, -0.2475881278514862, -0.030358046293258667, 1.8981068134307861, 1.0766394138336182, -1.2058191299438477, -0.1960679292678833, 0.41333332657814026, 1.1471375226974487], [-0.4339223802089691, -1.1454393863677979, 1.7379509210586548, 1.2881656885147095, -0.4536004364490509, 0.7571666240692139, -0.12358041107654572, -0.3425707519054413, 0.3544624447822571, -0.30744045972824097, 0.5845036506652832, -0.41374319791793823, -1.3017600774765015, -0.36084437370300293, 0.40909263491630554, -1.0551735162734985, 0.5228458642959595, -0.6245425939559937, -2.228766918182373, 0.6396778225898743, 1.084494948387146, 1.2769482135772705, -1.177148699760437, 0.007339790463447571, 0.13819462060928345, -1.3456616401672363, -0.6719954013824463, 1.860181450843811, 1.5014930963516235, 0.4722840189933777, -0.7670878171920776, 2.4361934661865234, -0.4300799071788788, 0.02671605348587036, 1.3488948345184326, -0.4300438165664673, 1.3391692638397217, 0.2493051141500473, 0.07934816181659698, 0.28112220764160156, -1.8392860889434814, 0.16172227263450623, 0.04272930324077606, 0.15823209285736084, 0.21157044172286987, 0.5903319120407104, 0.660275936126709, 1.9711534976959229], [-1.0388318300247192, -0.11688890308141708, 0.6076602935791016, 0.8103440403938293, 0.9448147416114807, -0.20563749969005585, -0.09701991826295853, 0.17376329004764557, 1.6657177209854126, 0.4168659448623657, 0.5501694679260254, -0.17199291288852692, 0.5659949779510498, 0.2216178923845291, 1.7128273248672485, 0.2911292314529419, -0.2737506628036499, 0.20616744458675385, 0.46177399158477783, 0.058770958334207535, -0.6815202236175537, -0.2395065724849701, 1.94771409034729, 0.9511734247207642, -0.7999147772789001, 0.6201896667480469, -0.1272682100534439, -0.4184364378452301, 0.8355357646942139, -1.0812081098556519, -1.0026028156280518, -2.5050461292266846, -0.31142449378967285, 0.3713974356651306, 1.2962653636932373, 0.13227401673793793, -0.7739590406417847, 0.6208264827728271, 0.8141065835952759, -0.03197954222559929, 0.0775030255317688, 0.3347615599632263, -0.2272585928440094, -0.8450802564620972, 0.3012658953666687, -1.0029878616333008, -0.4016961455345154, -1.7705645561218262], [1.8183847665786743, 1.2926955223083496, -0.6927922964096069, 0.034061506390571594, 0.4388735592365265, 0.766066312789917, -0.835970401763916, 1.2747998237609863, -0.40067580342292786, -0.23620040714740753, 1.1729437112808228, 0.24438661336898804, 0.07944320142269135, 1.5031265020370483, 0.7890504002571106, -0.18219295144081116, 0.6911864876747131, 0.10061508417129517, -0.5933035612106323, 1.2304306030273438, -2.0580081939697266, -0.22630539536476135, -0.5767065286636353, -1.714048147201538, -0.6197139620780945, 2.0172529220581055, 1.6104071140289307, -0.33614927530288696, 1.0206645727157593, 0.5149206519126892, 0.13607996702194214, -0.6165136098861694, 1.245336890220642, -0.8409097790718079, -0.23041650652885437, -1.2066388130187988, -1.0599817037582397, 0.5576816201210022, -0.3716013431549072, -0.12320107221603394, 0.03840688616037369, -0.0019383877515792847, 0.7287086844444275, 0.8728381991386414, -0.9455382823944092, -0.7764998078346252, 0.2227320820093155, 0.4236757159233093], [-0.22608330845832825, 1.7208675146102905, 0.5140580534934998, 0.0695200115442276, 0.6681645512580872, -1.0683393478393555, 1.295271873474121, 0.39910370111465454, -1.380190372467041, -1.4429622888565063, 0.7887311577796936, 0.15146386623382568, -1.08913254737854, -0.551580548286438, 0.7207292318344116, -0.19603000581264496, -0.4108848571777344, 0.45379674434661865, -0.9577156901359558, -0.11921950429677963, -0.3793426752090454, 0.7337000966072083, -1.685132622718811, -1.0524214506149292, 0.22675777971744537, 0.10051097720861435, -0.785273551940918, 0.503153920173645, 1.2541979551315308, -0.03521953523159027, -0.24172256886959076, 1.2148858308792114, -0.592917263507843, -0.20321954786777496, -0.293770968914032, -0.7482907772064209, 0.6423138380050659, -0.9148604273796082, -0.12097860872745514, 0.05242443084716797, -0.13347800076007843, -0.00742436945438385, 0.7207311391830444, 1.5948749780654907, -1.1944868564605713, -1.000004529953003, -1.3128548860549927, 0.11630639433860779], [-0.18126359581947327, 1.1564102172851562, 1.1122926473617554, 0.8610323667526245, -0.9254984855651855, 0.7179984450340271, -0.0036705993115901947, 0.21561847627162933, -1.1284916400909424, -0.1255110651254654, 0.5638825297355652, -1.1681263446807861, 0.9280548691749573, 2.0688741207122803, 0.881540060043335, 1.2794020175933838, -0.7359835505485535, -2.4088082313537598, -0.2546374201774597, -0.16704300045967102, -0.8070469498634338, -1.1560944318771362, -1.0404973030090332, -1.1301028728485107, 0.4087449908256531, -0.31766265630722046, -1.1811749935150146, -0.8382874131202698, -2.0396831035614014, 0.3918067216873169, -1.083796739578247, 0.6497430205345154, 0.5633697509765625, 0.015868186950683594, -1.2649164199829102, 0.0010901689529418945, 0.6822561621665955, -1.379424810409546, 0.7972451448440552, 0.46690425276756287, -0.25817129015922546, 0.9902406930923462, -0.3039115071296692, -0.8592262864112854, -0.1045697033405304, 0.7662044763565063, -0.41487574577331543, 1.831676959991455], [0.6214648485183716, 0.41231364011764526, -0.093077152967453, -0.017798572778701782, -1.5410372018814087, 0.6025605797767639, -1.1157811880111694, 1.7087594270706177, 1.0753885507583618, 0.8315576910972595, -0.18002474308013916, 1.2144317626953125, 0.19435280561447144, -1.3541169166564941, -0.7617216110229492, -1.208589792251587, 0.00585087388753891, -0.7290346622467041, -1.4216111898422241, -0.4638502895832062, -1.318888783454895, 0.4381018280982971, -1.7443453073501587, 2.6931519508361816, 0.02940412610769272, -0.40774625539779663, 0.25057679414749146, -0.7444615960121155, -0.6171259880065918, -0.646824836730957, -0.41171345114707947, 1.1347997188568115, -1.8188426494598389, -0.23838353157043457, 1.4730322360992432, 0.8675201535224915, -0.483193576335907, 0.8570749163627625, -0.29406365752220154, -1.5173203945159912, 1.2580060958862305, -0.45503365993499756, 0.44085609912872314, 1.267940640449524, -0.21071070432662964, -1.0663843154907227, 0.4791870713233948, 0.24404650926589966], [0.009901106357574463, 0.8032690286636353, -0.00555044412612915, -0.8733614683151245, 0.7873043417930603, 1.2563583850860596, -1.4893124103546143, 0.7951102256774902, -0.6377171874046326, 1.5588490962982178, -0.125837504863739, 0.5849775671958923, -0.5845767855644226, 0.8424280881881714, -0.4972456097602844, -0.8123152256011963, 0.6068688631057739, 0.693855881690979, 0.20629744231700897, -0.5777807831764221, 0.9104697704315186, -0.44028133153915405, -1.599434733390808, -1.347036361694336, -1.2661925554275513, 0.26313674449920654, 0.16918373107910156, 0.1834593117237091, 0.5736200213432312, 0.9399600625038147, -0.9281775951385498, 0.08657361567020416, -0.556412935256958, 0.6536237001419067, -0.2634052038192749, 0.08857125788927078, 0.14794094860553741, 1.5839107036590576, -2.069898843765259, -0.8358213305473328, 0.27798962593078613, -0.24744382500648499, 0.4484165906906128, -0.2856703996658325, 0.2675858736038208, 1.0143332481384277, -0.5652904510498047, -0.9310281872749329], [0.20939940214157104, -0.5397101640701294, 0.15383176505565643, 0.5423660278320312, 0.15183767676353455, 1.1373299360275269, -0.325954407453537, -1.0567504167556763, 0.8186882734298706, 0.8763039112091064, 0.7360111474990845, -0.41583311557769775, 0.17790617048740387, -0.4387744665145874, 0.9696298837661743, -1.1035559177398682, 0.2707505226135254, -0.8455187082290649, 1.1039040088653564, 0.6156736016273499, -0.5452193021774292, 0.10900233685970306, 1.3819514513015747, -0.32516056299209595, -0.20188841223716736, -0.6628016829490662, -1.6024305820465088, 1.5706137418746948, 0.7883871793746948, 1.992362141609192, 0.485012412071228, 0.1243099719285965, -0.035038482397794724, 1.2819362878799438, 0.8509449362754822, 1.0674219131469727, -0.686643660068512, -0.056122951209545135, 1.05012845993042, 0.7567083239555359, 0.009544101543724537, -0.7717761397361755, -0.10606582462787628, 0.21660616993904114, -0.8104918599128723, -0.9869446158409119, 0.9024468064308167, -0.4615691304206848], [0.3032327890396118, 0.018115218728780746, 0.08578063547611237, -0.1767629086971283, -0.4849269986152649, -0.4245763123035431, -1.341711163520813, 0.6414231657981873, -0.5009639263153076, -0.7321528196334839, -0.640713095664978, -0.8469362854957581, 1.128516674041748, -0.2852441072463989, -0.1361335813999176, -0.2643395960330963, -0.2482520490884781, -0.5048418641090393, -0.46596816182136536, -0.21502438187599182, -0.25808653235435486, 0.5382630228996277, -2.4003851413726807, 0.39526569843292236, -0.4018183648586273, -0.20843806862831116, -1.2348405122756958, -2.113950729370117, -1.6848820447921753, -0.6174007654190063, 1.6843777894973755, 0.0268983393907547, -0.43365728855133057, -1.5030781030654907, 0.34778478741645813, 1.0544041395187378, 0.0997159332036972, -1.4043090343475342, 0.0007243677973747253, 0.298258513212204, -0.24043008685112, -0.5418747663497925, -0.7760418057441711, 0.9314687252044678, 1.0060007572174072, 2.0922226905822754, 1.12217116355896, -0.11270786076784134], [0.8945895433425903, -0.4500507116317749, -1.3490909337997437, -1.1326695680618286, -1.271013855934143, 0.26476266980171204, -0.2290765941143036, 0.25038236379623413, -0.19438204169273376, 0.5788816809654236, -1.2603373527526855, -0.07299716770648956, 0.9569905400276184, -0.3531179130077362, 1.6886769533157349, -0.3222310543060303, 0.8543468713760376, -1.2376224994659424, -2.7279961109161377, -0.5132077932357788, -0.5116773843765259, 1.277431845664978, 0.2217021882534027, -0.001514732837677002, 2.4699130058288574, 2.305659532546997, 0.38016122579574585, -1.4774147272109985, -0.022255197167396545, -1.3944740295410156, 0.9868163466453552, 0.9223102331161499, -1.4784541130065918, -1.629218339920044, 1.032321810722351, 0.26351603865623474, 0.699410617351532, -0.4288027584552765, -0.7623144388198853, 0.7966634035110474, 0.04045509919524193, 0.24286799132823944, 1.5641443729400635, -1.1528689861297607, 1.1194672584533691, -0.9730929136276245, -1.0371514558792114, 0.9892871379852295], [-1.7737244367599487, -1.0569249391555786, 1.0678435564041138, 0.19108116626739502, 0.7608583569526672, -0.07909918576478958, -1.7036336660385132, 1.154441475868225, 0.3065013885498047, 1.7234318256378174, -0.4447796046733856, 0.4279496967792511, -0.37481820583343506, 1.768740177154541, -0.7576863169670105, 0.5774892568588257, 2.0273685455322266, 0.38524970412254333, -1.066428542137146, -0.7764855623245239, 0.49644240736961365, -0.7001978158950806, 0.5092227458953857, 0.31064534187316895, 0.9390202164649963, 0.8800261616706848, 0.1995108425617218, 0.4924113154411316, -0.07852105796337128, 0.5761982202529907, 0.45768097043037415, 1.1085610389709473, 0.2345028966665268, -0.5017097592353821, 1.6115988492965698, -0.5996787548065186, 0.4717724621295929, 0.031309887766838074, 1.1236538887023926, -0.9991653561592102, -1.7122989892959595, -0.65746009349823, -0.8519678115844727, -0.13239872455596924, 0.6468279957771301, -1.122370719909668, 0.6616250872612, -0.1677805483341217], [1.3087841272354126, 0.7366133332252502, 0.02416142076253891, 0.7116026878356934, -0.2931566536426544, 0.1552196443080902, 0.20568931102752686, -0.20408731698989868, 0.5954498052597046, 0.5376511216163635, -0.7444150447845459, -1.2108350992202759, 1.526304841041565, 0.4238547086715698, -0.4285767674446106, -1.7716306447982788, 0.7476325631141663, 0.4086070954799652, 0.4155927896499634, -1.443942904472351, 0.058039940893650055, 0.6049906611442566, -0.4359979033470154, -1.695993423461914, -0.46453726291656494, -0.2553868293762207, -2.077059268951416, 1.4255344867706299, 0.644619345664978, -0.033387959003448486, 0.7011997103691101, 0.8178223371505737, -1.014320731163025, 0.1491917073726654, -0.2904386818408966, 0.39418867230415344, 1.079932689666748, -0.9718825817108154, -1.4166778326034546, -0.7875303626060486, -1.7820565700531006, 1.7421326637268066, -0.7087349891662598, 1.0016251802444458, -0.08281487226486206, 0.22224679589271545, -0.10048772394657135, -1.8889613151550293], [-0.3861234188079834, 0.37715211510658264, 0.6771105527877808, 0.3434281051158905, -0.03739157319068909, 1.1184492111206055, -0.16612029075622559, -0.20448310673236847, 0.11467164754867554, -0.0117550790309906, 0.07030889391899109, -0.16828574240207672, -1.611822247505188, -1.6888617277145386, 0.35051873326301575, -0.5007127523422241, 0.6134641766548157, -0.4205794930458069, 0.37280648946762085, 0.13060997426509857, -0.06015978008508682, 0.8664746284484863, -0.07170265913009644, -0.23556427657604218, -0.010371476411819458, 0.8187472820281982, 0.8583410978317261, -0.16505067050457, -0.43255168199539185, -0.27172088623046875, -2.0852103233337402, 1.1273516416549683, -0.13529999554157257, 0.7724225521087646, -0.3510987162590027, 0.7926962375640869, 0.8206498622894287, -1.4550718069076538, -0.24709196388721466, -0.49155616760253906, -0.03177183121442795, -0.0556124672293663, 0.6112678050994873, -0.8686882853507996, 2.1805174350738525, 1.3823888301849365, -0.21676991879940033, -1.2009525299072266], [1.029526948928833, 1.6808418035507202, -0.7972741723060608, -0.22291648387908936, 0.30265045166015625, -1.016339659690857, 0.8400508761405945, 0.7395472526550293, -0.07435725629329681, -0.0854552686214447, -0.051030971109867096, 1.393512487411499, 0.11419203877449036, -0.923250138759613, 0.7135470509529114, 0.20507420599460602, -0.0852317214012146, 0.3065389394760132, -0.5362763404846191, -0.2947322130203247, 1.434251070022583, -0.6108846068382263, -1.765318751335144, -0.9176734089851379, -0.24842198193073273, -0.7064948081970215, -0.428472638130188, 0.3899436593055725, 0.6108187437057495, 0.19466973841190338, 1.0942789316177368, -0.7291826605796814, -1.0658055543899536, 1.551458477973938, 0.3104926347732544, 0.48260125517845154, 0.5714156031608582, -0.2829527258872986, -0.05736787989735603, -0.9415407776832581, -1.4538547992706299, 0.17166593670845032, -0.4458714425563812, 0.36586928367614746, -0.813784122467041, 0.912919819355011, 0.71150803565979, 1.2831532955169678], [0.4656170904636383, 1.452640175819397, -2.0015172958374023, 0.15832197666168213, 0.2477121651172638, 0.6665921807289124, 0.974179744720459, 0.18148066103458405, -0.04364259913563728, -1.1244741678237915, -0.7028728723526001, -0.31114816665649414, 0.39751845598220825, -0.6220196485519409, 0.027843564748764038, -0.666242778301239, 1.4511111974716187, -0.21576526761054993, 1.00406813621521, 0.9489629864692688, 0.838077962398529, 1.6384093761444092, -0.3710747957229614, 1.4611374139785767, 0.146884486079216, 0.27111268043518066, 1.8550654649734497, -0.024244435131549835, -0.5429471731185913, 1.5661612749099731, 1.2074908018112183, 1.154282569885254, -0.40911298990249634, -0.2868782877922058, 0.5666691064834595, 0.8183810114860535, 1.2754114866256714, -0.06035564839839935, 0.6673288345336914, -0.5689446330070496, 0.22344902157783508, 0.2877257168292999, -0.508636474609375, 0.041387349367141724, 1.6031856536865234, 0.2921842634677887, -0.5523523092269897, 0.26350176334381104], [-0.102021224796772, -0.6119760274887085, -0.790794849395752, 1.0628377199172974, 0.6197770237922668, -2.3703367710113525, -0.8780232667922974, -0.9410772919654846, 0.2030259668827057, 1.1114349365234375, -0.4829076826572418, 0.7225759625434875, -0.4423471689224243, 1.200278878211975, -0.9695261716842651, -0.34691745042800903, -0.8987113833427429, 1.8338911533355713, 0.4327031970024109, 0.6571154594421387, 0.18011018633842468, -0.06046190857887268, -0.3424232006072998, -0.4648776352405548, -1.1947758197784424, -0.2262396514415741, -0.3426520824432373, 0.12631383538246155, -0.41288214921951294, 1.0387498140335083, 0.001412034034729004, 0.4878103733062744, 0.9055802822113037, -0.0254262275993824, -0.15873360633850098, 1.5097771883010864, -0.7283769845962524, 0.04195825010538101, 0.9755804538726807, 1.1489081382751465, -0.4746113419532776, -1.186625361442566, -0.07277098298072815, 0.9124102592468262, 0.3888271749019623, 0.09159289300441742, 0.7267759442329407, 2.4796624183654785], [-0.030377952381968498, 0.5536000728607178, -1.1385663747787476, -0.09027687460184097, -0.19380417466163635, 2.1349215507507324, 1.1609885692596436, -0.8547551035881042, -0.5440945029258728, -0.8751103281974792, -0.5248928666114807, -0.668934166431427, 1.8422133922576904, 0.36641794443130493, 0.6125227808952332, 0.5363780856132507, 0.5614737868309021, -1.2469208240509033, 1.1250693798065186, 0.2923961281776428, 1.4898170232772827, 0.11502349376678467, -0.18877464532852173, -1.818328619003296, 0.41394346952438354, -0.07268878072500229, 1.1862860918045044, -0.7437075972557068, 0.18629397451877594, -0.0146002396941185, 1.2882893085479736, -0.6292486190795898, 1.1217994689941406, -0.3558194041252136, 0.05463061481714249, 0.6801455020904541, 0.7016132473945618, 2.8639514446258545, 0.07153410464525223, -1.6758437156677246, 0.0362524539232254, -1.5885266065597534, -0.09623339772224426, -1.2556777000427246, -0.3101408779621124, -1.8830024003982544, 0.5122517943382263, -1.1326366662979126], [0.9280649423599243, 0.041597358882427216, 0.9174553751945496, 0.34406578540802, -0.05517926439642906, -0.09837082028388977, -0.9683545231819153, 0.7366921901702881, -0.07159166783094406, -1.3095791339874268, -0.21066652238368988, 1.6899012327194214, -0.6845921874046326, 0.011734925210475922, -0.307672381401062, 0.6340044736862183, -0.16246137022972107, -0.09676748514175415, 0.37001046538352966, 0.07209432125091553, -0.830498456954956, -0.28756028413772583, 0.026331529021263123, -0.29557132720947266, -0.3705618381500244, 1.2421668767929077, 0.9797539710998535, -0.6940214037895203, -0.4005160927772522, -0.4042620360851288, -0.055446211248636246, -0.3991371989250183, 0.3479400873184204, 0.5658173561096191, 0.07446877658367157, 0.9688831567764282, 1.6604211330413818, 0.333819717168808, -0.9164323806762695, -0.3690546751022339, 0.06310904026031494, 1.4554095268249512, 0.9488091468811035, 0.4506378471851349, -0.14250320196151733, 0.9128677845001221, 1.1501145362854004, 0.2613973617553711], [-1.6631953716278076, 0.737601101398468, -2.086003541946411, -1.439657211303711, -0.7601940035820007, -0.35613465309143066, 0.7378305792808533, 0.01586340367794037, -1.1167783737182617, 0.9424867033958435, 0.04570263251662254, 0.24637073278427124, 0.8001536726951599, 1.177231788635254, 0.35792118310928345, 0.2060849666595459, -0.1537410318851471, -0.2253875732421875, -0.0762571319937706, 0.6222691535949707, 0.3936727046966553, 0.052819885313510895, -0.04354913532733917, -0.9090519547462463, 0.2551465630531311, -0.2086314558982849, 0.45899635553359985, -0.7578977942466736, 0.6339430809020996, -1.296446681022644, -0.8268861770629883, -0.07470913976430893, 0.8336347341537476, 1.2311969995498657, 0.8003202676773071, -1.2387888431549072, -0.3537174463272095, -0.09244596213102341, -0.07322703301906586, 0.5398357510566711, -0.5867270231246948, 0.8677278757095337, -0.9427752494812012, -0.26630139350891113, 0.23682686686515808, 0.7004542946815491, 0.42891669273376465, 1.8652184009552002], [-1.5698140859603882, 0.6219195127487183, -0.10353861004114151, 0.3927654027938843, 1.586244821548462, -0.934901237487793, -0.5415235757827759, 0.5612732768058777, -0.48543286323547363, 1.824784517288208, 0.40126028656959534, -0.7120099663734436, 1.365013837814331, -0.8248647451400757, 0.5666945576667786, -1.8824995756149292, -0.8666398525238037, 0.32597988843917847, 0.6755573749542236, 0.7448493242263794, -0.364277184009552, 1.6425057649612427, 0.5536624193191528, 0.8269147276878357, 0.6705036759376526, -1.4965612888336182, -0.8511849641799927, -0.42216551303863525, -0.34436941146850586, 1.264344573020935, 0.07715188711881638, -1.858750343322754, -1.3546525239944458, -1.1341453790664673, -0.40061458945274353, -0.8160005211830139, 1.4666205644607544, -1.0228550434112549, 0.940735936164856, 1.5684149265289307, -0.7731801271438599, -1.0718696117401123, 1.5781610012054443, -0.6051293611526489, 0.3488389253616333, 1.0824309587478638, 1.2180523872375488, 0.18552976846694946], [0.8383806347846985, 0.6599735617637634, -0.5134325623512268, -0.9224210381507874, 0.6317181587219238, 0.3131400942802429, -0.4335418939590454, 0.42118245363235474, -0.5369731187820435, 0.559884786605835, 0.30245617032051086, 0.6651486158370972, -0.15503734350204468, -1.5738751888275146, -0.18181298673152924, 1.0164666175842285, 0.5481263399124146, -0.8461092114448547, 0.8623714447021484, 0.5967849493026733, -0.7164068818092346, -0.21690712869167328, 1.1019898653030396, -0.19693481922149658, -0.4895187020301819, -0.13630573451519012, -0.4722704291343689, 0.03659123182296753, -0.7554182410240173, -0.1940075308084488, -0.4104312062263489, 0.46715861558914185, -1.2878957986831665, 0.32583555579185486, 1.3936541080474854, 0.8124902248382568, -0.8024334907531738, 1.6917613744735718, -0.8125315308570862, 2.303410768508911, -0.7974953651428223, -0.47917845845222473, -1.0313403606414795, -0.05673438310623169, -0.22581566870212555, -0.7836982607841492, 0.9845828413963318, -0.7506658434867859], [-0.013905763626098633, -0.03403378278017044, -0.059158675372600555, -1.3799657821655273, 1.0107060670852661, -0.5842930674552917, -0.2711794674396515, -0.25511303544044495, 0.46216288208961487, 0.016723530367016792, -0.2030516117811203, 0.4955630302429199, -1.2726547718048096, 1.2412850856781006, 0.8059502840042114, -0.089353047311306, -0.6400681734085083, 1.433454155921936, -0.04809287190437317, -0.08531582355499268, 0.035395585000514984, 0.4952072501182556, -0.4571024775505066, -0.07462695240974426, -0.5301113724708557, 0.7460446357727051, 0.20855958759784698, 1.4566611051559448, -0.6944602727890015, 0.8979085683822632, 0.702423632144928, -1.1600596904754639, -0.1361299306154251, 0.2913108766078949, 0.01436208188533783, 0.3565554618835449, -1.1633180379867554, -0.1858178973197937, 1.5097090005874634, -0.5999405384063721, 0.39528724551200867, 0.3849891722202301, -0.2611924111843109, 0.9113590717315674, 0.5022553205490112, 0.3571544587612152, -0.045743294060230255, -0.2786270081996918], [-0.6853761076927185, -0.7494862675666809, -0.7321662902832031, 1.7212392091751099, -1.999839186668396, -0.029126107692718506, -0.8116123080253601, 0.5311824679374695, -0.7869298458099365, 0.15771321952342987, -0.6304605007171631, 0.5069314241409302, -0.48698070645332336, 0.1500420868396759, 0.1890709400177002, -0.19133830070495605, -0.1359892338514328, 1.8716731071472168, -0.8153813481330872, -0.40529122948646545, -0.8387929201126099, 0.5413789749145508, -0.3697636127471924, -0.19463515281677246, 0.8049222230911255, 1.6602063179016113, 0.4250442683696747, -0.27256640791893005, 1.0289711952209473, -0.15488506853580475, 2.235025405883789, 1.1872076988220215, -1.9331800937652588, 0.7999779582023621, 0.8767568469047546, -0.5935700535774231, 0.07596459984779358, -0.2321794480085373, -1.196715235710144, -0.1481005996465683, 1.3338466882705688, 0.4007504880428314, 0.7811942100524902, -0.4422887861728668, 0.3578564524650574, -0.9274770021438599, -0.033667657524347305, 0.2796638309955597]], "0.bias": [0.33997562527656555, -1.873353123664856, 0.2598465085029602, -0.25529944896698, 1.0723364353179932, 1.5339913368225098, 0.2818560004234314, 0.8862150311470032, -1.6928619146347046, 0.18910762667655945, -0.9519003629684448, 0.04651535302400589, 2.018167734146118, -0.03663111478090286, 0.32918477058410645, -0.11588981747627258, 1.2649321556091309, -1.2874835729599, -0.193627268075943, -1.087975263595581, 0.42213404178619385, -0.32214662432670593, -0.45758160948753357, 0.6614708304405212, 0.7348133325576782, 0.19407644867897034, 1.3420499563217163, 0.8130071759223938, -0.1058664321899414, -0.4450736343860626, -1.1690316200256348, -0.1710442304611206, 0.4831547439098358, 1.3899335861206055, 1.4418026208877563, 0.5097155570983887, 1.1873234510421753, 0.2664562165737152, -0.042116012424230576, 0.23620085418224335, -0.19774192571640015, 0.13146957755088806, -0.37102657556533813, 0.628476619720459, 0.9076714515686035, 0.4894465506076813, 1.2289179563522339, -0.02805539220571518, -0.08380880206823349, -0.34621891379356384, -0.1435001641511917, 0.621155858039856, -0.09420634806156158, 0.3264898955821991, -0.19180622696876526, 0.25766801834106445, -0.643871009349823, 0.4134169816970825, -0.028804663568735123, 0.6489249467849731, -1.0179705619812012, 0.16678614914417267, -0.36940234899520874, -1.6565779447555542], "2.weight": [[0.7261373400688171, 0.6611617207527161, 0.7202417254447937, 0.6009302735328674, 0.001272737979888916, 0.5366361141204834, 1.0050371885299683, 0.6046629548072815, -1.1842986345291138, -0.32548344135284424, -0.028762128204107285, -0.02694334089756012, 0.7396469712257385, 0.1687733232975006, 1.2030835151672363, -0.5624716877937317, -0.149298295378685, 0.4110497236251831, 0.29876843094825745, 0.7084259390830994, 2.2420198917388916, 1.4402973651885986, -1.443763017654419, 0.8800733685493469, 0.9516847729682922, -1.1598551273345947, -0.3439197540283203, -1.0970094203948975, -0.8220937252044678, -0.7362442016601562, -1.5416367053985596, -1.8560899496078491, -0.8961168527603149, -0.0964440256357193, -0.8608443737030029, 0.08121836185455322, 0.443380743265152, -1.2288702726364136, -0.07403794676065445, -0.9313222765922546, 1.123823642730713, 0.12914152443408966, 0.4727709889411926, 0.4664480984210968, 0.33880722522735596, -0.33687037229537964, 1.4207806587219238, -0.40474241971969604, 0.600132405757904, 1.0043814182281494, -1.1079548597335815, 1.6260647773742676, -0.06507771462202072, 0.7910680174827576, 0.5241217017173767, 0.9602299332618713, 1.3460816144943237, -0.13294224441051483, 0.45345425605773926, 1.096833348274231, -1.385466456413269, -2.2252113819122314, 0.3058973550796509, 0.6978653073310852], [0.18282093107700348, -0.6765866279602051, -0.10736711323261261, 0.25848087668418884, 0.5930071473121643, 1.1932815313339233, -0.4957767128944397, -0.4727293848991394, 0.2581750154495239, -0.3796459436416626, 1.6897635459899902, 2.2568423748016357, 0.6710832715034485, 0.6064798831939697, 1.8449127674102783, -0.7011057734489441, -2.122800827026367, -0.1679401695728302, -0.6811582446098328, -0.2799496352672577, -1.3869948387145996, -0.6460992693901062, -0.6081631183624268, -1.726716160774231, 0.026602141559123993, 0.2373378723859787, 1.269315242767334, -0.18185041844844818, 0.6396418213844299, -0.370974600315094, -0.13819831609725952, 1.3166497945785522, 0.6514954566955566, -0.49436649680137634, -0.7542570233345032, -0.517734706401825, 0.35042792558670044, 1.4029735326766968, 1.265985369682312, 1.488588809967041, 0.20993191003799438, 0.055883876979351044, 0.5852847099304199, -0.4695711135864258, 0.6383309960365295, -0.18260344862937927, 0.5444169640541077, 0.36460381746292114, 0.9378211498260498, 0.15024498105049133, -0.3333653509616852, -0.7488131523132324, -1.614292025566101, 2.519594430923462, 0.8292595744132996, -1.3661714792251587, -0.574497640132904, -1.1957831382751465, 0.7737754583358765, 0.279292494058609, 0.8561638593673706, -0.9483405351638794, 0.03982033580541611, -2.1823737621307373], [1.1076397895812988, 1.4339485168457031, -1.4410663843154907, -0.347613126039505, 0.6177201271057129, 1.320804238319397, -1.7836945056915283, 0.26634734869003296, 0.18390649557113647, -0.3048221468925476, 0.04643353074789047, 0.39323970675468445, -1.6909534931182861, 0.40865278244018555, -0.9341030120849609, 0.14155934751033783, 0.0019040927290916443, 1.2765095233917236, -0.9997932314872742, 0.40603330731391907, 1.1998006105422974, -1.5099115371704102, 1.1080284118652344, -0.6945838928222656, 1.3926550149917603, 0.01760837808251381, 1.322973608970642, 1.3885204792022705, -1.2145495414733887, 0.47727248072624207, 0.752037525177002, -0.5247718095779419, 0.1102355495095253, 0.3177942633628845, 0.7729289531707764, -0.6149003505706787, 0.8646785616874695, 0.5710312128067017, -0.9857448935508728, 0.1967364251613617, 0.7765935659408569, 0.40121784806251526, 0.493428111076355, -0.44867247343063354, 1.086537480354309, -1.1713292598724365, 0.5078021883964539, -0.7948256731033325, -0.21130841970443726, -1.4129538536071777, 0.6574152708053589, -0.7005540728569031, -0.9933686852455139, -0.16748426854610443, -0.8019248247146606, 0.5892422795295715, 0.09870581328868866, -0.1776469349861145, -0.770566463470459, 0.903958261013031, 0.3401119112968445, -1.549484133720398, 0.6400717496871948, 0.7200759053230286], [0.28193482756614685, 0.7309921979904175, -0.9608659148216248, 0.2664605379104614, -0.10876740515232086, -0.6304441690444946, 0.9378319978713989, 0.6827477216720581, 0.05793137103319168, 0.6358322501182556, -1.1349804401397705, 0.033718109130859375, -0.5196290016174316, 1.2580009698867798, 0.22866575419902802, -0.30946317315101624, 0.35205984115600586, 0.7575389742851257, 0.07709982991218567, 1.5576750040054321, -0.4819743037223816, 0.18888941407203674, 0.19613303244113922, -0.20872646570205688, 0.4612555205821991, 0.13275854289531708, 0.5688045620918274, 0.3556321859359741, -0.34789255261421204, -1.1926219463348389, -0.23720380663871765, -0.13963663578033447, 0.5580979585647583, -0.2182796746492386, 0.8556663990020752, 1.5660656690597534, -0.6463279128074646, 1.1451486349105835, 0.698749303817749, -1.3396401405334473, 0.15542927384376526, -0.10791657119989395, 0.9002503752708435, 1.5997440814971924, 0.08853086084127426, 0.9732085466384888, 0.5469555258750916, -1.409304141998291, -0.06951083242893219, 1.0098235607147217, -0.2748205363750458, -0.6454327702522278, 0.81792813539505, 0.058937251567840576, 0.20287883281707764, 0.5262827277183533, -0.08289074897766113, -0.04685458540916443, 0.02089151367545128, -0.0485520139336586, 0.10087033361196518, 1.3951683044433594, -0.6549505591392517, 0.34268224239349365], [-0.6289975643157959, 0.8500257134437561, -0.36824774742126465, 0.145249605178833, 0.5847785472869873, 0.9263031482696533, -0.5073017477989197, 0.3799273371696472, 0.7495229244232178, 0.4775142967700958, 0.8250648975372314, 1.408527135848999, -0.6116858720779419, -0.5173506140708923, 0.39584940671920776, -0.7711691856384277, -1.6681777238845825, 0.017222076654434204, -0.0735851600766182, 0.8994529247283936, -0.5732894539833069, 0.8352928161621094, -1.147768497467041, -0.5612183213233948, 0.4827026128768921, -0.6182205677032471, -1.1688964366912842, -0.249511256814003, -0.07604063302278519, -0.9661716222763062, -0.8121234178543091, -1.1257615089416504, -0.5719439387321472, 0.14433515071868896, 1.2191354036331177, 1.1103333234786987, -1.3644946813583374, 0.3144594132900238, 0.6160181164741516, -0.2118498533964157, -0.8696034550666809, 0.9137247800827026, -0.5234005451202393, -0.3458591401576996, -0.3848751187324524, 0.3066062331199646, 0.6769378781318665, -0.5421145558357239, 0.09785439074039459, 0.654979944229126, -0.2050040066242218, -0.7312775254249573, 2.119266986846924, 1.4605697393417358, 0.43108466267585754, 1.4091089963912964, 0.1517161875963211, -1.2377307415008545, 0.574216365814209, -0.11238352209329605, -0.15081626176834106, 1.2722066640853882, 0.5443379282951355, -0.3065654933452606], [1.2526957988739014, -1.8025754690170288, 1.126053810119629, -1.0000725984573364, 0.22899195551872253, 0.02573162317276001, -0.2354544997215271, 0.08160342276096344, 1.977978229522705, -2.260335683822632, 0.45331957936286926, 1.4673092365264893, -0.7082605361938477, -1.16758131980896, 0.8231188058853149, 0.5871016383171082, -0.046383798122406006, 1.265091061592102, -1.346653699874878, 1.4290754795074463, -1.5266531705856323, 1.3193867206573486, 0.29562807083129883, -1.3546826839447021, -0.6098693609237671, -0.008416630327701569, 1.1450467109680176, 0.044737718999385834, 0.2095462679862976, 0.5519590973854065, -1.1509205102920532, 0.9016804695129395, -1.0927656888961792, 0.17792350053787231, 0.1775464415550232, 0.104501873254776, -0.22524575889110565, 0.04293195903301239, 0.7949730157852173, -0.07146436721086502, 0.55939120054245, 2.5708978176116943, -0.9179660081863403, 0.03751477226614952, 0.051401037722826004, -1.0071111917495728, 0.29370659589767456, -0.663886308670044, -0.2568875849246979, -0.14068396389484406, -0.7612711787223816, -0.1577211320400238, -0.9728370308876038, 0.5739204287528992, 0.2219710350036621, -0.11632943898439407, -0.6403558850288391, -1.1725784540176392, 0.6139208674430847, -1.3256170749664307, 0.21194124221801758, -0.6190944910049438, 0.025363270193338394, -1.4695038795471191]], "2.bias": [-0.3041255474090576, -0.9542261958122253, -1.459704041481018, -0.5091363787651062, 0.5638983249664307, -1.1120476722717285]}