{"0.weight": [[0.7826924920082092, -1.457024097442627, -1.0970661640167236, 0.6457471251487732, -0.7269541025161743, 0.33999311923980713, 0.5217576026916504, -1.6656635999679565, -0.2199079394340515, 1.3352690935134888, 0.739597499370575, -0.029215428978204727, 1.2963165044784546, -1.212904453277588, 0.24527965486049652, 0.8807323575019836, 0.8518566489219666, -0.4540308713912964, 2.1918091773986816, -1.9106860160827637, -0.008872482925653458, -2.4430644512176514, 0.4356006681919098, -0.9002587795257568, -0.44606631994247437, -1.3879395723342896, -3.0075087547302246, -1.8212323188781738, 0.959682047367096, -0.6993967294692993, 0.4246489405632019, -2.17075514793396, 1.236244559288025, 0.876953661441803, -0.027616597712039948, -0.15561330318450928, -0.12435417622327805, 1.1502811908721924, -1.3265883922576904, -0.3770221173763275, -0.8952904343605042, -0.40181127190589905, 0.007259495556354523, 1.639674425125122, -0.8586463332176208, -0.0009461529552936554, -0.9344507455825806, -0.6364434957504272], [0.7399120926856995, 0.2279174029827118, -0.6628178358078003, 1.2862459421157837, 1.3541631698608398, 0.43479621410369873, 1.2135603427886963, 0.32083484530448914, 0.9474657773971558, -0.07773490250110626, -1.1863486766815186, -0.6539939641952515, 2.5674374103546143, 1.0956053733825684, 0.4160785675048828, 3.0524532794952393, -0.038776129484176636, 0.7195972204208374, -0.4027479588985443, -0.8241354823112488, 0.1143072322010994, 0.41540318727493286, -0.1674618422985077, 1.048736810684204, 2.3326051235198975, -0.38671356439590454, -0.5880491733551025, -1.3561681509017944, 0.23357459902763367, 1.9348191022872925, 0.013993140310049057, -0.2620740234851837, 3.322612762451172, 0.07029017806053162, -0.22825048863887787, 2.5239343643188477, -0.9319757223129272, 2.3015928268432617, -0.8743650317192078, -1.130964994430542, 1.306713581085205, -0.6850929260253906, 2.0059986114501953, 0.40082210302352905, -1.0130616426467896, 0.15314292907714844, -0.8726533055305481, -0.9081357717514038], [-0.22158165276050568, 2.5932319164276123, -0.22024473547935486, -1.067046046257019, -1.5596287250518799, 0.2875271141529083, 1.8737910985946655, 0.22850601375102997, 1.4424536228179932, 0.019864441826939583, 1.0122058391571045, -0.5948699116706848, -0.9213473200798035, 0.15130163729190826, 1.9205517768859863, 0.5999607443809509, -0.7129945158958435, -1.7710283994674683, 0.2850022315979004, 2.1246109008789062, -0.5165460109710693, 0.047647103667259216, 0.18763142824172974, -1.6815775632858276, -0.37719443440437317, -1.6472175121307373, 0.6605373024940491, 0.020018313080072403, 0.1427396833896637, -0.23268482089042664, -0.5902869701385498, -0.08356411010026932, -0.9448583722114563, -0.615463137626648, -0.8167349696159363, -0.03708808124065399, 0.36602887511253357, -1.1519824266433716, -1.3535529375076294, -0.34542253613471985, -2.004855155944824, 1.7973133325576782, 0.22588157653808594, -1.0508300065994263, 0.9930954575538635, 2.538736343383789, 0.21687325835227966, 1.6594517230987549], [1.7332813739776611, -1.399468183517456, -0.23747998476028442, -0.7321444749832153, -1.495242714881897, -0.9126107096672058, 0.4622570276260376, -1.0070806741714478, 0.06156420707702637, -1.4015487432479858, 1.0099276304244995, 0.3146953582763672, 0.6362895369529724, 2.072213888168335, -1.1088001728057861, -0.46749037504196167, 1.6693360805511475, -0.4803961515426636, -0.07075484097003937, 0.40143513679504395, 0.3939046561717987, 0.40654972195625305, 1.745392084121704, -1.1901379823684692, -0.798277735710144, 0.31859511137008667, -0.24849101901054382, 2.8606154918670654, -2.016347885131836, -1.0869227647781372, 1.8129130601882935, -0.07018674910068512, -0.9979416131973267, -0.758317768573761, -1.6232415437698364, -0.7397927045822144, 1.7661885023117065, 1.7659497261047363, -0.2435998022556305, -1.6973851919174194, -0.14435742795467377, 1.5704890489578247, -1.2516813278198242, -1.2001559734344482, 2.8213462829589844, 1.6002213954925537, 1.2201470136642456, 0.8899306654930115], [-0.4474641680717468, 0.3182540833950043, 1.4726547002792358, -0.7000772953033447, 0.5768290162086487, 1.5194507837295532, 0.6092778444290161, -2.1351473331451416, 2.1373558044433594, -1.6658891439437866, 1.15912663936615, 0.7696391344070435, 1.251861810684204, -0.31452274322509766, -1.1189932823181152, -1.3190182447433472, 0.07519429922103882, 0.6842688322067261, 0.5675836801528931, 0.16222767531871796, -0.6992137432098389, -0.10424232482910156, -3.140395402908325, 1.9509276151657104, -0.8967504501342773, -2.060445785522461, -0.6456806659698486, 0.46853792667388916, 1.3239693641662598, -0.5291293263435364, -1.11054265499115, -1.2699898481369019, -2.5126280784606934, -1.0006204843521118, 0.3633612096309662, -1.2421433925628662, 1.0697035789489746, -1.445241928100586, -2.086038589477539, -0.4219546318054199, -1.0566648244857788, 0.02778177708387375, -0.38131821155548096, -1.7900128364562988, 0.40446680784225464, -1.5176876783370972, 1.5664045810699463, 0.7492954730987549], [-0.5165501832962036, 0.03722731024026871, -1.6137571334838867, -1.758022665977478, -0.6337319016456604, 0.028400972485542297, -0.0661652609705925, 0.9768669009208679, 1.6215163469314575, 1.595197319984436, 2.420186758041382, 0.5314184427261353, -0.6428993940353394, 2.218106508255005, -1.8171204328536987, 1.7434437274932861, 0.3104260563850403, -0.22620515525341034, 1.6347752809524536, 1.3578274250030518, 1.252075433731079, 2.094393014907837, 0.27486416697502136, -0.30548304319381714, -1.2706469297409058, -0.6681787371635437, 1.4418714046478271, -0.9841410517692566, -2.4189798831939697, -1.717238187789917, 0.5767831802368164, -1.0366910696029663, 1.3202486038208008, -2.2885935306549072, -0.2558858394622803, -0.6905785202980042, -1.2698354721069336, -0.9770748019218445, 1.2096835374832153, 0.7596754431724548, 1.5048478841781616, 0.2575230598449707, 0.2314048409461975, -0.07891889661550522, -0.5133688449859619, 1.4482578039169312, 0.11293752491474152, -0.19036322832107544], [-0.06416131556034088, -1.1406632661819458, 1.1784356832504272, -1.1833819150924683, 1.7570295333862305, 0.4699222445487976, 2.7443466186523438, -1.9149341583251953, 2.3361687660217285, -0.7877697348594666, -1.1739951372146606, -0.3243623375892639, 0.0880376473069191, -0.12882640957832336, -0.9355406761169434, -0.8082583546638489, -0.2780478000640869, -0.7660330533981323, -0.24042655527591705, 0.7700583934783936, -1.7630761861801147, 0.5596830248832703, -1.0777013301849365, -1.0852165222167969, 1.1720781326293945, 1.2579706907272339, -0.378852903842926, -1.500381350517273, 1.2574536800384521, -0.1598053127527237, 0.8052073121070862, 1.5556812286376953, -0.6131852269172668, -0.06841569393873215, 1.2243824005126953, 0.43121397495269775, 0.7580481171607971, -1.5211561918258667, 0.8638389706611633, 2.6460978984832764, 1.4830074310302734, 0.06145600974559784, 2.171712636947632, 2.180734395980835, -2.210857629776001, 2.2783358097076416, 2.059281826019287, -1.3615423440933228], [1.0285593271255493, 3.107508420944214, 0.26848143339157104, 0.3325698971748352, 0.37635672092437744, 2.06097412109375, 0.027425743639469147, -0.4179764986038208, -1.6297320127487183, 0.40739911794662476, 0.3778211176395416, 0.8426664471626282, -2.075188159942627, -1.7146430015563965, -0.06638629734516144, 0.26133015751838684, -0.7177215218544006, -0.14011067152023315, -2.9038033485412598, 0.005595788359642029, -1.9293791055679321, -0.3039761781692505, 1.1857281923294067, -1.2589571475982666, 0.7682637572288513, -1.4201544523239136, 1.0234676599502563, 1.5985039472579956, 0.9768165349960327, 0.31498289108276367, -0.6210930943489075, -0.6298542022705078, 1.3946255445480347, -1.9210268259048462, 0.18120840191841125, 2.45538330078125, -1.191122055053711, 0.010408826172351837, 0.6482303738594055, -0.19519251585006714, -1.018722414970398, 0.7583879232406616, -1.0345572233200073, -1.0136820077896118, -1.44969642162323, 2.0571694374084473, -0.4038879871368408, -0.3551132082939148], [0.2834567427635193, 1.360823154449463, -2.121938705444336, 1.329464077949524, 0.24587538838386536, 1.2663171291351318, 0.8913570046424866, -0.11602424085140228, 0.42696717381477356, 0.4688759446144104, 0.8009052872657776, -0.23448041081428528, -0.37684932351112366, 0.18996290862560272, -2.5019733905792236, -0.6946051120758057, -0.029190953820943832, -0.7166388034820557, -0.014796953648328781, 1.176432728767395, -1.3556859493255615, -0.9602559208869934, -0.5864642858505249, -0.06921613216400146, -0.14489886164665222, -1.6700046062469482, -0.20516647398471832, -2.2205557823181152, -0.3759761452674866, -0.6942333579063416, -2.459102153778076, -0.16296645998954773, -1.8075345754623413, -1.5074422359466553, -1.3531056642532349, -0.6813235282897949, -0.6023253798484802, -2.0756938457489014, -0.5900055766105652, -1.3678839206695557, -0.9523941874504089, -2.0950257778167725, 0.748481810092926, -1.7393430471420288, 0.47118470072746277, -0.41740018129348755, -0.903403103351593, 0.08137312531471252], [-1.3922613859176636, -0.9184837341308594, 0.8827400207519531, -0.05780436843633652, -1.3786842823028564, -1.2926967144012451, 1.758475661277771, 0.7194579243659973, 0.296903133392334, 0.9933938980102539, 0.29391220211982727, -1.4639352560043335, -0.16986611485481262, 1.5053716897964478, -0.7733060717582703, -0.3055693209171295, 0.46302565932273865, 0.4321812391281128, -0.620822012424469, -0.7834803462028503, 1.879765272140503, -1.2046407461166382, -1.7775813341140747, -1.8786081075668335, -0.07230481505393982, -1.8455920219421387, -3.1436398029327393, 0.06578415632247925, 0.5307868123054504, 1.2221461534500122, -0.4224168062210083, 0.08854590356349945, 2.1493499279022217, -1.2673743963241577, -1.9958068132400513, -0.19530358910560608, 1.610968828201294, 1.4136481285095215, 0.2291492223739624, -1.756889820098877, -0.13218341767787933, -0.48532888293266296, -0.5470702648162842, 1.181593418121338, -1.318496823310852, 1.4659641981124878, -1.0183886289596558, -0.24896156787872314], [0.50496906042099, 0.7614005208015442, 0.7858011722564697, -0.055416278541088104, 0.4097156524658203, -1.1795960664749146, 0.3643971085548401, -1.63295578956604, -0.08946426957845688, -1.091917872428894, 3.2259020805358887, 0.9295173287391663, 1.5483222007751465, 0.7576856017112732, -0.23336578905582428, -0.10166213661432266, 0.33046960830688477, -0.12142807245254517, -2.1657233238220215, -0.6162787675857544, -0.20454156398773193, 0.8353747725486755, 0.5434935092926025, -0.9388325810432434, -1.7023144960403442, 0.915008544921875, -1.2096308469772339, 0.25396114587783813, -0.693184494972229, -0.7571028470993042, 1.2500157356262207, 0.1906791627407074, -0.10774718970060349, 0.014803845435380936, 1.7701209783554077, -0.6590191721916199, -1.7264691591262817, 0.30010148882865906, -0.0014255410060286522, -0.12414602935314178, 2.3243534564971924, -0.2550167739391327, -1.0525636672973633, 1.3159983158111572, 2.095860004425049, -1.0874078273773193, -0.11488652974367142, 1.100296139717102], [-1.1747779846191406, 0.3761643171310425, -0.0840558111667633, 0.6697891354560852, 1.898341417312622, -1.750514268875122, 1.0079008340835571, 1.8739441633224487, -0.23327530920505524, -0.6294718980789185, 1.2395564317703247, -0.7117834091186523, 0.12368577718734741, -0.6206923127174377, 0.472367525100708, 0.849872887134552, -2.936053514480591, 2.110592842102051, -0.969968855381012, -2.4876930713653564, 1.1493542194366455, -1.698657751083374, 1.4079606533050537, -2.631924629211426, -2.104388952255249, -0.9363411068916321, 0.5287536978721619, 0.1810445785522461, 0.44589605927467346, 0.5347952842712402, -0.06423020362854004, -0.6419775485992432, 0.651390016078949, -1.2062575817108154, -1.176833152770996, 0.4207351505756378, -0.03037118911743164, -0.432746559381485, -0.5351116061210632, -0.36027657985687256, 1.550562858581543, 0.4289183020591736, 1.4261023998260498, -1.0059698820114136, -2.5397233963012695, -1.7610008716583252, 1.0692064762115479, 1.2827095985412598], [0.959443211555481, 0.08901944756507874, -1.4934097528457642, 1.247718095779419, -1.0403693914413452, 0.05406899377703667, -0.2641165554523468, 1.1749138832092285, -0.3885005712509155, -0.5909553170204163, 0.883613109588623, -0.3685314357280731, -0.6056925058364868, 0.6388579607009888, 1.6044902801513672, 1.329371690750122, -2.1665842533111572, -1.549607753753662, 0.37593749165534973, 1.0013008117675781, 0.41143089532852173, -0.16305330395698547, -2.4346275329589844, 0.20224687457084656, -3.1889426708221436, 1.1948655843734741, -0.04591252654790878, -0.4701912999153137, 0.008926492184400558, -0.7168300151824951, 1.7454849481582642, 0.3932783603668213, -0.7235819697380066, 0.5032261610031128, 0.7442076206207275, -1.8099759817123413, 0.07517869770526886, 0.2385440170764923, 0.19066715240478516, 0.7762532830238342, -0.8659067749977112, 0.3822712302207947, -0.118983194231987, -1.597387433052063, -0.2632168233394623, 0.2874784469604492, 2.451436996459961, -0.27406710386276245], [-1.4180632829666138, -2.8346524238586426, -0.01327989250421524, 1.6915465593338013, -0.30215346813201904, -0.9535368084907532, 1.7658096551895142, -0.787804901599884, 0.3950462341308594, -1.1346522569656372, -1.3307042121887207, 0.617345929145813, -0.8943122625350952, 2.248486042022705, -0.5379112362861633, -2.0301265716552734, -1.4635647535324097, 2.5293614864349365, -0.548309862613678, -1.5790822505950928, 2.227045774459839, -0.7336357831954956, -0.033104196190834045, -3.242863416671753, -1.5014785528182983, 1.04813551902771, -0.6725306510925293, 0.24619454145431519, 0.009860582649707794, -0.9646914601325989, -0.344953328371048, 0.18294546008110046, -0.06750580668449402, 1.3735408782958984, 0.4200606644153595, 0.6793912053108215, 0.5786323547363281, -0.45810335874557495, -1.1415520906448364, -1.1413822174072266, 1.5435054302215576, -0.6334980130195618, -1.012747883796692, 0.1372583508491516, 1.3492392301559448, 2.337280750274658, -0.008244144730269909, -0.4593757390975952], [-0.23626708984375, 0.4951607286930084, 3.268341064453125, -1.1873687505722046, -0.20570234954357147, -0.4936373233795166, -0.5497515201568604, -0.5328419804573059, 0.3111432194709778, 1.0775617361068726, -0.12466196715831757, -0.19568289816379547, 1.1764447689056396, -0.6740692853927612, 0.07100791484117508, -0.6795880198478699, 0.20464645326137543, -0.9105701446533203, 0.9228833913803101, -0.6178454160690308, -0.2681218385696411, -0.26289474964141846, -0.268522173166275, -1.0448652505874634, 1.0456806421279907, 1.4163249731063843, 1.2711580991744995, 0.14908936619758606, -0.7161586880683899, 1.4314672946929932, 0.06132984906435013, -2.184649705886841, 0.29057371616363525, -1.0435309410095215, -1.5133460760116577, 0.9918769598007202, 0.10957545787096024, 0.3930903375148773, 0.3584527373313904, 0.9220412969589233, -1.0545130968093872, -1.0805891752243042, 0.8957118988037109, -1.1169402599334717, -2.602447271347046, 0.05568774417042732, -1.9034284353256226, -2.02473783493042], [-0.7711542248725891, -0.5884014964103699, -1.2104381322860718, -0.15821567177772522, 2.123375177383423, -0.4609655439853668, 0.8605360984802246, 0.616572916507721, 0.9353315234184265, 0.14954999089241028, 0.23551253974437714, -1.5523452758789062, 0.7896836400032043, -1.1930781602859497, 0.35511666536331177, -1.6630676984786987, -0.5266326665878296, 1.4592586755752563, 0.6885602474212646, 0.6424317359924316, -0.5855365991592407, 0.07191653549671173, 1.74785315990448, 1.3405308723449707, -1.504729151725769, 0.23142430186271667, 0.08016516268253326, 1.1146807670593262, 0.5899299383163452, 0.8019201755523682, 1.6806044578552246, -0.2878594398498535, -2.163360357284546, -1.844164490699768, -0.7924079298973083, -0.8968484997749329, 0.1902206838130951, -0.8902684450149536, -1.097124695777893, -0.20242321491241455, -0.31432488560676575, -0.2905194163322449, 1.662354588508606, 1.6557953357696533, -1.067247986793518, 0.16242921352386475, 0.7400866746902466, 1.9014253616333008], [-1.190418004989624, 1.5352632999420166, 0.06445474177598953, 1.030695915222168, -0.600256621837616, 0.6408072710037231, -0.681780219078064, 0.30699729919433594, 0.917343258857727, 0.3302235007286072, -0.8877195715904236, 0.3564178943634033, 0.07570536434650421, -0.5668555498123169, 0.23219677805900574, -0.09691262245178223, -0.45533430576324463, 0.17449721693992615, -3.183305025100708, -1.0671021938323975, 0.28598552942276, 0.005774557590484619, 1.4540221691131592, -0.4095982313156128, -0.39393341541290283, -0.6318725943565369, -1.4860703945159912, -0.4206121861934662, 0.05450179800391197, -2.508464813232422, 1.009840488433838, -1.9579486846923828, 0.7524364590644836, 0.16086037456989288, -1.6086519956588745, 0.43369603157043457, 0.3611624240875244, -0.2587231397628784, 1.057734727859497, 0.40081050992012024, -2.840484857559204, 2.584587574005127, -0.7036570310592651, 0.1747308373451233, 1.7942240238189697, -0.9394952058792114, 0.7207493782043457, 0.9996511936187744], [0.4806942045688629, 2.2279891967773438, 0.6351264715194702, 0.07055716216564178, 0.8978585004806519, 1.7760862112045288, 1.776432991027832, -0.24973227083683014, 0.7553447484970093, -0.37050101161003113, 0.7662723064422607, 0.2585088014602661, -0.05301659554243088, 1.034376621246338, 0.3248865604400635, -2.070369243621826, -0.41866564750671387, 1.3064460754394531, 0.46014535427093506, 1.1001417636871338, 1.0924571752548218, 0.5062007308006287, 0.9367748498916626, -0.5303342938423157, 0.7081510424613953, 1.8884832859039307, 0.5470849275588989, -1.4272934198379517, 0.010329164564609528, -1.2158706188201904, 0.12456007301807404, 0.9356163740158081, -1.2607295513153076, 1.8122702836990356, 0.212864488363266, -0.1969781219959259, 2.812086343765259, 1.2714810371398926, 0.14213542640209198, -0.5049941539764404, 1.2997376918792725, 0.9018800854682922, 0.6845406889915466, 1.3777227401733398, -0.6245863437652588, 0.009003296494483948, -1.0353220701217651, 1.4279577732086182], [-0.5454962849617004, 1.9284707307815552, 1.7250686883926392, 0.15286482870578766, -1.0412826538085938, 1.0086115598678589, -1.733910322189331, -0.6669941544532776, -2.390845775604248, 0.565610408782959, -1.486825942993164, -0.41954734921455383, -3.0847887992858887, -1.0121045112609863, -1.7540616989135742, -2.213050365447998, -0.3387385606765747, -1.5110454559326172, -1.2818142175674438, -0.40268126130104065, -0.5231832265853882, -0.6540207266807556, 0.12911084294319153, -0.5344855785369873, -2.2939281463623047, -1.260753870010376, -2.5075480937957764, 2.0163207054138184, -1.0563316345214844, 1.1327723264694214, 0.5544107556343079, -2.4109253883361816, 2.506765842437744, -0.5358049869537354, 1.3381062746047974, 0.7234281301498413, 0.29176467657089233, 0.28805044293403625, 0.025851860642433167, -0.16122755408287048, 0.30358216166496277, 0.12039019167423248, 0.06368046998977661, -0.4607233703136444, 1.5180392265319824, 3.357180118560791, 0.035207923501729965, 0.8859730362892151], [-0.016855314373970032, -1.5267846584320068, -0.6260185241699219, -1.0036513805389404, -0.8406652212142944, -0.6781166791915894, -0.39607179164886475, -2.1816561222076416, 0.6610514521598816, -1.2750405073165894, 1.107121467590332, -0.4707048535346985, -0.022324733436107635, -0.22643756866455078, 0.029680542647838593, -0.9050127863883972, 0.4672229588031769, 1.572170615196228, 0.5435107946395874, 0.8097407221794128, -0.48497486114501953, -2.485053777694702, 1.1761497259140015, 0.6057597398757935, -1.0299279689788818, 1.1032906770706177, 1.0077012777328491, -0.17156705260276794, 0.5524227619171143, -0.8335860967636108, 0.16302478313446045, 0.08294825255870819, -0.9956272840499878, 0.3327116072177887, 0.03878968209028244, 0.12162833660840988, 0.4516925811767578, -0.8534286618232727, 2.00131893157959, 0.8157614469528198, -1.0022082328796387, -2.382880449295044, 0.12408322095870972, -2.299659013748169, -0.8857460021972656, 0.1694025844335556, 0.7124677896499634, 0.09635801613330841], [-0.9908646941184998, -1.1011227369308472, 1.0400346517562866, 0.48712170124053955, -1.7738258838653564, 1.7655234336853027, 0.9590392708778381, 0.5822957754135132, -1.7650622129440308, -0.8375188708305359, 1.644392490386963, -0.24284473061561584, 2.4364163875579834, 0.03194873034954071, 0.0740438923239708, -0.7257267236709595, 1.4694558382034302, 2.0539796352386475, 1.3216506242752075, -1.6216837167739868, -1.8683969974517822, -2.810605764389038, 0.0864180326461792, -0.25395601987838745, 0.677024245262146, 0.14236561954021454, 0.35889551043510437, 1.4704889059066772, 1.1364951133728027, 2.010931968688965, 1.1950428485870361, -1.0774880647659302, 1.25667142868042, 0.6596510410308838, -1.5777665376663208, -1.6453243494033813, -0.7282859683036804, -0.24681338667869568, 0.36192557215690613, -0.9122003316879272, -1.0030089616775513, 1.0810950994491577, 1.1515270471572876, -1.230827808380127, -1.7191927433013916, -0.43942540884017944, 0.04509146884083748, -0.08735250681638718], [-2.251601457595825, -0.5850633978843689, -0.1956080198287964, -1.1428697109222412, -1.78484308719635, 0.3164566457271576, 1.8063079118728638, 0.5049263834953308, -1.3343665599822998, 0.870934009552002, -0.4304962754249573, 0.3498484492301941, 0.9772957563400269, -1.1711347103118896, 0.8055957555770874, -0.5494305491447449, -1.370048999786377, -1.7686573266983032, 1.2783887386322021, 0.4103092551231384, -1.1182613372802734, 1.2471182346343994, -0.12342944741249084, -0.15970616042613983, -0.8275916576385498, -0.2786710560321808, 1.621694564819336, 0.5712247490882874, -0.41431593894958496, -0.39329153299331665, 0.16282933950424194, 0.4021192789077759, -0.706210732460022, 0.9430931210517883, -1.3036305904388428, -0.6623044610023499, -1.2364423274993896, -0.5201679468154907, -0.9551149606704712, 0.4538048505783081, 1.9400750398635864, 0.40819665789604187, -1.6006898880004883, 1.2732807397842407, -0.3600314259529114, 0.5933506488800049, 0.15071959793567657, -0.8833921551704407], [0.17482364177703857, -0.7054408192634583, -2.2438881397247314, -2.528510570526123, 1.080602765083313, 0.30951306223869324, -0.18742933869361877, -0.7470928430557251, 1.4595234394073486, -0.6038880348205566, 0.958016037940979, 1.6797902584075928, 0.43456554412841797, 0.11104954034090042, 1.1823216676712036, 1.7508409023284912, -0.6215627193450928, 0.9632004499435425, 2.1339855194091797, 0.687707781791687, 1.089282751083374, 1.6987918615341187, 1.0186254978179932, 0.4020323157310486, 1.5536248683929443, -1.00266695022583, 0.07816080749034882, -0.38645827770233154, -1.5620439052581787, 0.4351033568382263, -1.8957703113555908, 1.7784454822540283, 0.6863921284675598, 1.459970474243164, 2.1357080936431885, -2.59908390045166, 0.7631819844245911, -0.36626070737838745, 0.35856741666793823, 0.4212980270385742, -2.2489805221557617, -0.15952107310295105, -0.24003815650939941, -0.9236608743667603, -0.42838045954704285, -0.1716727763414383, 1.2189849615097046, 1.8423372507095337], [0.17173251509666443, 0.34397000074386597, -0.8663842082023621, 0.6678740382194519, 0.9442093372344971, 0.46650591492652893, -2.148202657699585, 0.32722800970077515, 0.18658708035945892, 1.2623578310012817, 0.5280672907829285, 0.5536351203918457, -0.5729297399520874, 0.18689382076263428, -0.36982542276382446, 0.14881981909275055, 2.019005537033081, -1.0681275129318237, 0.46529415249824524, 1.5467888116836548, -0.38648852705955505, 0.8073747754096985, -0.6765066385269165, 0.22947260737419128, -1.1087549924850464, 0.23409602046012878, -0.10125548392534256, 0.2496165633201599, -0.05085190385580063, 1.4204065799713135, 1.5720250606536865, 1.673027753829956, 0.9862847924232483, 0.7629415392875671, -0.3266356885433197, -1.1379300355911255, 2.03792142868042, -1.2146168947219849, 1.2535419464111328, 1.588549017906189, -0.07351690530776978, 2.27885365486145, -2.266420841217041, -0.13141071796417236, 1.0144357681274414, 0.7204002141952515, 1.0293762683868408, -1.1105509996414185], [0.6189496517181396, 1.5570805072784424, -1.7514954805374146, 0.8630319833755493, -0.38009899854660034, -1.3139337301254272, -0.40466538071632385, -0.2681742310523987, 1.482140302658081, 0.9705435037612915, -0.7764484882354736, 0.0013425536453723907, -0.43338650465011597, 1.1610214710235596, 0.23378312587738037, 1.5393333435058594, -1.281530737876892, -0.3242895007133484, -0.2290303111076355, 0.9206273555755615, 1.0153437852859497, 0.09519542008638382, -0.7449437975883484, 0.1797567903995514, 0.04648043215274811, -0.7236899137496948, -2.2984907627105713, 1.5653258562088013, -1.1827746629714966, -0.3379470407962799, 0.7928746938705444, 1.4378740787506104, -1.3042922019958496, 2.531454086303711, 0.248344287276268, -0.6529589891433716, -1.238217830657959, 0.7986688017845154, -2.992807388305664, -0.23012763261795044, -0.011528709903359413, -0.818051815032959, 0.2963739037513733, -1.000262975692749, -0.8928629159927368, -0.8433574438095093, 0.21682076156139374, 0.2230757772922516], [0.07990176975727081, -3.0201563835144043, -0.47745954990386963, -0.17328289151191711, 0.594764232635498, 0.9615222215652466, -2.2354612350463867, 0.467709481716156, -0.46085426211357117, -0.7075165510177612, -1.3341825008392334, -0.833109438419342, -0.8956989049911499, 1.8314653635025024, -1.8674331903457642, -0.7246971130371094, -1.1954553127288818, 0.7441590428352356, -0.7138439416885376, -0.8242537379264832, 1.439321517944336, 0.8696362376213074, -1.244796633720398, 0.9189366102218628, 0.6457826495170593, -1.1523363590240479, 0.34637558460235596, 0.2870362401008606, -0.2948487401008606, -0.40564361214637756, -0.8352491855621338, 0.6976169347763062, 1.8223522901535034, 1.986796498298645, -1.2660748958587646, -0.4505276679992676, 1.4889330863952637, -0.8691522479057312, 1.1161866188049316, 1.2492157220840454, 0.6062427759170532, 0.014044970273971558, -0.20793017745018005, -1.447587013244629, 0.9059619307518005, 0.9092755913734436, -1.5373408794403076, -0.371249794960022], [-0.3278895318508148, -1.254014253616333, -0.64805668592453, -0.31875503063201904, 0.6630852222442627, -0.02155216410756111, -0.13709935545921326, 0.4869043231010437, -0.028766661882400513, 0.30204692482948303, -1.6242730617523193, -1.8083696365356445, 1.2989329099655151, -0.1750112771987915, -1.7688063383102417, 0.40891358256340027, -1.229738712310791, -0.933250367641449, -2.149044990539551, -0.09043960273265839, 1.083962321281433, 0.5983065366744995, 0.5889767408370972, 1.2190909385681152, -0.7402145266532898, 1.4479167461395264, 0.7871399521827698, -0.7745974063873291, 1.0769747495651245, 0.851507842540741, -0.6221897006034851, -0.4182399809360504, 1.4288371801376343, 0.04431367293000221, -3.2469096183776855, -0.7461410760879517, 0.3950396776199341, -0.5165961980819702, -1.4394558668136597, -2.324080228805542, 0.8639496564865112, 0.3922977149486542, -2.0260441303253174, -0.927687406539917, 0.6093878746032715, 0.7281877398490906, 0.2215522974729538, -1.5638599395751953], [2.5409882068634033, -2.3232920169830322, -2.9257800579071045, -1.7327053546905518, 0.6815351247787476, 1.7103091478347778, 1.2987805604934692, -0.17277361452579498, -1.080324411392212, 0.6877517700195312, 0.5971946120262146, -0.0611504465341568, 0.3991797864437103, 1.0260366201400757, 3.07112717628479, -0.0917978435754776, -1.4423941373825073, 0.756375253200531, 0.9547128677368164, 0.12404114007949829, -0.07160364091396332, -0.6459991931915283, -0.46986421942710876, 1.162788987159729, 3.3002400398254395, 1.5481499433517456, -0.3852651119232178, -0.4338293671607971, 0.8725953102111816, -1.6661263704299927, 0.25616228580474854, -1.036920189857483, -0.825177013874054, -0.17227864265441895, 0.8445806503295898, -0.9232983589172363, -1.4750736951828003, -0.7516741752624512, 0.9873167276382446, -0.32556405663490295, 0.9786010980606079, -0.26108813285827637, -1.5085495710372925, -0.12835702300071716, 0.034171417355537415, -1.142785906791687, 0.38543277978897095, -1.6272587776184082], [0.006710365414619446, 0.3999039828777313, -0.1046338677406311, -2.3105628490448, -0.21643897891044617, 3.123443126678467, 0.8365994095802307, 1.089422345161438, 1.6898633241653442, -0.03360972926020622, 0.46621960401535034, 0.6455410718917847, 0.04679187387228012, -1.6814810037612915, -0.44535544514656067, -1.3015228509902954, 0.8823613524436951, -0.4161214232444763, 1.709388256072998, -1.3751133680343628, -1.1270862817764282, -0.016577474772930145, -1.4361188411712646, -0.7876890897750854, 2.5138132572174072, -0.026762081310153008, -0.279540091753006, -0.5022463798522949, 1.4393210411071777, 0.22760331630706787, -0.31632792949676514, 1.3604408502578735, 0.04801537096500397, 1.327763319015503, 0.9285029172897339, 1.4097199440002441, 0.6961483955383301, -1.1264716386795044, 1.055222988128662, 1.4259885549545288, -0.06402290612459183, -0.9288374185562134, 0.8810725212097168, -0.4978111684322357, -1.0210095643997192, 0.6892406344413757, 0.014190681278705597, 0.22198638319969177], [0.771386444568634, -0.7940233945846558, -0.18654869496822357, -1.3635060787200928, -0.04784088581800461, -0.11278718709945679, 1.4252163171768188, -0.18601930141448975, -1.5240936279296875, -0.5974937081336975, 0.1320159137248993, -0.3886525630950928, 0.38334232568740845, -1.1385469436645508, 1.9100579023361206, -0.16020387411117554, 0.8054232597351074, 2.0588557720184326, -0.4019407629966736, -0.609424889087677, -0.1779792457818985, 0.39081722497940063, 1.0746837854385376, 0.022026047110557556, -0.3093103766441345, -0.02605339139699936, -0.568701982498169, -1.1017075777053833, -0.7494884729385376, -0.16610711812973022, 0.23609645664691925, -1.3396235704421997, -0.8604085445404053, 1.8336646556854248, 0.6363301277160645, -1.066709280014038, 1.035007119178772, -1.544087290763855, -0.8055369853973389, -1.0884755849838257, -1.5373188257217407, -0.16448643803596497, -0.4833674132823944, 1.8507487773895264, -1.0956718921661377, -2.6487715244293213, -1.2777618169784546, 1.641069769859314], [0.5996928811073303, -1.5572576522827148, -0.942474365234375, 1.0042375326156616, 1.2377333641052246, -2.307408332824707, 2.7241601943969727, -0.20893217623233795, 0.011824645102024078, -2.1087255477905273, 0.3441963791847229, 0.0061373719945549965, -0.7401666641235352, 0.18728336691856384, 0.3129367232322693, -0.39494311809539795, -1.394740343093872, -0.8173773288726807, -0.1751389503479004, 0.1929343342781067, -0.001260285498574376, 0.3162253797054291, 0.003294370137155056, 2.7059760093688965, 0.23044270277023315, 0.6857218742370605, 0.004142984747886658, 0.9888937473297119, -2.0049664974212646, 0.14850807189941406, 0.0033856257796287537, 0.21798482537269592, -1.7284168004989624, 1.4746789932250977, -0.8528472185134888, -0.9502967596054077, -0.8900964856147766, 3.2291882038116455, 1.299376130104065, -0.758897066116333, -1.1772658824920654, 0.8720171451568604, 0.2895275950431824, 1.4253290891647339, 0.46234947443008423, 0.8578208684921265, -0.9369757175445557, -1.0345828533172607], [1.844509243965149, -1.270108699798584, 1.0930674076080322, 1.144788146018982, 0.5356119871139526, 0.4385588467121124, -0.6130954027175903, -0.6959673166275024, -1.0389530658721924, 1.543947696685791, -1.0434895753860474, -0.9877157211303711, 3.190852642059326, 1.6809695959091187, -0.05820627510547638, 1.3221157789230347, -0.0990244597196579, 1.2137901782989502, -2.0819265842437744, 0.3142566680908203, -1.6570210456848145, 0.8473049402236938, 2.299959659576416, -0.42342737317085266, 1.127627968788147, 1.0472294092178345, -1.3062899112701416, 0.15262968838214874, -1.158570408821106, 0.01828695833683014, 0.05227169394493103, -2.8207921981811523, 0.32659751176834106, 0.03519444167613983, 2.1680777072906494, -1.2613983154296875, 1.4147331714630127, 1.6179877519607544, -0.8409008383750916, 1.0796055793762207, 1.9828444719314575, 0.05236230418086052, -2.0064046382904053, -0.2662321627140045, 0.9093472957611084, 1.8154319524765015, 0.16516581177711487, -2.3977789878845215], [0.44759654998779297, -1.0034502744674683, -0.40701183676719666, 0.29989901185035706, -2.1915531158447266, -0.18590958416461945, 0.6787081956863403, -0.3490520119667053, 0.9098433256149292, 1.7277255058288574, 2.7671992778778076, -0.17006391286849976, -1.644822120666504, 0.0850241631269455, 0.9588863253593445, -1.3079763650894165, 1.8114888668060303, 0.21521764993667603, -0.5647727251052856, 0.03955249488353729, 1.3104839324951172, -0.5503301620483398, -1.989086389541626, 0.8449038863182068, -0.7323561906814575, -0.7956275939941406, 0.2064531296491623, 0.8656108379364014, -0.7512685060501099, 1.0689842700958252, -1.1121962070465088, 1.3868966102600098, 2.1386892795562744, -1.7645752429962158, 1.6933541297912598, 1.0559821128845215, 0.4935498833656311, -2.550386428833008, 0.7438211441040039, -0.8472070097923279, 2.3112783432006836, 1.0076276063919067, -0.238688662648201, -0.4322587251663208, -0.6620612144470215, -0.8375390768051147, -0.26925602555274963, -2.028743028640747], [-1.7100107669830322, -2.577350378036499, -0.4422561228275299, -0.5523166060447693, 0.2716441750526428, -1.9927328824996948, 0.6217000484466553, -1.6194931268692017, 1.0520011186599731, 0.8093211650848389, -1.1191307306289673, -0.028493309393525124, 1.1732090711593628, 0.7846412062644958, 1.6770939826965332, -0.8066006898880005, 0.9483964443206787, -1.8409713506698608, 0.9820065498352051, 0.13904419541358948, -0.503625214099884, 0.027728434652090073, -0.8079217076301575, -1.541878581047058, 1.1529948711395264, 0.9627630710601807, 0.04348796606063843, -2.4488461017608643, -0.17351040244102478, -0.68281489610672, 0.29274746775627136, 0.8140292763710022, 1.5013182163238525, 1.9099743366241455, -1.5092719793319702, -0.15260112285614014, 1.363014817237854, 0.47438472509384155, -0.6165810823440552, -1.6037440299987793, -1.3978430032730103, 0.5831395387649536, 0.622938871383667, 1.239762783050537, -0.04679331183433533, -2.4729015827178955, 0.7477448582649231, -0.053363554179668427], [1.9148460626602173, -0.9097838997840881, 0.3974505364894867, -1.1668123006820679, -3.9484610557556152, 0.42813658714294434, -1.1775141954421997, -0.4354405999183655, -0.0372130461037159, 0.12418460845947266, 0.8004944920539856, 1.3979668617248535, -1.3423900604248047, -0.8629145622253418, 0.027031950652599335, -0.2744086980819702, 1.099600911140442, 1.2220498323440552, 0.6318804621696472, 2.1210005283355713, -0.6362408995628357, 0.007546529173851013, -0.46703028678894043, -1.4162659645080566, -1.6387726068496704, -0.714471697807312, 1.668425440788269, -0.14664053916931152, -1.1875979900360107, -0.9122530221939087, 0.42646247148513794, -1.135634422302246, -0.25281059741973877, -0.7766914963722229, -1.0111851692199707, 1.2675341367721558, -0.6105241775512695, 0.8596577048301697, -0.7105491161346436, 0.6944835186004639, 1.8105841875076294, -0.259671151638031, 0.353383332490921, 1.2184104919433594, -0.26566222310066223, 1.7228095531463623, 0.7481264472007751, -0.0485026091337204], [0.20696020126342773, 0.1490618735551834, 1.129441499710083, 0.4911118149757385, -1.6431591510772705, -0.2265382707118988, 1.4655097723007202, 0.1791744977235794, 2.146735191345215, -0.3351784944534302, 1.9694348573684692, -1.5188571214675903, -0.24201372265815735, -1.1172457933425903, 0.17314401268959045, 1.8844245672225952, -1.9928630590438843, 1.3465759754180908, -0.3178604245185852, 2.2418932914733887, -0.9596280455589294, 0.04857702553272247, 1.3788073062896729, -1.258636474609375, 0.621943473815918, 1.6048940420150757, 0.3685588538646698, -1.066627025604248, -2.0889642238616943, 0.24948400259017944, 0.2582250237464905, -0.7907706499099731, -1.516431212425232, -1.081276535987854, 1.2743349075317383, -2.0152981281280518, 0.9416807889938354, 1.140468716621399, -2.3400731086730957, -1.3669919967651367, 1.0010250806808472, -0.019389748573303223, 0.15633657574653625, -1.4859867095947266, -0.9723045825958252, 2.869931697845459, 1.186826467514038, -0.9339062571525574], [-0.8418039679527283, -0.46711230278015137, -1.361289143562317, 1.6975237131118774, -1.1462641954421997, -0.22715678811073303, -0.07232050597667694, -0.7266884446144104, -2.6610920429229736, 1.0627809762954712, 0.9417908191680908, -1.333624243736267, -0.41331928968429565, 0.7091299891471863, -0.4245644211769104, 0.7736932039260864, 1.5333912372589111, 0.7642571330070496, -1.136940360069275, -0.5770671963691711, -0.1788831651210785, 0.5803453326225281, -1.7917885780334473, -1.729414701461792, 1.1306073665618896, 0.31890714168548584, 0.08148886263370514, 1.7222020626068115, -2.9505178928375244, -0.6420623064041138, 0.7042798399925232, -0.032219745218753815, -0.49177151918411255, 1.7851306200027466, 2.1174936294555664, -1.7084192037582397, 1.3580257892608643, -0.3164060115814209, -0.35643255710601807, -1.2789530754089355, -0.7591672539710999, 0.19086802005767822, 0.5842459797859192, 2.393287420272827, -1.3774471282958984, 1.3273952007293701, -0.7404528260231018, 0.9985194206237793], [-0.41205766797065735, 1.212350845336914, 1.6578820943832397, 1.147020697593689, 1.9614588022232056, 0.21510788798332214, -0.7297863960266113, 2.2863223552703857, -0.4558681845664978, -0.7137148976325989, 0.3153899610042572, -0.08826983720064163, -3.1627721786499023, -0.9545685648918152, 0.8746823668479919, 2.779843807220459, 0.42454227805137634, -1.481507420539856, -1.4934669733047485, -0.23897342383861542, -0.23930098116397858, 0.12931983172893524, 1.6366978883743286, 0.4767264425754547, -0.7571347951889038, 0.14711052179336548, -0.6369644999504089, 1.0146781206130981, 1.9371631145477295, 0.2537155747413635, -0.46720385551452637, -0.15451301634311676, 0.4925667643547058, 0.5655362606048584, -0.6722798347473145, -0.16458871960639954, 0.45581501722335815, 0.3759092092514038, 1.758806824684143, -1.7533392906188965, -0.4393787682056427, 1.5487350225448608, -1.2130894660949707, -1.1263827085494995, -0.902499258518219, 0.4172559380531311, -1.8621001243591309, -0.1518636792898178], [-0.7997315526008606, 1.035983681678772, 0.5247828960418701, -0.24269640445709229, -1.9192482233047485, 0.101325124502182, -0.022538945078849792, 0.20879748463630676, -1.7849690914154053, 2.208414316177368, -1.107267141342163, 2.8768975734710693, -1.81597900390625, -0.14894920587539673, -0.816398561000824, 1.919617772102356, 1.810476303100586, 0.08632709085941315, 0.5352421402931213, -1.1482021808624268, -0.2872970700263977, 0.45415598154067993, -0.42133501172065735, -0.558621346950531, 1.1202049255371094, 0.47879624366760254, -1.201892614364624, 1.6368016004562378, -0.6057507395744324, -1.5233237743377686, -0.1663682907819748, -0.7458573579788208, -0.10307155549526215, 0.6661721467971802, 1.23068368434906, 0.3101746737957001, -0.6780761480331421, -0.7850942611694336, -0.6704491376876831, 1.4750571250915527, 0.4582101106643677, 0.2076667845249176, 0.4543790817260742, -0.5128452777862549, 1.1049429178237915, 0.4262627065181732, 0.2517755329608917, -1.3146487474441528], [-0.7381753325462341, 2.082176923751831, 0.076868936419487, -0.7676824331283569, -0.12122435122728348, -0.6975980997085571, -0.4785832166671753, 1.8582080602645874, -1.4270190000534058, 0.5459352731704712, -1.0997073650360107, 0.9099898934364319, 0.003629729151725769, 3.3616044521331787, 0.3653191328048706, 0.2524692118167877, -0.500016987323761, -0.58072429895401, -0.22125063836574554, 1.008657693862915, -1.3899741172790527, -0.0763368159532547, -0.6459897756576538, 0.04473075270652771, 0.08563226461410522, 0.8125104904174805, -1.4986681938171387, 1.38186776638031, 1.049411654472351, 0.5756989121437073, 0.8373401165008545, -1.1998957395553589, -0.032012276351451874, -0.49485430121421814, -0.8306754231452942, 0.43472832441329956, 0.8062445521354675, 0.6529974341392517, -0.7076282501220703, 1.2991071939468384, -0.27299606800079346, -0.9150876402854919, 1.139988899230957, -0.939514696598053, 1.8742815256118774, -2.7737345695495605, 1.1513073444366455, 0.6953520178794861], [1.257784128189087, 0.6787832975387573, -0.04711953550577164, -1.5650945901870728, -1.0401815176010132, 1.1218674182891846, 0.10070279240608215, -0.5332460403442383, -2.804260730743408, -0.023090101778507233, 0.6866179704666138, -0.2753867506980896, 0.259915828704834, -0.7275152802467346, -0.09403549134731293, 2.3353817462921143, -0.32919248938560486, 1.2048157453536987, 0.6251331567764282, 0.6258342862129211, -0.63683021068573, 1.3131170272827148, 0.11126666516065598, 2.7220988273620605, -0.10071121156215668, -0.1541122943162918, -2.1209683418273926, 0.5791455507278442, -0.6410276889801025, -0.5859649181365967, 1.3879878520965576, -1.7713764905929565, 0.041317619383335114, 0.7271195650100708, 2.137810230255127, -0.010408390313386917, -0.5869981050491333, -0.4188157916069031, 0.8078876733779907, -1.4550095796585083, 0.6251678466796875, -0.2214180827140808, -0.18594437837600708, -0.4273407459259033, -2.275784492492676, 0.03983147442340851, 0.6925520896911621, -0.2821580171585083], [1.0851266384124756, -0.10941152274608612, -0.12413360178470612, -0.2508822977542877, 0.6204233765602112, 0.08409784734249115, 0.27059048414230347, 0.6139417886734009, -0.5372823476791382, 0.19092696905136108, 0.5828378796577454, 0.21587418019771576, 1.2516554594039917, -1.7414244413375854, -0.16837994754314423, 1.4889049530029297, -0.22872385382652283, 0.08082347363233566, -1.3806376457214355, -0.2909117639064789, -0.8047178983688354, 0.7368671298027039, -0.23738355934619904, -0.5538846254348755, -1.4163838624954224, -0.8598747849464417, -0.4280855059623718, -0.899174690246582, -2.2983696460723877, -0.3414289355278015, -0.3690149784088135, 0.8964588046073914, -0.4546016752719879, 1.0165750980377197, 0.044852446764707565, 0.8724467158317566, 0.24503988027572632, 1.8267425298690796, 0.43215426802635193, -1.6811590194702148, 0.3026568591594696, 0.3584212064743042, 0.2877306342124939, 1.2056164741516113, -0.13333727419376373, -0.6715273857116699, 2.2660622596740723, -0.7426491379737854], [1.4900214672088623, -0.14329463243484497, -0.387636661529541, -0.31820669770240784, -0.7503251433372498, -0.7674080729484558, 0.83119797706604, 0.5269742012023926, 0.3302599787712097, 0.2490893453359604, -0.1716313362121582, 2.68818998336792, -0.6781460046768188, -0.5435371398925781, 1.0639244318008423, 1.6951069831848145, -1.7725287675857544, -0.2201905995607376, -2.4228968620300293, 1.7609421014785767, 0.523427426815033, -0.353270560503006, 0.8650094866752625, -1.1281698942184448, 1.0537875890731812, 0.30564993619918823, -0.6963835954666138, -1.0690407752990723, 0.1880815029144287, 1.3888187408447266, 0.021458134055137634, 1.1398988962173462, -1.3627638816833496, -1.6168862581253052, -2.513028621673584, 2.4037528038024902, 1.0072295665740967, 2.4622395038604736, 1.5007648468017578, -1.0832254886627197, -0.5962063670158386, 1.4778496026992798, 0.8452088236808777, -0.24544012546539307, 0.28390592336654663, -1.643295407295227, 0.1071271300315857, -0.49085453152656555], [-1.2593400478363037, 0.7158093452453613, 0.2755212187767029, -1.4413074254989624, -0.05645165592432022, 0.8835812211036682, 0.6248776912689209, -0.03849177062511444, 0.6124933362007141, -0.8397217988967896, 0.6449340581893921, -1.7337807416915894, 0.35798180103302, -0.27421391010284424, -1.0721920728683472, 2.2909889221191406, -1.1596870422363281, 2.9652082920074463, 0.5457151532173157, 0.8488175868988037, 0.698760449886322, 0.007231914438307285, -0.1533348709344864, 1.3450735807418823, 1.8151603937149048, -1.7458821535110474, 0.6034895181655884, -0.4152442514896393, -0.10110671073198318, -0.3592775762081146, 1.4311357736587524, 2.9884696006774902, -0.12286003679037094, -1.5702394247055054, -1.0586382150650024, 0.17907482385635376, 0.08878759294748306, -0.83318692445755, -0.8428221344947815, 0.43259957432746887, 0.5647803544998169, -1.435839056968689, -1.1526682376861572, -1.321567416191101, -0.508634090423584, -0.7071995735168457, -1.1658047437667847, -1.6908048391342163], [0.7129629850387573, -0.3666068911552429, -0.9134255647659302, 0.21182960271835327, -0.3719741106033325, 0.85931795835495, 0.5234280824661255, 0.06813839077949524, 0.09615367650985718, 0.13184426724910736, 1.2877893447875977, -0.5534858703613281, 2.4611995220184326, -1.1765731573104858, -0.698427677154541, 0.6275002956390381, -0.4323349893093109, -0.12419314682483673, 1.8959567546844482, 0.43079593777656555, 1.6854021549224854, -0.9473609924316406, -0.7642565965652466, 2.7991268634796143, -1.1547995805740356, -0.08124798536300659, 0.04772433638572693, -1.0022250413894653, 0.5982241630554199, -0.23987340927124023, 1.3884193897247314, -1.5021849870681763, 1.8349167108535767, -1.0009931325912476, 1.0257141590118408, 0.83919358253479, -1.8749228715896606, -0.20045186579227448, -0.25287967920303345, -0.5356597900390625, -0.6076073050498962, -0.13659925758838654, 1.5861294269561768, -2.0276339054107666, -1.2308411598205566, 0.5343172550201416, -0.7730808258056641, 0.5237427353858948], [0.7083214521408081, -0.1467631459236145, -0.2850644886493683, -1.7440851926803589, 1.2247281074523926, -0.5189946889877319, -1.9912697076797485, -0.43850234150886536, -2.002262592315674, -0.07829727232456207, 0.20683090388774872, 0.2681323289871216, 0.22075940668582916, -1.0220190286636353, -2.0200626850128174, -2.9396157264709473, -1.8151003122329712, 0.4704386293888092, 0.5149366855621338, -0.15191654860973358, -0.33856001496315, 0.3951261639595032, 0.25925731658935547, 0.1748254895210266, -0.3886779248714447, 0.7886061668395996, -0.19155386090278625, -1.9392331838607788, -1.3134163618087769, -0.2942834496498108, 0.8561474680900574, -0.20465336740016937, -0.03656475618481636, 1.0917823314666748, -0.43217697739601135, -0.1306227296590805, 3.3162896633148193, 1.4105685949325562, 1.3874861001968384, 0.30279919505119324, 0.9392081499099731, 0.4290333092212677, 1.4279335737228394, 0.14973127841949463, -0.2215755432844162, 0.2937157452106476, -0.7237199544906616, 0.37526050209999084], [0.15136513113975525, -0.30763906240463257, 0.6715834140777588, -0.5506309866905212, 0.023695379495620728, -0.8455132246017456, -0.6883274912834167, 0.6474144458770752, 1.5937861204147339, 1.8028805255889893, 1.8894888162612915, 1.008770227432251, 0.5249223709106445, -0.6469994783401489, 0.03761062026023865, -1.2485243082046509, 0.6834093332290649, 2.9010066986083984, -1.2723393440246582, 0.0969713032245636, 0.9274242520332336, 0.4525945782661438, -1.0046790838241577, 0.45251694321632385, 0.9509197473526001, 1.3798801898956299, 0.04998818412423134, 1.5388604402542114, -2.0594375133514404, -1.8297100067138672, -0.17610588669776917, 1.4469128847122192, 0.8733993768692017, -2.7999351024627686, 0.8864107131958008, -0.13436509668827057, -0.37533819675445557, 1.9440944194793701, -0.8140824437141418, -0.48584648966789246, 1.8220125436782837, 1.1643402576446533, -0.8957735896110535, 1.7806768417358398, -0.19721725583076477, 1.6087137460708618, 2.189817190170288, 1.0479774475097656], [-0.3078015148639679, 1.0040473937988281, 0.8620997071266174, -0.9121060371398926, -1.3242502212524414, 2.257709503173828, 0.1105983555316925, 1.041251301765442, -1.4273121356964111, 1.2907145023345947, 0.6778709292411804, 1.157137155532837, 1.3447258472442627, -0.39523643255233765, -1.6479318141937256, 0.8380892276763916, -0.2050400972366333, -0.9387461543083191, -0.22915588319301605, 0.6003410816192627, 0.3742736876010895, -0.7140807509422302, -0.7537887692451477, -0.5513045191764832, -0.6720622777938843, 1.8020520210266113, -0.44473400712013245, -0.5461087226867676, 1.6183967590332031, 1.251855492591858, 1.66144597530365, -2.3442649841308594, -0.913202166557312, 0.27536433935165405, 0.058903053402900696, 0.3475606441497803, 0.7922622561454773, 1.2574266195297241, -0.8498002886772156, -1.372130274772644, 1.1541441679000854, 0.45430052280426025, -0.36382535099983215, -0.5594067573547363, 0.4860188364982605, 1.1101547479629517, -0.5558766722679138, 1.6602894067764282], [-0.7543933987617493, -1.2849370241165161, 2.7515788078308105, 0.5079255104064941, 1.2787425518035889, -0.08723409473896027, -0.03751670941710472, -0.2816945016384125, -0.340963751077652, -0.5408250093460083, -0.6524081230163574, 0.8775073885917664, -0.31752195954322815, 1.606825590133667, 1.2500289678573608, 0.9606448411941528, 0.3252696990966797, -2.2173423767089844, -1.361621379852295, 1.672837734222412, 0.31617116928100586, 0.24493511021137238, -0.5171514749526978, -1.6066149473190308, 0.2501320242881775, -0.2573312819004059, 1.0612130165100098, 0.8932114243507385, -0.8730678558349609, -0.5199902057647705, -0.7121679186820984, 1.261128544807434, -1.8436105251312256, -2.033437728881836, -0.9149351119995117, 1.0735750198364258, 1.4085880517959595, -2.0716795921325684, 0.6095705628395081, 1.7171120643615723, 1.1626176834106445, -1.3425401449203491, 0.19685864448547363, -0.6365455389022827, 0.6029766798019409, -0.4570505917072296, 1.3752504587173462, -1.5349599123001099], [1.1875579357147217, 0.32102128863334656, 2.959118366241455, 1.1433258056640625, -0.866430938243866, -0.12384303659200668, -0.2640327215194702, -1.8965015411376953, 1.7482595443725586, -0.22948290407657623, 1.0261949300765991, 0.038007885217666626, -1.3058135509490967, -0.7228969931602478, -2.0588555335998535, 0.56711345911026, -0.12705567479133606, -0.07600434124469757, -0.591946005821228, 0.026820547878742218, -0.16659222543239594, 0.7753286957740784, -0.2734553813934326, 2.1338207721710205, -0.8186898231506348, -1.4404044151306152, -0.5416021943092346, 0.5879770517349243, -2.5331993103027344, -0.3632808327674866, 1.287075400352478, -1.2019217014312744, -0.5896812677383423, 0.16260480880737305, 0.17968839406967163, 2.0485680103302, -0.11534728109836578, -0.48712158203125, -2.8808794021606445, 0.08916252106428146, -0.29021260142326355, 0.5280764102935791, 1.1948113441467285, 1.1810566186904907, -0.28882962465286255, 0.10910486429929733, 1.8939919471740723, 0.28728049993515015], [0.1909317672252655, 0.2017362415790558, -1.655714750289917, 1.5836766958236694, 2.325052261352539, 0.4530821740627289, -2.1477603912353516, 0.18659307062625885, -0.22542919218540192, -1.6735845804214478, 0.5065749287605286, 0.7539087533950806, 1.2651573419570923, 0.2098267376422882, -0.5373989343643188, -0.655378520488739, 0.18359920382499695, -0.3715745806694031, 1.0035946369171143, -1.4487779140472412, -0.2879709005355835, -0.7614693641662598, -2.0161538124084473, 0.06349822878837585, 0.9706406593322754, 1.0589317083358765, 3.044990301132202, -1.0869873762130737, -1.6643962860107422, 0.8853229284286499, -1.3243346214294434, 0.9435548782348633, -0.5583347678184509, -0.9243789911270142, 0.019194655120372772, -0.5860713720321655, 0.17090114951133728, 0.17283613979816437, -0.8209396004676819, -1.061256766319275, -0.7208030223846436, -1.2634999752044678, 0.6943843960762024, 0.6545162796974182, -2.4526243209838867, 0.7039552330970764, -1.3898972272872925, 0.9907658100128174], [0.44092056155204773, -2.1570377349853516, -0.3677127957344055, -0.5976485013961792, 2.3310415744781494, 0.22372868657112122, 1.5636792182922363, -1.7980073690414429, 1.6102033853530884, -0.6645680665969849, 0.20422875881195068, 0.25869467854499817, 0.5635002851486206, 1.8247401714324951, -0.9286022782325745, -2.8213579654693604, -0.6291089057922363, 0.9962332248687744, -0.39179614186286926, 0.8986212611198425, -1.906964659690857, 0.21438461542129517, 0.01162363588809967, -1.3192589282989502, -1.2580602169036865, -0.5631123185157776, -0.830383837223053, 0.47913968563079834, 1.0434167385101318, 0.35338878631591797, -2.0903782844543457, -0.4558100700378418, -0.5806712508201599, 0.3713392913341522, 2.61346435546875, 2.1206228733062744, 1.941085696220398, -0.24783442914485931, 1.6109894514083862, -0.07012835144996643, 0.1119757890701294, -0.7749040126800537, 0.7630815505981445, 1.3702857494354248, -0.739281952381134, 0.9711638689041138, -0.714794397354126, 0.38587477803230286], [1.4877816438674927, -1.1243268251419067, -0.7055225372314453, 1.9942516088485718, 0.3532716631889343, 0.5868999361991882, 0.9680816531181335, -1.314464807510376, -1.8674741983413696, -1.1593925952911377, -0.3485766053199768, -1.3453880548477173, 1.0960102081298828, 1.8030853271484375, -2.0434257984161377, 0.5548689961433411, -1.7652109861373901, 0.19785812497138977, -0.7551677823066711, -0.6266424655914307, -0.21723537147045135, 1.103654384613037, 1.0441043376922607, 0.3949779272079468, -2.6814937591552734, 2.4923667907714844, 0.7197681665420532, 0.7512791156768799, -1.2457395792007446, -0.752529501914978, 0.7208278179168701, -1.741263747215271, -0.31267672777175903, -0.9531530737876892, 0.47420862317085266, -1.1896284818649292, -0.15397652983665466, 0.9520528316497803, -2.979368209838867, -2.551762580871582, -2.0692765712738037, -0.28277498483657837, 0.20791155099868774, 0.22051721811294556, -1.6402252912521362, 1.5768659114837646, 0.05277756601572037, 0.759206235408783], [-0.9223686456680298, 0.5437837839126587, -0.588334858417511, 1.3578481674194336, 1.7788931131362915, 1.1471984386444092, -0.412253737449646, -0.11776712536811829, 0.23623782396316528, -0.9290386438369751, -1.659621238708496, 0.11080998182296753, -1.494627594947815, 0.9568077325820923, 0.1415083259344101, -0.07805994153022766, -4.251896858215332, 0.12522384524345398, 0.5014685988426208, -0.29036176204681396, 0.20876936614513397, 1.8538856506347656, 0.9072999954223633, -2.270484209060669, 0.03179918974637985, -1.5890421867370605, -1.751238465309143, -0.39577341079711914, 0.15696892142295837, -0.04291266202926636, 0.5644446015357971, -2.357970952987671, -0.954113781452179, 0.20671036839485168, -1.5270740985870361, 0.7818084359169006, -0.32867294549942017, 1.052024006843567, -1.2415004968643188, 1.7687097787857056, -1.808190107345581, 0.027729235589504242, -0.5474719405174255, 0.5072653889656067, -2.161302328109741, 1.119036316871643, 0.10032335668802261, 0.8696702122688293], [-0.308404803276062, 2.7230474948883057, 2.957728147506714, -1.8160064220428467, 0.8698327541351318, -0.788167417049408, -0.8418195247650146, -0.1695106327533722, 0.41035038232803345, -0.18097767233848572, -1.1535085439682007, -0.5474749803543091, -0.8618572354316711, 0.07435375452041626, -0.21751995384693146, -3.6796607971191406, -1.9125101566314697, 1.464453101158142, -0.4519593417644501, -2.2171547412872314, 0.47494184970855713, 0.999920666217804, 0.9928624629974365, -0.5182890892028809, -2.27139949798584, -0.8573985695838928, -1.2543530464172363, 1.4785289764404297, -0.361311674118042, -0.8151215314865112, -0.64815354347229, 0.22336170077323914, -0.8775402903556824, 1.8261287212371826, 1.534365177154541, -0.08884299546480179, -1.5968986749649048, 0.579496443271637, -0.13316509127616882, 0.0959947407245636, 1.0510361194610596, 1.468851923942566, -0.39327454566955566, -0.21171557903289795, 2.2900006771087646, 0.1995140016078949, 0.8649378418922424, -0.610719621181488], [-0.4096144139766693, -0.5144897699356079, -0.8637104034423828, -2.2413434982299805, -0.7827432751655579, 0.15711089968681335, 3.035720109939575, 0.3069724142551422, 1.2156744003295898, -1.4013164043426514, 3.1799135208129883, -0.26940077543258667, -0.573578953742981, 1.172275424003601, -1.5827553272247314, 1.1008236408233643, -0.5117551684379578, 0.4209882616996765, 1.4233521223068237, 0.1987677961587906, -2.2100942134857178, -0.7898606061935425, 1.5245704650878906, -0.4151766300201416, -0.619672417640686, -0.35597777366638184, -0.2953319549560547, 0.35138505697250366, 0.4767977297306061, -1.6855195760726929, -0.8807904124259949, 1.391514778137207, 2.0219380855560303, 0.36196818947792053, 1.004618763923645, -0.8938664197921753, -0.01996931992471218, -0.40988367795944214, 0.910362184047699, -0.05814283341169357, 0.23060999810695648, 0.5019444227218628, -2.3561577796936035, -0.8797460794448853, -1.2582639455795288, -1.8791124820709229, 0.5632874965667725, -1.506500005722046], [0.8576681017875671, 0.8406701683998108, 0.1207253560423851, 0.5105226635932922, 0.43140944838523865, -1.0887231826782227, -2.163954019546509, 0.83504319190979, -0.26480647921562195, -2.171076774597168, 0.44484710693359375, 0.16943125426769257, -1.7054216861724854, -0.8545364141464233, 0.8056391477584839, -1.3794548511505127, 1.4814164638519287, 0.08856475353240967, -0.0978599563241005, -1.4637653827667236, -0.41758978366851807, -1.412709355354309, -2.5277369022369385, 3.1119847297668457, 1.8079288005828857, -0.7837247252464294, -1.6605890989303589, 0.45981377363204956, 1.3566361665725708, 0.4297254979610443, -1.0797436237335205, -1.308197259902954, 0.4509689211845398, 1.3938623666763306, 2.3605873584747314, 2.0664212703704834, -2.3335351943969727, -1.0169765949249268, -1.155502438545227, 1.057167649269104, -0.6790726780891418, 1.4049365520477295, 0.4150073528289795, 0.348229318857193, 0.26643940806388855, -0.7821075916290283, 0.23709304630756378, 0.7474254369735718], [0.8967745304107666, -0.9621032476425171, 0.25670406222343445, 1.6095941066741943, -0.5032142400741577, -1.720329999923706, -2.776838779449463, -0.3138878047466278, -0.31536033749580383, -0.17592710256576538, -1.4949562549591064, 0.6255611181259155, -0.8548603057861328, -1.7692807912826538, 0.7913767695426941, 0.6266221404075623, 0.5537795424461365, 0.05492662638425827, -1.61638605594635, -0.6012598276138306, 0.24702942371368408, -1.2709203958511353, -1.86751389503479, 0.011811431497335434, 0.046509385108947754, -1.1001415252685547, -0.16219577193260193, 0.5837317109107971, 2.4736826419830322, 0.7739024758338928, -1.2645244598388672, -0.189401775598526, 0.5485509037971497, -2.8686230182647705, -0.3199627995491028, 0.6810650825500488, -0.5353767275810242, -1.0163097381591797, 0.8451016545295715, 0.49365925788879395, -2.079559326171875, -0.4841591715812683, 0.8062498569488525, -1.6795786619186401, -2.1201674938201904, -0.5665106773376465, -0.6246160268783569, 1.0791136026382446], [-1.8841583728790283, -1.046260118484497, -0.8463451266288757, 1.1043657064437866, -0.21380262076854706, 0.4016593098640442, 0.993277907371521, 2.3544845581054688, -0.9850665330886841, 1.2166132926940918, -0.4676024317741394, -2.1558830738067627, -0.9044635891914368, -1.1149728298187256, -1.5977847576141357, 2.3030216693878174, -2.118464231491089, -0.6718342900276184, 1.2668591737747192, 1.1305804252624512, -1.1344449520111084, 1.1589219570159912, -0.7970712184906006, -0.6779252290725708, -1.052886962890625, -0.9046121835708618, -1.0385483503341675, 0.35111868381500244, -0.4019591212272644, -0.8657432794570923, 0.8230785131454468, 0.28935372829437256, -1.2958678007125854, 0.22158163785934448, 0.35582423210144043, 1.6932064294815063, -2.8512890338897705, -0.008649401366710663, -0.8906492590904236, 0.5096666812896729, -0.14796459674835205, 0.9330980777740479, 1.3374996185302734, 1.236370325088501, 2.6880085468292236, -0.30626317858695984, 1.2457976341247559, 0.12892192602157593], [-0.18935608863830566, 1.106136679649353, 3.5244297981262207, -0.7300941348075867, -0.509993851184845, -0.6025033593177795, -1.69818115234375, -0.2549402713775635, 0.46768707036972046, 0.39163661003112793, 1.7644622325897217, -0.0815444067120552, -1.3641090393066406, 1.8253388404846191, 0.3346797227859497, 0.4472993016242981, 0.6859687566757202, -1.6008609533309937, 0.24880632758140564, -1.1609134674072266, -0.09001563489437103, -1.4318222999572754, 0.6577047109603882, -0.5915618538856506, -0.6474199891090393, -1.3585782051086426, -0.1904122531414032, 0.08719862997531891, -1.6746532917022705, -1.1995444297790527, -0.1661936342716217, -3.134917736053467, -0.3342553377151489, 1.4116796255111694, -0.9852925539016724, -0.8430005311965942, 0.42237401008605957, 2.0855002403259277, -2.545682907104492, 1.4335898160934448, -0.8648269772529602, 1.1599105596542358, -0.1657097339630127, -0.4542517364025116, -1.4793959856033325, 1.082558035850525, 1.1953766345977783, -0.6177904009819031], [-2.0659377574920654, -0.26433536410331726, -1.7078782320022583, -2.6912550926208496, -0.552151083946228, 0.6660744547843933, -0.42502114176750183, 0.9322831034660339, 1.0923305749893188, -0.8425453305244446, -0.5986639261245728, 0.82756507396698, -1.806300401687622, 0.705660879611969, -1.21719491481781, 0.9086897373199463, -1.0841947793960571, -0.13509133458137512, -1.1847747564315796, 0.052184104919433594, -0.934334933757782, -1.029748558998108, 1.6294206380844116, 1.1391502618789673, -0.08372434973716736, -1.3598592281341553, -0.43712401390075684, 1.4521377086639404, -1.1390135288238525, -0.17050418257713318, -0.5613511800765991, -0.03779391199350357, -0.32289671897888184, -2.578369379043579, 0.6007186770439148, 0.49921074509620667, -0.9252681136131287, 1.891158103942871, -0.014468692243099213, 0.59794682264328, -0.6868763566017151, 0.18715229630470276, 1.3927632570266724, 0.6878920793533325, -0.06874771416187286, -0.8436775803565979, -0.9491379857063293, 0.017236702144145966], [-0.3968956172466278, -1.6428438425064087, 0.2612977921962738, -0.4424750804901123, -0.6388494968414307, -0.43367040157318115, -3.03604793548584, 0.23100590705871582, 0.7378586530685425, -0.5599719285964966, -0.20707276463508606, 1.505200743675232, -0.5279821157455444, 2.4396116733551025, 0.04916762560606003, 1.666977047920227, 0.468423992395401, 1.2106989622116089, -0.482422411441803, -2.912201166152954, 0.9644724130630493, 0.6019266843795776, -1.3312371969223022, 0.08509441465139389, -3.232834577560425, 2.6699342727661133, -1.5491408109664917, -1.6284486055374146, -1.3610353469848633, 1.8786139488220215, 0.13191774487495422, -0.4349469840526581, 0.696520209312439, -0.2635680139064789, -0.5983574986457825, -0.1714867353439331, 0.6941503882408142, 0.9462777376174927, -0.6480914354324341, -1.3537944555282593, 0.057954952120780945, 0.7929309010505676, 1.6136573553085327, 0.023924609646201134, -0.33852121233940125, 2.209804058074951, -0.17802485823631287, -0.04018716514110565], [-2.347149610519409, 0.44894206523895264, -1.2186279296875, -0.021350637078285217, 1.3900483846664429, -0.5361055731773376, 1.6255313158035278, 1.8914520740509033, 0.7269582152366638, -1.6521637439727783, -0.8096259832382202, -0.9109758138656616, 1.2020968198776245, 1.6594027280807495, 2.3676517009735107, -3.4197018146514893, 0.03630039840936661, 0.28710347414016724, 2.6122548580169678, -0.09101660549640656, 0.3912660777568817, -1.05885648727417, 0.5606716871261597, 1.4490739107131958, 0.2521030902862549, 1.1321436166763306, 0.6645247936248779, 0.8045050501823425, 0.15833353996276855, 2.639453649520874, -0.11564333736896515, 0.944291353225708, 0.6574307680130005, -1.590685486793518, 0.07316761463880539, -0.5771746635437012, -0.08329323679208755, 1.0265129804611206, -1.887676477432251, 0.37141525745391846, -1.0102218389511108, 0.02845308557152748, 0.5109786987304688, -0.045330315828323364, -2.7670843601226807, 0.2499867081642151, -1.8330844640731812, 0.5490046739578247], [-1.0638662576675415, -0.532588005065918, -1.9155058860778809, 0.7088165879249573, -0.5280991792678833, -1.258420467376709, -0.5553476810455322, 1.7228418588638306, -0.33719944953918457, -0.347339928150177, 2.227591037750244, 1.2648870944976807, -0.5200738310813904, 0.6615308523178101, 0.14487147331237793, -0.8840633034706116, 0.07471778988838196, 0.7859163880348206, -0.9875929355621338, 1.7376701831817627, 1.4729949235916138, 1.383739709854126, 1.1878528594970703, -0.16895578801631927, 0.1095317155122757, 1.8808926343917847, -1.5162311792373657, -0.766834557056427, -0.9879376292228699, 0.5180642604827881, -0.7302513718605042, -2.5209195613861084, 0.5093161463737488, 1.260154366493225, -0.7931877970695496, 2.187849521636963, -0.39260759949684143, 1.6665380001068115, 2.5120813846588135, 0.1253989338874817, -0.02391909807920456, 1.0270967483520508, 0.4254581332206726, -0.976898193359375, -0.09998152405023575, 0.7584308385848999, 0.20205944776535034, -1.6581655740737915], [-0.4345890283584595, 1.384840488433838, -0.1970425248146057, -1.689257264137268, -0.001948535442352295, 0.6395010352134705, -1.7155094146728516, 0.9991571307182312, 1.3515899181365967, 2.0475046634674072, 2.283796787261963, -1.7475690841674805, 1.3643988370895386, 0.3381076455116272, 0.5404015183448792, 1.2146106958389282, -0.0647490993142128, 0.7066842913627625, -1.7047710418701172, 1.7699289321899414, -1.118952989578247, 1.2832047939300537, 0.7403406500816345, 1.357251763343811, 0.7740891575813293, -0.5428568720817566, 2.6129798889160156, 0.15469934046268463, 0.8766498565673828, 0.9755781888961792, 0.22600150108337402, 2.184382915496826, 0.01978982612490654, -0.9846550822257996, -0.4077349007129669, 0.01440015435218811, 2.6119000911712646, -0.922012448310852, -1.1322746276855469, 1.8613355159759521, 0.4550107419490814, 0.24017395079135895, -0.6108992695808411, 0.143290176987648, -1.2217649221420288, 1.827272891998291, -0.6188216805458069, 1.8087483644485474], [-2.828707218170166, 1.8594647645950317, -0.8418142199516296, 0.6483084559440613, -0.605942964553833, 0.08718463778495789, -1.5431910753250122, 0.9184629321098328, -0.010200649499893188, -0.6597645282745361, -0.7923314571380615, -1.9369778633117676, 1.2429836988449097, -1.119424819946289, 1.6850690841674805, 1.5716484785079956, -1.5068578720092773, -0.7337549328804016, -0.4046950340270996, 2.9650795459747314, 1.3393453359603882, 2.535233497619629, -0.7514647245407104, -1.1478922367095947, 1.014979362487793, 0.9541112184524536, -0.0849686861038208, -1.2822517156600952, 0.4401470422744751, 0.5407404899597168, 1.2194091081619263, -1.0135259628295898, -0.3068075180053711, 0.32791846990585327, -0.6002533435821533, 1.737848162651062, -0.6996647715568542, 0.9748385548591614, -0.32393160462379456, 1.5941113233566284, 1.4792910814285278, -1.842929482460022, -1.1898369789123535, 0.008891426026821136, -1.0701417922973633, 0.6485264897346497, -0.022790998220443726, -0.1357496827840805], [-1.4947091341018677, -1.528179407119751, -0.7172423005104065, -2.460355043411255, -0.21437481045722961, 0.5538484454154968, 0.108106330037117, 0.760638415813446, -0.7189806699752808, 0.4117341637611389, 0.91302090883255, -1.2960528135299683, 1.4549106359481812, 0.3685522973537445, 2.590059995651245, -0.16761133074760437, 0.7974708676338196, -0.8201411366462708, -0.29142290353775024, 1.4280390739440918, -2.662318706512451, 0.26599228382110596, 1.3814365863800049, 0.3843279778957367, -0.39614337682724, -0.4998842477798462, 0.701237142086029, -0.3211394250392914, 0.316561222076416, -0.23542839288711548, -0.17255133390426636, -1.9603259563446045, 1.4620463848114014, 0.5143041014671326, -0.3099437654018402, 1.151350975036621, -0.9277524948120117, -1.0684598684310913, 0.3517308235168457, -1.122974157333374, 1.0425175428390503, 1.2627366781234741, 0.91643887758255, -1.5706870555877686, 0.6024442911148071, -0.9767389297485352, 0.5812456011772156, 0.08239578455686569], [-0.2693336606025696, 0.546299934387207, -0.9715144634246826, 0.708125114440918, -0.4939045011997223, -1.1111266613006592, -1.8833565711975098, 1.4892122745513916, -0.2521219253540039, 0.7792864441871643, -0.5009082555770874, 0.25025391578674316, 1.021530032157898, -0.1597641557455063, 0.4838612377643585, 0.39938825368881226, 0.33955472707748413, -0.46144071221351624, 1.6195629835128784, 1.7595529556274414, 0.8780391216278076, 1.3774152994155884, 3.0859017372131348, -0.7624467015266418, 2.1003689765930176, -1.0017969608306885, -0.2246650755405426, 0.7032930850982666, -1.5941684246063232, -0.5255047082901001, -3.152878999710083, 0.6752498745918274, -1.5269854068756104, 1.9569990634918213, 1.0368345975875854, 0.25722891092300415, -1.4559592008590698, -1.6650748252868652, -0.27084362506866455, 0.7308875322341919, -3.6112747192382812, 0.9263859987258911, 2.095623016357422, 0.7959254384040833, 1.776405930519104, 1.1461000442504883, 0.04880464822053909, -0.9769794344902039], [0.258634090423584, -2.1278464794158936, -0.10849658399820328, -0.5114354491233826, 0.6530430316925049, 2.1777963638305664, 1.6742829084396362, -0.6441187858581543, -0.7690528631210327, 0.37287765741348267, -0.8965129256248474, -0.03794534131884575, -1.9851940870285034, -2.2459700107574463, 0.46876904368400574, 2.9042630195617676, 1.123677134513855, 0.684135377407074, -0.4432864189147949, 0.7423409819602966, -0.23581670224666595, -0.6452203392982483, 1.0231565237045288, 0.2689632773399353, -1.1923161745071411, 2.5602307319641113, -0.19330815970897675, 0.26795849204063416, -3.306710958480835, -0.7883208990097046, 1.1851783990859985, -0.029028192162513733, 2.2439651489257812, 0.9447630047798157, -0.8267041444778442, 1.250105857849121, 0.1832740753889084, -0.1809791773557663, 1.2256120443344116, 1.4219610691070557, -1.0906472206115723, -1.4840978384017944, -0.3593605160713196, -2.0298547744750977, 1.2777068614959717, 2.10608172416687, 0.7203972935676575, -0.5727724432945251], [0.6160863041877747, -1.5965694189071655, -1.5594879388809204, -0.5388973951339722, 0.23588785529136658, -0.05042996257543564, 0.5619038343429565, 0.14144405722618103, 0.49823427200317383, -1.301840901374817, -0.47817695140838623, 0.06056274473667145, 0.28916528820991516, 0.20083878934383392, 0.20917317271232605, -0.039907779544591904, -1.051846981048584, 0.5542974472045898, 0.31390291452407837, -0.11963631957769394, 0.14550745487213135, 2.2916924953460693, -0.6284986734390259, 1.1381808519363403, -2.220947504043579, -0.741452693939209, 0.06061314046382904, 1.1483643054962158, -1.572205901145935, 1.9478981494903564, -2.335354804992676, -0.19403702020645142, 0.08605730533599854, -0.09147648513317108, 1.085383415222168, -0.6896255612373352, -0.758497953414917, -0.15416279435157776, 1.815407395362854, -1.2911789417266846, -0.4134262204170227, -2.1815292835235596, -0.18824715912342072, -1.0242853164672852, -1.050340175628662, 0.5653094053268433, 1.2294666767120361, -1.7591748237609863], [-0.6756312847137451, 1.5538229942321777, 0.16878734529018402, -0.5580564141273499, 0.7590233683586121, -1.1833947896957397, -0.34301552176475525, 1.6811267137527466, 0.4727833569049835, 1.3202282190322876, 1.2772645950317383, 0.6137347221374512, 0.053684212267398834, 0.3773128092288971, 0.6207097768783569, 0.2823293209075928, 0.6529627442359924, -0.6856558322906494, -0.8338581919670105, 0.23985163867473602, -0.9822158813476562, -2.3230583667755127, 0.0007962221279740334, 0.19623145461082458, -1.1872888803482056, -0.012148048728704453, 3.1031365394592285, -0.2711915373802185, -0.6202917098999023, -0.015450716018676758, -2.365757942199707, -0.5003585815429688, 0.40569525957107544, 0.39027634263038635, -0.29153087735176086, -0.28125083446502686, -1.7570377588272095, 0.6202664971351624, 0.7992416620254517, -0.06851226091384888, 0.799849808216095, -2.378800868988037, 0.2362476885318756, -0.1843913048505783, -0.03986862301826477, -0.10530812293291092, 1.2107949256896973, 1.4690073728561401], [-1.3220641613006592, -2.345662832260132, 1.4028676748275757, -2.328752040863037, 2.6390957832336426, 1.8231016397476196, 1.8054821491241455, -2.700287103652954, 0.5803726315498352, -1.0786011219024658, -0.19337022304534912, 0.4534473717212677, 1.15359628200531, -2.4101173877716064, 0.39617088437080383, -1.1831220388412476, -0.7256418466567993, 2.294861316680908, 1.1302721500396729, -0.7647378444671631, -0.17662180960178375, -1.3420333862304688, 1.3276160955429077, -0.08409863710403442, 2.5950732231140137, 0.22525674104690552, 1.172372579574585, 0.6414667367935181, -0.1739238202571869, 0.7329927086830139, 1.0649871826171875, 1.9794254302978516, 0.8949371576309204, 0.30462151765823364, -1.8717502355575562, 0.47725337743759155, -0.6001695394515991, -0.8423481583595276, -1.9983506202697754, 0.19571036100387573, 0.1299576759338379, 0.8094112873077393, -0.33353903889656067, -0.12226425111293793, 0.4412842392921448, -0.38241809606552124, 0.9071494340896606, 0.27404192090034485], [1.5901668071746826, -0.11607702076435089, -0.7287777066230774, 2.121446132659912, 1.180403709411621, 1.6126676797866821, 0.02114272490143776, -1.790873646736145, -0.10565722733736038, -1.9704482555389404, 0.5674791932106018, -0.4902260899543762, -1.3957438468933105, -1.4255284070968628, 1.0250550508499146, 0.8503349423408508, -1.188400387763977, -1.1052998304367065, 0.36862513422966003, 0.6913548707962036, 0.1509590595960617, 0.5115587115287781, 2.704041004180908, -2.190962553024292, -0.37744683027267456, 0.29231855273246765, -0.4709404408931732, 1.6916568279266357, 1.305854082107544, -1.5311808586120605, -1.5561116933822632, 0.27284830808639526, 1.6662497520446777, 0.6571325659751892, 0.7119179368019104, 0.5336935520172119, -0.44877946376800537, -0.17157213389873505, 0.9930140972137451, 0.023052498698234558, 0.016531825065612793, 1.1799978017807007, 0.8583132028579712, -1.8196372985839844, 0.9839990735054016, -0.6047036051750183, 1.5921169519424438, 1.1787300109863281], [1.3713284730911255, 2.4376111030578613, -0.2686878442764282, -0.18632598221302032, -1.5665539503097534, -0.46227023005485535, 1.021085262298584, 0.03246394172310829, 0.7598710656166077, 0.1597500592470169, 1.3837966918945312, -0.885699450969696, -1.2553211450576782, -0.8098510503768921, 0.24895459413528442, -2.1549153327941895, 0.9322599768638611, -0.2990468740463257, 0.6720196604728699, -1.4728107452392578, 0.10317022353410721, -2.6254961490631104, -0.07091409713029861, -1.596112608909607, 1.7605719566345215, 0.1659611165523529, 0.21340464055538177, -0.02591666579246521, 0.42048221826553345, 0.17630808055400848, 0.9533447027206421, -0.10641974210739136, 1.0898123979568481, 1.2551445960998535, 0.8910528421401978, -0.6918858885765076, 1.3447951078414917, 0.4104512929916382, 1.4503755569458008, 0.2944033443927765, -0.9048147797584534, -2.508350133895874, 1.5245885848999023, -0.5073733925819397, 0.20885434746742249, 1.7999674081802368, 2.190164089202881, 0.5768944621086121], [2.922994613647461, -0.667454719543457, -0.526046097278595, -1.1044516563415527, -2.832770824432373, 2.4574227333068848, -0.390810489654541, -0.4588305652141571, -1.7845097780227661, -2.0517942905426025, 1.7535487413406372, 0.7066448330879211, -0.49544817209243774, -0.5621719360351562, -0.9083313941955566, -1.1136882305145264, 1.4359897375106812, -0.214680477976799, -0.39236295223236084, -2.458265781402588, -0.21685093641281128, 1.4992003440856934, -0.8058094382286072, -0.6973176002502441, 1.1920859813690186, 0.9939038753509521, 1.3833677768707275, -0.5400935411453247, -0.6103795170783997, -0.8919556140899658, 1.9475988149642944, -1.1633988618850708, -1.7379345893859863, 1.063259482383728, -1.3152097463607788, -3.0360381603240967, -0.8984375, -0.30385899543762207, -1.2689405679702759, -2.5245776176452637, -1.8044872283935547, -0.18735447525978088, -1.579687237739563, -0.43298912048339844, -1.0024526119232178, 1.7108585834503174, 0.7207071185112, 0.5862312912940979], [0.9048170447349548, 0.15083014965057373, 0.6237121224403381, 0.8427528738975525, 1.7912476062774658, 1.3677916526794434, -1.5668047666549683, -1.5696513652801514, 1.6511354446411133, 0.20542511343955994, -0.5463464856147766, 2.239490032196045, 0.6865639686584473, 1.4019567966461182, 1.939941644668579, -1.2756891250610352, 0.04718506336212158, 1.275752305984497, -2.3440680503845215, -1.0360594987869263, 0.002782689407467842, -0.3587544858455658, -0.17994564771652222, 1.3222732543945312, 0.7371699810028076, 0.7432291507720947, -0.40215685963630676, -0.7142239212989807, -0.7773335576057434, -1.1400784254074097, -1.2020617723464966, 0.7125481963157654, 1.6544654369354248, 0.3514421284198761, -2.6775898933410645, -0.9253087043762207, -3.412264108657837, 1.135567545890808, 1.1492401361465454, 0.264982134103775, -2.732445001602173, -1.0786254405975342, -1.3319419622421265, -0.4235766530036926, 0.005768220871686935, 0.12988987565040588, -1.866775631904602, 0.1056409627199173], [-0.7498976588249207, 0.22862055897712708, 0.09832239896059036, -1.3834465742111206, 0.3051867187023163, -1.691441535949707, -0.36153456568717957, -0.4881412982940674, 1.6366840600967407, 0.5897789001464844, 0.5984804630279541, -1.704455852508545, -3.3109593391418457, -2.4354867935180664, -0.4617021083831787, -1.7314391136169434, -0.23452851176261902, -0.9579100608825684, 2.290395736694336, -1.048071265220642, 0.00899425894021988, -0.37301719188690186, 0.4740292727947235, -3.483137369155884, -0.02805042266845703, -0.9434788227081299, -2.144177198410034, -0.6325229406356812, 0.208481103181839, 2.1576969623565674, 0.8338077068328857, 0.46377140283584595, -1.9492835998535156, -0.8838855624198914, 1.352072834968567, -0.3726269006729126, 0.9782311320304871, 0.6535884141921997, 1.735305666923523, 1.2117575407028198, -0.016980841755867004, -0.12035874277353287, 0.05532262101769447, -2.3633084297180176, 0.9279618263244629, 0.10564868897199631, -1.173580288887024, 0.029524756595492363], [1.699846625328064, 1.2447794675827026, 1.4323078393936157, 0.3415890634059906, 0.45919838547706604, 2.1774325370788574, -0.3890548050403595, 0.014851778745651245, -0.9244227409362793, 0.9079498052597046, -0.34684038162231445, -1.4770927429199219, -0.9485479593276978, 0.5317831039428711, -1.2541990280151367, 3.406419277191162, 0.8677967190742493, -1.6762865781784058, 0.5783458948135376, 0.6059820652008057, -0.8765028715133667, -0.45976459980010986, -0.9219699501991272, 1.3412187099456787, -0.6088725328445435, 0.39194172620773315, 0.3665113151073456, 0.8693109750747681, -0.5172745585441589, -2.4644110202789307, -1.107702374458313, 2.095357894897461, -0.20278948545455933, 0.10160794109106064, -1.6005339622497559, -0.8366606831550598, 1.035353183746338, 0.052284128963947296, -1.1492098569869995, -0.18827947974205017, 0.47505128383636475, -0.35762616991996765, -1.7501466274261475, 0.6957670450210571, 0.3437531888484955, 0.0626087412238121, 2.917132616043091, 0.1984483003616333], [2.34965181350708, -1.1516039371490479, -1.0852129459381104, 1.1017111539840698, -0.7449470162391663, -0.7141261100769043, -1.457597255706787, -1.721205472946167, -0.6150303483009338, 0.47180265188217163, 0.9644748568534851, 0.8380110263824463, -0.5360296368598938, -2.28592586517334, 1.1816892623901367, -1.2795767784118652, -2.2015390396118164, -0.9924744963645935, -1.6058454513549805, 0.5499946475028992, 0.5975301861763, -0.5178093314170837, 0.7128421068191528, -0.27806082367897034, -0.6578760743141174, -0.11078128218650818, -1.9803813695907593, -1.625138521194458, 0.09381300956010818, -0.04189117252826691, -0.10178518295288086, 0.05731052905321121, 1.8944085836410522, 2.0811169147491455, 0.4168362021446228, 0.3422182500362396, -1.277899146080017, 2.062061071395874, -0.3189097046852112, 0.5814091563224792, -1.4387681484222412, 1.8426728248596191, -2.641305923461914, 0.8542504906654358, -1.368192195892334, 0.39323872327804565, 2.699286460876465, -0.6226564049720764], [0.5089591145515442, 0.06920606642961502, 0.09105677157640457, 1.1496939659118652, 0.8707324266433716, 1.1960383653640747, -0.22388975322246552, -0.6462395787239075, -3.062070846557617, -0.29475778341293335, 0.32256391644477844, -0.5279312133789062, -0.6236108541488647, -1.8639534711837769, -0.9410041570663452, 0.1375804841518402, -0.9824515581130981, 0.695861279964447, 0.1498822718858719, -0.508952260017395, -1.0021088123321533, 2.0064046382904053, 0.6345196962356567, -0.6269639730453491, 0.9373290538787842, -0.0365813747048378, -1.5850534439086914, -0.2834271490573883, 1.3315908908843994, -0.4815373718738556, -0.49773091077804565, -2.1384239196777344, -1.038267731666565, 1.493686556816101, -1.9101591110229492, -1.323556900024414, 1.3857156038284302, 0.5060596466064453, -1.1264688968658447, 2.760769844055176, -0.12854117155075073, -0.42855745553970337, 1.0812790393829346, -1.0257023572921753, -0.8212453126907349, 0.46424874663352966, 1.8831086158752441, -0.9085442423820496], [-0.2657996714115143, -1.1221739053726196, -0.2522345781326294, -1.099358320236206, 1.3533406257629395, 2.408414363861084, -1.1266496181488037, -0.753454327583313, -1.0461130142211914, 0.6103938221931458, 1.6451817750930786, -0.6984325647354126, 1.6398754119873047, 0.554218053817749, -1.7476392984390259, 0.39111560583114624, 1.6121485233306885, -2.218175172805786, -0.28877419233322144, -0.06751024723052979, 1.4602562189102173, 1.6290675401687622, 0.31164097785949707, -1.3362354040145874, -1.0958340167999268, -0.2032502293586731, 1.868477463722229, 0.9833184480667114, -0.3689350187778473, -0.7784725427627563, -1.152512550354004, -0.9035161137580872, 1.5433499813079834, 1.1311572790145874, 0.5285851359367371, 0.9476721286773682, -1.170613408088684, 1.541151762008667, 0.8197658061981201, 0.42146486043930054, -0.6708194017410278, 0.29532068967819214, 0.8422611355781555, 0.019595302641391754, 2.5014073848724365, 0.6817996501922607, 1.456323266029358, -3.393887996673584], [-0.7985206246376038, 1.072358250617981, 0.6473544836044312, -0.46382609009742737, -0.1538223922252655, -0.3394422233104706, -0.05784597247838974, 0.47206252813339233, 0.03863738477230072, 0.5760161280632019, -0.4097866117954254, -1.2888894081115723, -2.5399889945983887, 1.225446343421936, 1.8892602920532227, -1.6349130868911743, 0.6323621869087219, -1.361188292503357, -2.8943300247192383, 0.8787342309951782, -0.42929255962371826, 0.3455110788345337, 1.0297706127166748, -0.17549127340316772, -0.3638334572315216, 1.2482340335845947, 1.4782931804656982, 2.856779098510742, 0.63111412525177, -0.9336764812469482, -1.4521055221557617, 2.2014505863189697, 0.7363982200622559, -1.4460821151733398, -0.7334120869636536, -1.1877524852752686, -1.773911714553833, 0.9481929540634155, 2.844278573989868, 1.0587009191513062, -2.202488422393799, 0.8923115730285645, 1.0637935400009155, -1.0878504514694214, 1.9438430070877075, 0.6708789467811584, -0.33131125569343567, 1.4710136651992798], [-0.901035726070404, 0.5270665884017944, 2.080963373184204, 0.4054848551750183, 0.17722676694393158, 3.6272780895233154, 0.2731252908706665, 0.8182590007781982, -0.45283323526382446, -0.6477540135383606, -1.2071701288223267, -0.29051128029823303, 0.6049262285232544, 0.4644373655319214, 1.5113112926483154, -1.7115525007247925, -0.8801411986351013, 0.35640662908554077, 0.1847882717847824, -1.2649013996124268, -2.0849945545196533, 1.0471876859664917, 0.7451790571212769, -0.7832084894180298, -0.5592594146728516, -1.2091896533966064, 0.2596379518508911, 1.3107330799102783, -0.44597578048706055, -0.9500309824943542, -0.02022382989525795, -1.8672736883163452, 2.6950480937957764, -2.5191292762756348, 1.770759105682373, 0.30988961458206177, -0.49293509125709534, 0.31514832377433777, -0.023053742945194244, 2.0509390830993652, -1.1128106117248535, 0.31583869457244873, 1.0376319885253906, 0.0687994584441185, -0.7614463567733765, 0.19817385077476501, 1.687069058418274, 1.6383405923843384], [-0.2216813862323761, -0.6791819930076599, -0.6674131155014038, 1.4014512300491333, -1.1856439113616943, 1.9119470119476318, -0.4940076470375061, 0.7272180318832397, -4.506260871887207, -0.3833226263523102, 2.4142704010009766, -1.269688367843628, -1.8865236043930054, -0.4659300446510315, -1.7255325317382812, -1.334513783454895, -1.2045482397079468, -0.08379028737545013, -1.8486669063568115, -1.894066572189331, 0.5809050798416138, 0.3138604164123535, 0.022027507424354553, 1.7767033576965332, -0.8941443562507629, 0.6260033845901489, -1.197148084640503, 0.7133082747459412, 0.44711917638778687, 0.7780805826187134, 0.6982866525650024, 2.7335305213928223, 1.3814294338226318, 0.3076489567756653, -0.3731937110424042, 0.6639282703399658, 0.7688596844673157, 1.638118863105774, 2.857238531112671, 0.8578461408615112, 0.8659082651138306, -1.3768117427825928, 0.024028915911912918, -0.11975057423114777, 0.5785481333732605, -0.2836254835128784, 0.7333500981330872, -2.309952974319458], [1.1157206296920776, 0.9137464165687561, 0.9850481152534485, 0.0404387041926384, 1.1829432249069214, -2.92588472366333, 0.9530407190322876, 0.0006268024444580078, -1.7129437923431396, 0.9938296675682068, 3.2323906421661377, -0.19354623556137085, 2.25931978225708, -0.7125701904296875, 2.649533748626709, 0.6620826125144958, 1.032701015472412, -0.5629333853721619, -0.9387599229812622, -0.46476301550865173, 1.013628363609314, 1.2202829122543335, 1.3294466733932495, 0.6888126134872437, -0.42328891158103943, 0.9009955525398254, 2.4334917068481445, -1.2109178304672241, 0.12733520567417145, -0.14013686776161194, 0.1195671334862709, 0.31489619612693787, -1.477535367012024, -0.30899298191070557, -1.417291522026062, -1.1047214269638062, -0.6741265654563904, 0.8969551920890808, -0.7573425769805908, -0.8152707815170288, -1.3509602546691895, -0.2086326777935028, 1.699446201324463, -1.2990107536315918, 0.6417984366416931, 1.5115910768508911, -0.43094590306282043, -1.4249311685562134], [0.8344252109527588, 0.17002972960472107, 0.28564032912254333, -1.3918347358703613, -0.9397999048233032, -0.9231939911842346, -0.06287999451160431, -1.0752930641174316, -0.6849828958511353, 0.8205865621566772, 0.26890993118286133, 1.8069326877593994, 1.021068811416626, -0.49309083819389343, -0.6922610402107239, 1.1738200187683105, -1.6978919506072998, -2.82479190826416, 0.03400155156850815, 0.3247530162334442, -0.2872236669063568, 0.16309261322021484, 2.874084234237671, 1.2444162368774414, 1.2097398042678833, 1.7707242965698242, 2.8830649852752686, -0.8778972029685974, 0.7551669478416443, 1.1547693014144897, -2.4752206802368164, -1.8556146621704102, 0.01208985410630703, 0.05949578434228897, -0.6947515606880188, -0.6545273065567017, -1.0350457429885864, -0.7849140167236328, 0.07407651841640472, -1.3712687492370605, -1.517316222190857, 0.9715660810470581, 1.026012659072876, 0.45814719796180725, 2.2878053188323975, 0.882676362991333, 2.4280037879943848, 0.5273738503456116], [0.22708764672279358, 0.439037024974823, 0.3101936876773834, 0.674921452999115, -0.8114667534828186, -0.8037126660346985, -2.8203296661376953, 0.409553200006485, -1.2806729078292847, 0.3611091375350952, 0.786888837814331, -0.14762480556964874, -0.5790808796882629, -0.00756271556019783, -1.295669674873352, 0.14877837896347046, 2.102354049682617, 1.1244463920593262, -0.3528153896331787, 0.15935657918453217, 0.22095277905464172, 1.8537981510162354, -0.39992907643318176, -0.18727326393127441, -0.7846120595932007, 0.5161904096603394, -0.7950845956802368, 0.9797279834747314, 2.3200042247772217, -0.15729090571403503, -0.12098704278469086, -0.04871863126754761, -0.8285348415374756, 1.9147332906723022, -2.3171494007110596, -0.273249089717865, -1.9341267347335815, -1.4188802242279053, -0.86276775598526, -0.8518890142440796, 1.5076017379760742, -2.6609301567077637, -0.07102055847644806, -0.8571536540985107, 1.1002893447875977, 0.054502472281455994, 2.1906814575195312, -0.40744706988334656], [0.9131552577018738, 1.5648763179779053, 1.4961440563201904, -0.3247565031051636, 1.2604042291641235, -0.8032711148262024, -0.5407688617706299, -1.3048826456069946, -2.8524911403656006, 0.25763797760009766, 0.9389200806617737, -0.6117836236953735, -0.2908002734184265, 1.42946195602417, -0.6875205039978027, 0.6847328543663025, -1.287376880645752, -1.3625863790512085, -0.07807721942663193, -0.22021830081939697, 0.35531219840049744, 0.033168770372867584, 1.2369745969772339, -0.7123269438743591, 0.7385589480400085, 0.5679298639297485, 0.14575506746768951, 0.26848769187927246, -0.126439169049263, -0.3223287761211395, 0.8015612959861755, 1.385581374168396, -0.1537245810031891, 0.5246837139129639, 0.18853695690631866, -0.5148958563804626, 0.900306761264801, -0.48654061555862427, -0.6734650135040283, 1.1029932498931885, 0.22193476557731628, -0.3632066547870636, -0.7544971704483032, -0.10035961866378784, 1.867226243019104, 1.8049099445343018, -0.2344520390033722, -0.309012234210968], [-0.6989256143569946, 0.11215204000473022, 0.38072484731674194, -0.18955278396606445, 1.6362677812576294, 1.5302118062973022, 0.8596922755241394, -1.8075801134109497, -0.476002037525177, -1.1859283447265625, -0.047296613454818726, -0.3741292655467987, -1.0971078872680664, -1.419581413269043, 0.27311065793037415, -0.3835204839706421, -0.7661858201026917, -0.14108194410800934, -2.130143880844116, 1.1623831987380981, -0.2593245804309845, 1.832076072692871, -0.9077783823013306, -0.2934766113758087, -0.11380114406347275, -1.3377858400344849, -0.5149194598197937, -0.08820584416389465, 0.8818091750144958, 1.402160882949829, -0.9869021773338318, 1.9273792505264282, -0.6891298890113831, 0.6666105389595032, -0.6759756803512573, -1.311002492904663, 0.44245728850364685, -1.1232836246490479, -1.3441412448883057, -1.3357105255126953, 0.6457961797714233, -1.4843368530273438, 0.9569393396377563, -3.5753517150878906, 1.4959412813186646, 1.737953543663025, 1.681180477142334, 0.7851004004478455], [0.9019295573234558, 0.9449173212051392, -0.9471460580825806, 0.8304765820503235, -1.0623120069503784, -1.4241844415664673, -0.13477613031864166, -0.32109901309013367, 1.7106268405914307, -0.41243797540664673, -1.135346531867981, -1.579392910003662, 0.5697548985481262, 0.05383677035570145, -0.6267498731613159, -1.5778157711029053, 1.7054535150527954, 1.5433859825134277, -0.7492914795875549, 0.7799535393714905, 0.5077186822891235, 0.08457624167203903, -0.9278447031974792, 3.2826004028320312, -0.3506501019001007, -0.12704437971115112, -0.5655339956283569, 0.02625860832631588, 2.625899076461792, -0.772949755191803, -0.10130216926336288, -1.3839738368988037, -0.26491779088974, -0.20852728188037872, -0.4666139483451843, 0.38467514514923096, 0.07380625605583191, -0.48919975757598877, 0.9110146164894104, 0.3462401330471039, 0.026446038857102394, 2.0299243927001953, -1.204728603363037, -0.47777849435806274, 0.918499767780304, 1.3086214065551758, -0.4657398760318756, -0.2950623631477356], [1.2943097352981567, -2.0999419689178467, -0.19518645107746124, 1.1101963520050049, -2.2004218101501465, -1.340425968170166, 0.16860739886760712, -1.6352369785308838, -1.4502553939819336, -0.039964720606803894, 0.11810988932847977, 0.8089405298233032, -2.5617473125457764, -0.3042418360710144, -1.260291337966919, 1.2013856172561646, -0.038986802101135254, -1.0998342037200928, -1.044606328010559, -1.533660888671875, -0.9415583610534668, 0.7774903774261475, -0.4424740672111511, -0.8858175277709961, -1.5359992980957031, -0.6457323431968689, -1.4011552333831787, -1.8071300983428955, -1.3128554821014404, -1.3271195888519287, -0.7432513236999512, -0.24280327558517456, 2.1913414001464844, 0.23762255907058716, -1.8317292928695679, 1.2667640447616577, -1.0659465789794922, -0.7129379510879517, -0.0072670625522732735, -0.3934205174446106, 0.4305895268917084, -0.8760647773742676, 0.21628791093826294, -0.8799291849136353, -0.9107258915901184, -0.8975783586502075, 0.9578941464424133, 2.645679235458374], [0.3530147075653076, -1.6107416152954102, 0.25340187549591064, -0.5466182231903076, -1.6741118431091309, 0.2960435748100281, -1.5628694295883179, -1.5148916244506836, 2.560209035873413, -0.963779091835022, -0.7007856369018555, 0.459695041179657, -0.9886472821235657, -1.714066505432129, -0.6503207087516785, -1.7855794429779053, 0.08128230273723602, -1.7714368104934692, -0.9900791049003601, -1.354184627532959, 0.4922681450843811, 1.6161174774169922, -1.3998852968215942, 0.6556707620620728, 0.7940698266029358, 2.0534822940826416, 0.6512380838394165, -2.7703092098236084, -1.7691363096237183, 0.40507906675338745, -0.019404098391532898, 0.38072991371154785, -1.9929906129837036, 0.7828144431114197, -1.0772593021392822, 0.29112187027931213, 1.6286625862121582, 1.8518903255462646, 2.0987226963043213, 0.4595738351345062, -1.6989891529083252, 1.6555145978927612, 2.2373406887054443, -0.3094688355922699, -2.758519172668457, 0.637057900428772, -0.9116463661193848, -0.2926011085510254], [0.160965695977211, 1.5434638261795044, -2.018923044204712, -1.7172588109970093, -0.3539937138557434, -0.09141562879085541, 1.812599539756775, 0.34782081842422485, -2.1716551780700684, -0.5122888088226318, 1.478118896484375, 0.19870223104953766, 1.6899893283843994, 0.039279431104660034, 0.4959304630756378, 0.9579358696937561, -0.08765009790658951, -0.8471567630767822, 0.7100715637207031, 0.34601113200187683, -0.5678921937942505, -1.6346828937530518, 0.9282419681549072, -0.6938421726226807, -1.1988787651062012, 0.5239367485046387, 0.07353420555591583, 0.10522516071796417, -0.9079734086990356, -0.24608208239078522, -1.709112524986267, -0.24140389263629913, 0.8674944043159485, 0.3548003137111664, -1.6572022438049316, 2.4716014862060547, -1.2484052181243896, 1.4395971298217773, -0.10746926814317703, -2.3882625102996826, -2.5204296112060547, 1.1151973009109497, -0.3828887343406677, -1.901733160018921, 1.2425262928009033, 0.1634289175271988, -0.6732731461524963, -1.2430955171585083], [-0.7329657673835754, -0.4782246947288513, 0.6143071055412292, -1.9782203435897827, -1.2716233730316162, -0.1792915016412735, 1.3818916082382202, -0.22268132865428925, 0.4663519859313965, -1.3068177700042725, -0.7995526194572449, -0.11360692232847214, 1.573513150215149, -1.0293610095977783, 0.5562229752540588, -0.5139675140380859, 1.5046663284301758, 1.009033441543579, -0.30891117453575134, -1.0114169120788574, -0.4676268696784973, -0.775235116481781, 1.5728784799575806, 0.7002297639846802, -0.8472977876663208, -1.8339253664016724, 0.19716450572013855, -0.5672544836997986, -1.1468775272369385, 0.2389291226863861, 0.07863038033246994, 0.5767160058021545, -0.6596465110778809, 1.7023576498031616, 1.230515956878662, -1.4997482299804688, 1.0573670864105225, -0.7950098514556885, -0.3498029112815857, 0.8623595833778381, 0.3387463688850403, -0.5829033255577087, -0.5534511208534241, -0.24809041619300842, -2.0329251289367676, -0.433388352394104, 1.6043094396591187, -0.39474010467529297], [-1.9284565448760986, 1.3042844533920288, -1.6162341833114624, 0.1812497079372406, 0.9831234812736511, -0.18901385366916656, 0.04582544416189194, -1.963208794593811, 1.575697422027588, 1.5235599279403687, 1.1109570264816284, 2.988729476928711, 0.6045323014259338, 0.30947068333625793, 0.08829790353775024, 0.484499990940094, -1.0396844148635864, -0.6536495685577393, -0.3329787850379944, 1.1898093223571777, -0.9012646079063416, -0.7988095283508301, -0.28434696793556213, 0.777117908000946, 0.41114968061447144, -0.2811345160007477, -1.6432521343231201, -1.8636181354522705, -0.1573149710893631, -0.011186640709638596, 1.5351895093917847, -1.4341528415679932, 0.932792603969574, -1.072835087776184, 1.5993748903274536, -0.6016680002212524, -2.3774542808532715, -0.6634780764579773, -2.152751922607422, 0.6450536251068115, -1.3599364757537842, -0.9524540901184082, -0.5049256682395935, -0.12629449367523193, -1.7851048707962036, 0.10388528555631638, 0.7203798294067383, -1.115789771080017], [1.3809561729431152, -2.863374710083008, 0.15998360514640808, -0.7384306788444519, 2.8090217113494873, -0.2515143156051636, -0.794366717338562, 0.9335587620735168, -1.3237141370773315, 2.011887311935425, -0.01942422240972519, -0.3729558289051056, 1.1444220542907715, 0.05528886988759041, 0.5886892080307007, 2.0988776683807373, 0.9405163526535034, 0.13368846476078033, 1.9423006772994995, -1.825630784034729, 0.16869071125984192, 2.527785539627075, -0.9775993824005127, -1.196553111076355, 1.2179944515228271, 2.1580870151519775, -1.2027430534362793, 0.3076950013637543, -0.5969825387001038, 0.9264508485794067, 1.434413194656372, 0.3047063946723938, 0.5713068246841431, -0.3496280312538147, -1.3350743055343628, 1.4371256828308105, 1.5476458072662354, -0.0025924667716026306, 2.4119951725006104, -0.7669544219970703, -0.6422260999679565, -0.661088764667511, -1.3481478691101074, 1.8061529397964478, 2.353116750717163, -0.3313145041465759, -2.1147279739379883, 2.1764161586761475], [1.3424276113510132, 0.1550472378730774, -1.145383596420288, -0.48700574040412903, 0.25239741802215576, -0.22578904032707214, 0.10413683205842972, 0.054449211806058884, 0.8880848288536072, -0.018406659364700317, -1.1327002048492432, 1.1287819147109985, -0.999765932559967, 1.7459720373153687, 0.20407496392726898, 0.22977900505065918, 0.5508713722229004, 1.0967754125595093, 2.1850533485412598, -1.0112626552581787, -2.708250045776367, 0.3913537859916687, 0.13934259116649628, -0.12287256866693497, -0.6547831296920776, -0.3445921540260315, 0.02958737500011921, 2.010355234146118, 0.8857895731925964, 0.13691188395023346, 1.039293885231018, 0.10585574805736542, 1.416717290878296, -0.2746416926383972, 0.5520673990249634, -0.3008157014846802, -1.0169382095336914, 0.3829304873943329, -0.28179052472114563, -0.8799152970314026, 3.1437926292419434, 0.18022115528583527, 0.7241283059120178, 0.843623161315918, -0.950032651424408, -1.2522910833358765, 0.19196288287639618, 0.3824983835220337], [1.1090459823608398, 0.42308369278907776, -2.1952567100524902, 0.13868236541748047, 0.336570143699646, -1.404054045677185, 0.5933530330657959, -0.8708654642105103, -1.490024447441101, 0.18529090285301208, -0.9869774580001831, 1.2627649307250977, 0.06548158824443817, -0.7364380359649658, 0.2346336543560028, -0.3716442286968231, -1.3994841575622559, -0.8029475212097168, -0.1400696486234665, 2.0813088417053223, 0.716452419757843, -0.8657702803611755, 1.357995867729187, 0.4132331609725952, -1.3327126502990723, 1.010502576828003, 1.8145369291305542, -1.0079693794250488, 2.019779920578003, 1.0877724885940552, -0.4197269678115845, 0.5878041386604309, 0.2689526677131653, 1.9551594257354736, 0.8723088502883911, -1.0018399953842163, 0.3544943630695343, -1.5077943801879883, -2.2129037380218506, 1.005126953125, 0.11741594970226288, -1.2803263664245605, -0.7781181335449219, -0.9783607721328735, 0.24630148708820343, 0.5871700644493103, 1.372672200202942, 0.3304143249988556], [-0.12227379530668259, -0.6961994171142578, -0.49341708421707153, 0.2708207964897156, 0.40923765301704407, 0.8126999139785767, 0.5860841274261475, -1.2117273807525635, 0.49673789739608765, 0.6521779298782349, -0.332759290933609, 0.9051969647407532, -0.5985367298126221, 1.709823727607727, 1.622760534286499, 0.24002736806869507, -0.611624002456665, 0.14718866348266602, 2.188380718231201, 0.3491106927394867, -0.46071285009384155, -1.598769187927246, 1.310736894607544, -1.4510581493377686, 0.5321221947669983, -0.6040560007095337, -0.5534735321998596, 1.3319122791290283, -1.62626051902771, 0.3929861783981323, -0.5022535920143127, 0.9767993092536926, 1.6652132272720337, -0.6035557985305786, -0.10094171017408371, 1.8741494417190552, 1.6868258714675903, -0.4619709849357605, 1.6554360389709473, 2.3418097496032715, -0.2611197829246521, -0.7371537685394287, 0.0291647519916296, 2.1422839164733887, -0.6841751933097839, -0.567359983921051, -0.1281263381242752, -0.3408688008785248], [2.3131020069122314, 0.5213483572006226, -1.2991236448287964, -1.7220145463943481, 0.46738022565841675, 0.487970232963562, -0.7816303968429565, -0.21204262971878052, -0.16538918018341064, -0.5546995997428894, -2.349067211151123, -0.7225995063781738, -0.6128387451171875, 0.49711406230926514, -0.1670721471309662, -0.4981033205986023, 0.3743401765823364, 0.57387375831604, -1.0239696502685547, 0.8738333582878113, -1.4677836894989014, 1.567044734954834, 1.0090899467468262, 0.05132106691598892, -1.1864407062530518, 0.015360232442617416, 1.079203724861145, -2.1047229766845703, 0.14412377774715424, -0.9479987621307373, -1.4086023569107056, 0.755220890045166, -0.2687157988548279, -1.3776640892028809, -0.033390775322914124, -1.2535229921340942, 0.42857426404953003, -0.5498124957084656, 0.21632322669029236, -0.7364906072616577, -0.6436493992805481, 1.249748706817627, -0.03373453766107559, -0.6100285649299622, 0.14611060917377472, 0.5655394792556763, 1.621226191520691, 0.519308865070343], [1.6180387735366821, 1.6017147302627563, 1.0179789066314697, -1.6939631700515747, 1.4081759452819824, 0.298409640789032, -0.035370200872421265, -0.6858837604522705, -0.863612949848175, -0.05588709935545921, -1.2939039468765259, 2.474701166152954, -1.6480655670166016, 1.466268539428711, -0.9053838849067688, -2.0615546703338623, 0.2678012549877167, -1.3377735614776611, 0.7224264144897461, 0.7208006381988525, -2.022566795349121, -1.8154062032699585, -0.6893178224563599, 0.25489282608032227, -2.020909547805786, -0.9051038026809692, -1.5517586469650269, -0.8929712772369385, -0.574054479598999, 0.12992943823337555, -0.37130334973335266, -2.1733875274658203, -0.10108757764101028, 1.6227226257324219, -2.7120213508605957, -1.2943965196609497, -0.126238152384758, -0.7197302579879761, -0.1561318337917328, 1.219955325126648, -0.38316214084625244, 0.2531188428401947, 1.524720549583435, 0.3366439938545227, -0.3786677122116089, -0.05912638455629349, -1.9521373510360718, -1.7169082164764404], [0.5959163904190063, 1.4634275436401367, 