{"0.weight": [[-1.8818798065185547, -2.5131444931030273, -0.3725084364414215, 2.876417875289917, 1.0710633993148804, -0.41264432668685913, 1.9648138284683228, -3.627828598022461, 1.9249138832092285, 0.46874362230300903, 0.8169713020324707, 2.7857508659362793, -0.5799074172973633, -1.9528582096099854, 1.5072216987609863, 0.8264602422714233, 1.9475680589675903, 0.4263923168182373, 1.9213966131210327, -2.0586183071136475, -0.6455270051956177, -4.620179176330566, -2.5223617553710938, -0.17731189727783203, -3.380103826522827, -4.809385776519775, -1.9892675876617432, -1.319223403930664, 2.6663665771484375, 1.3984568119049072, -3.556630849838257, -0.9889950156211853, 2.9704220294952393, 3.7862679958343506, 2.056648015975952, -2.9106736183166504, -3.3742918968200684, 4.676755905151367, 1.829795479774475, 1.611682415008545, -3.3086166381835938, 1.670733094215393, -4.1517653465271, -0.7507506012916565, -0.6501123309135437, -3.7893357276916504, -0.7281764149665833, 0.3976309299468994], [0.421505331993103, 0.6595163941383362, -0.9192534685134888, -0.10834649205207825, 0.017625078558921814, 3.1157784461975098, 0.3046191930770874, 2.094357490539551, -0.7330771684646606, 0.04731004312634468, -4.219602108001709, -2.59688138961792, 1.4461103677749634, 3.0395374298095703, -0.3305625319480896, 2.761786937713623, -1.9523649215698242, 2.621408700942993, -1.9466499090194702, -0.039926186203956604, -1.3684889078140259, -1.4549180269241333, 3.150007486343384, 2.8471598625183105, 0.3604544699192047, -0.7601373195648193, 1.65348219871521, 2.095140218734741, 2.010967493057251, 5.5005974769592285, -2.4052090644836426, 1.1241689920425415, 3.8674697875976562, -3.4117815494537354, 2.9163618087768555, 3.1797032356262207, -3.267244338989258, 2.247626781463623, -2.008876323699951, -0.9302713871002197, -1.8975164890289307, -1.0268474817276, 1.4451080560684204, 1.7733527421951294, -2.101207971572876, -0.5007940530776978, -3.192946195602417, -2.601893901824951], [-1.722818374633789, 3.5361955165863037, -0.12021657079458237, 3.3764028549194336, -4.2061967849731445, 0.23120340704917908, -0.16031689941883087, -0.9336397647857666, 2.4807145595550537, -1.0109227895736694, -1.6737663745880127, -2.877168893814087, -0.6871885657310486, 2.7911789417266846, 1.4302952289581299, 0.9186549186706543, 4.004509449005127, -3.642681837081909, 1.1149975061416626, -2.7113196849823, 1.2241086959838867, -5.336983680725098, -0.6760616898536682, -1.479691505432129, 0.6910914778709412, -1.4786186218261719, 4.930799961090088, -2.4066569805145264, -0.5458727478981018, 1.190906047821045, 3.9075725078582764, -4.786707878112793, -0.6924542784690857, -2.478816509246826, -0.14519013464450836, -2.734083890914917, -0.9002094268798828, -6.221789360046387, -0.6099919080734253, -5.66261625289917, -2.012967109680176, 5.906178951263428, 0.7528421878814697, -0.6544872522354126, 5.835660934448242, 3.7936644554138184, 0.6581704616546631, 1.3153349161148071], [1.5235141515731812, -4.170278549194336, 0.4483068585395813, -0.8179503083229065, -2.3317980766296387, 0.14813721179962158, -2.9920830726623535, 3.0602149963378906, 1.3984322547912598, -3.871405839920044, 3.3036465644836426, -0.4948770999908447, -2.4218199253082275, 1.0319926738739014, 1.313137173652649, -1.881240963935852, 3.0416388511657715, -0.40289390087127686, 0.36745208501815796, -0.751672625541687, -0.8428745269775391, -2.3733696937561035, 3.3550405502319336, -2.253164529800415, 2.3206982612609863, -1.3755857944488525, 0.06653629243373871, 1.301865816116333, -4.253535270690918, -4.245601177215576, 0.798447847366333, 0.5904529690742493, -0.5590261220932007, -2.444676160812378, -1.5925012826919556, 0.34278276562690735, 0.003215305507183075, 2.2286763191223145, 2.6645634174346924, -1.5539450645446777, 0.5171427130699158, 1.230467438697815, 2.5266470909118652, -1.1878228187561035, 1.3895213603973389, 1.5674757957458496, 3.7727630138397217, -3.217299222946167], [-1.6453722715377808, -0.5070503950119019, 1.0613133907318115, -2.022789239883423, 1.0551584959030151, -0.39363592863082886, -0.3804493546485901, -3.0668938159942627, 4.871758460998535, 0.8950849771499634, -4.022918701171875, -2.2374277114868164, 2.110891342163086, -2.687455415725708, -1.6297444105148315, -3.631047010421753, 4.870780944824219, 0.9935564994812012, 4.700807094573975, -1.9152708053588867, -4.753528594970703, -3.01298189163208, -1.7371844053268433, -1.2799969911575317, -6.2575812339782715, -5.728321075439453, 3.089491844177246, -4.884739875793457, 2.9091880321502686, 0.31634294986724854, 0.9056261777877808, -3.350338935852051, -2.943053722381592, -4.767182350158691, 3.956382989883423, 0.5534220933914185, 0.1586078405380249, -4.995477676391602, -2.526540994644165, -3.473634958267212, -2.3692476749420166, 5.004980087280273, -0.1564822942018509, -4.330878257751465, 0.9125910997390747, 0.20449155569076538, 0.6298131346702576, 0.15631623566150665], [1.4602787494659424, -1.549438714981079, -2.703648328781128, -2.405452251434326, -2.6536076068878174, -1.6683993339538574, -2.7462081909179688, 1.317348599433899, -0.26697856187820435, 1.93324613571167, 1.3889009952545166, 1.6655133962631226, 1.307873010635376, 3.00632905960083, 0.0009411647915840149, 1.2714154720306396, 2.837862968444824, -2.0234737396240234, 1.7161012887954712, 0.6086279153823853, 2.709162950515747, 1.0122506618499756, 1.4388068914413452, -2.1540908813476562, 0.6623906493186951, -1.3363540172576904, 1.4706906080245972, -2.187464952468872, -2.3465447425842285, -0.6641097664833069, 0.6953979134559631, -4.273120403289795, 2.3601632118225098, -0.7502641677856445, -0.6619647741317749, -1.6819751262664795, 0.40580615401268005, -0.45449545979499817, -0.8838008642196655, 0.05614108592271805, 2.720818519592285, 0.4980805814266205, -1.8971666097640991, -2.0697247982025146, -3.1970179080963135, 3.0234549045562744, 0.15130910277366638, -0.7013342976570129], [-2.54280161857605, -2.5954670906066895, 5.418737888336182, -1.6700685024261475, -1.0352884531021118, 1.583524465560913, 1.0763897895812988, -4.891077995300293, 2.4575459957122803, -0.9832311868667603, 0.5073100328445435, 1.2735686302185059, 1.3112750053405762, 2.642958402633667, -1.1532342433929443, -1.6808443069458008, -2.8765225410461426, 0.6114166378974915, -5.58272123336792, -4.2258806228637695, -4.162100315093994, -0.2587135136127472, 0.6639218330383301, 2.327409029006958, -3.730046510696411, -0.5146430730819702, 2.7594101428985596, 2.5795092582702637, -5.121236324310303, 3.3389341831207275, 1.843950867652893, 2.240432024002075, 2.903269052505493, 1.6224874258041382, 1.2114821672439575, 0.9745047688484192, -0.2610277533531189, -2.0618228912353516, 1.720037579536438, -0.8492910861968994, -1.244532823562622, 2.845484495162964, 4.138236999511719, 3.571990728378296, -4.661498069763184, 3.678169012069702, 1.356680154800415, -2.035205602645874], [-0.16939677298069, 4.2282490730285645, -0.729824960231781, 1.0549004077911377, 1.155810832977295, 3.9311742782592773, -2.152400255203247, -0.22656455636024475, -2.343552350997925, 0.1413271278142929, 1.0212465524673462, -0.6960473656654358, -2.970808744430542, -2.136748790740967, -1.1486587524414062, -1.9078493118286133, 0.39867305755615234, -0.48555105924606323, -2.750944137573242, 2.3085336685180664, -2.9921109676361084, 1.2954134941101074, -3.189650774002075, -3.655832290649414, 1.4925284385681152, -2.9383511543273926, -0.16583238542079926, 2.644765615463257, 2.4105865955352783, -1.158277988433838, -1.7205569744110107, -1.4258067607879639, 2.443821668624878, 1.5900201797485352, -0.41705116629600525, -1.1262096166610718, -5.402679443359375, -1.5942399501800537, 3.3123087882995605, -0.13684916496276855, -2.004607677459717, -1.758819818496704, -0.5788016319274902, 0.1712302714586258, -1.6458498239517212, -1.0270248651504517, -1.6382884979248047, 0.018074199557304382], [-0.9737381935119629, 2.372220754623413, -2.9447977542877197, 2.210259437561035, -1.6847193241119385, 1.5173285007476807, 2.883208751678467, -1.4422022104263306, -1.3564029932022095, 0.8748471736907959, 2.0408647060394287, -1.4054176807403564, -1.0924139022827148, -0.5570242404937744, -2.0644593238830566, -0.8430184125900269, -2.634998083114624, -1.032810926437378, 0.39081674814224243, -2.0945589542388916, -1.9826858043670654, 1.8602311611175537, 1.4403879642486572, 3.0948567390441895, -1.380629301071167, 1.8825304508209229, 2.9460628032684326, -3.938225507736206, 1.751102328300476, -1.902303695678711, -0.5704494118690491, -3.4397778511047363, -1.7264678478240967, 2.128817319869995, 1.5176225900650024, -4.538478851318359, 0.025170475244522095, -0.5531665086746216, -4.810427188873291, -6.770239353179932, -2.3220086097717285, -4.401847839355469, -0.8567349910736084, 1.6262234449386597, 1.6555423736572266, 3.7889368534088135, -0.02171562984585762, -0.1624029129743576], [-5.49144983291626, -3.796525001525879, 0.3004646897315979, 0.9441900849342346, -3.8519179821014404, -1.4909721612930298, 0.15695862472057343, 0.07144588977098465, 4.5990376472473145, 0.5482494831085205, -0.7528995275497437, -0.06091993302106857, -0.30243924260139465, 3.7058403491973877, -0.6910808682441711, 2.1161179542541504, -0.39392662048339844, 2.9293909072875977, 0.14563409984111786, 1.0872169733047485, -0.32633307576179504, -0.5899077653884888, -2.928849458694458, -0.6988305449485779, -0.8876771330833435, 0.2595328986644745, -2.3325350284576416, 0.842288076877594, -0.8627830743789673, 0.2970668077468872, 1.7534033060073853, 3.382869005203247, -0.05357546731829643, -2.189467430114746, -0.6328843832015991, -4.997971534729004, 1.719815731048584, 0.2850305736064911, -3.496392011642456, -4.320681095123291, 2.5464346408843994, -2.040311813354492, 2.321356773376465, 1.7282806634902954, -3.067084789276123, 0.10933597385883331, -4.2901611328125, 0.9298903942108154], [-1.615830421447754, -1.3470677137374878, 1.2928439378738403, -1.9931375980377197, -3.629422664642334, -2.677130699157715, -1.1492149829864502, -3.7456538677215576, 0.21763649582862854, -1.2551170587539673, 3.9995203018188477, -2.6876184940338135, 1.9271514415740967, 0.8421871662139893, -0.09201180189847946, -1.419257402420044, -1.7996937036514282, -1.129518985748291, -1.4536855220794678, -3.4939637184143066, 3.5871551036834717, -0.048713285475969315, 1.3807826042175293, -3.2437610626220703, -2.8748040199279785, -1.0946714878082275, -1.5289826393127441, 0.3629399538040161, -2.032064914703369, 0.8678624629974365, 1.8302043676376343, 0.3055758476257324, -0.5108810663223267, 2.9981322288513184, 2.5691308975219727, -0.8475328087806702, -2.2970869541168213, 0.63047194480896, 1.2866697311401367, -0.24897438287734985, 0.02728625014424324, 0.0740649551153183, -2.4732511043548584, -1.8306403160095215, 0.9408665299415588, -2.619267225265503, 3.320305824279785, 4.880241870880127], [0.024394795298576355, 1.1345635652542114, -0.352227121591568, -0.9488207101821899, 1.0836632251739502, -1.5152734518051147, 2.189373016357422, 1.2887524366378784, -2.0023584365844727, -3.3663182258605957, 1.6385220289230347, -1.7492647171020508, -3.781538724899292, -2.516524076461792, 0.2708769738674164, 0.7165138721466064, -0.5322142839431763, -3.028221368789673, 2.505173683166504, 0.6317901015281677, 0.6736887693405151, -3.3328354358673096, -2.7570016384124756, -2.2252275943756104, -5.248348712921143, -0.9628806114196777, -0.21302258968353271, 1.51678466796875, 3.649949789047241, 4.546281337738037, -0.44384053349494934, 4.33225679397583, 3.5302886962890625, -0.5013988018035889, -1.3584439754486084, 1.4289414882659912, -0.7559407353401184, 3.007622480392456, 0.13936059176921844, -1.7875285148620605, 5.262958526611328, -1.0968276262283325, 1.6594890356063843, -0.7271081805229187, -2.6336352825164795, -3.6336450576782227, -3.6536710262298584, 4.905555248260498], [-0.012544896453619003, -1.5779688358306885, 0.25337648391723633, 3.423964262008667, -2.9522922039031982, 3.283698081970215, -1.0155874490737915, 0.34276092052459717, -3.208240270614624, 1.5893526077270508, 2.6346919536590576, -0.7844640016555786, -2.4387943744659424, 2.5099802017211914, 5.8160080909729, -0.28916114568710327, 0.1674630045890808, -2.051426410675049, 0.541083574295044, 2.0868165493011475, -0.4867335259914398, 0.5515906810760498, -4.80592679977417, 1.1823389530181885, -3.2081384658813477, -2.109844923019409, -2.198202610015869, -1.443884015083313, -0.3122968077659607, -0.008112609386444092, 0.22176483273506165, -1.6500537395477295, -1.3140877485275269, -2.182189702987671, -1.4854612350463867, -2.225876569747925, 0.2973063886165619, 0.47195613384246826, -5.3108015060424805, 0.15014789998531342, 1.2483561038970947, 0.8732121586799622, -1.4215826988220215, -3.1748337745666504, 1.4688985347747803, 6.303307056427002, 1.423807144165039, -4.694473743438721], [-2.2591495513916016, -2.9422454833984375, 1.275486946105957, -0.2794407606124878, -0.6972476243972778, -1.8929026126861572, 3.3177409172058105, 1.0556598901748657, 0.001841902732849121, -0.2790195345878601, 1.7440601587295532, 1.9927473068237305, -0.3673982620239258, 0.08711107820272446, -2.372620105743408, -4.696547508239746, -2.253002405166626, 2.324756383895874, -0.12789469957351685, -0.0002125091850757599, 1.2562150955200195, -0.5968507528305054, -0.6012433767318726, 1.2615370750427246, 2.2374937534332275, 4.601786136627197, -3.8456976413726807, 2.7878472805023193, 0.8932933807373047, -1.4939539432525635, -3.9708783626556396, -0.7349138259887695, -2.0466842651367188, 7.158658027648926, 2.3057799339294434, 0.30769431591033936, 4.676473617553711, 0.13277453184127808, 0.6489413380622864, -2.911301851272583, 2.0704774856567383, -3.05133056640625, 2.191302537918091, -1.9212455749511719, 0.5265508890151978, 2.192152261734009, -1.606297492980957, 1.3171484470367432], [0.03719106316566467, -0.780307412147522, 2.9751062393188477, -1.1051740646362305, 0.10822166502475739, 1.2345255613327026, 1.3934433460235596, -1.280050277709961, 1.233552098274231, 2.0915844440460205, 1.8128491640090942, 0.7963761687278748, 1.7260124683380127, -0.07865583896636963, -0.3048078715801239, -0.02583158016204834, 2.0762505531311035, -2.6167547702789307, 2.0255205631256104, 3.1246979236602783, -0.5963937044143677, -1.9056732654571533, -2.03159499168396, 0.38209933042526245, 2.7637200355529785, 2.701186180114746, 1.389503836631775, -1.1783655881881714, 4.1078996658325195, 0.127844899892807, 2.9462404251098633, -5.672285079956055, 2.621591806411743, -2.5569334030151367, -2.3531360626220703, 0.4732614755630493, -1.3741129636764526, 2.2127697467803955, -1.9901741743087769, 1.5270919799804688, -2.8417794704437256, -1.0529524087905884, -0.8504704833030701, 2.4447104930877686, -6.114569187164307, 4.309467315673828, -5.483407020568848, 0.398655503988266], [2.883960485458374, 1.1331511735916138, 0.4825819134712219, 3.9063661098480225, 4.496675968170166, 0.5676616430282593, 1.8678358793258667, 1.771999478340149, 3.858884572982788, 3.3529164791107178, -2.3603439331054688, -0.6927705407142639, 2.190885305404663, -1.365408182144165, -2.1029019355773926, -1.6693493127822876, 0.07452628016471863, 0.32529598474502563, 2.653420925140381, 2.0794992446899414, -3.428680658340454, 5.118983745574951, 5.807555198669434, 2.224602460861206, 0.9650625586509705, -0.11931760609149933, -0.9532804489135742, 1.0818568468093872, 1.4878900051116943, -0.39518460631370544, 4.932331562042236, 2.6829886436462402, -2.841996431350708, -1.5397990942001343, 0.5988075733184814, -3.138993263244629, -0.8304454684257507, 0.2712792754173279, -2.327091932296753, 1.3048127889633179, 0.07283177971839905, 5.53451681137085, 4.0172810554504395, 2.6596062183380127, -2.2693581581115723, -5.4667510986328125, 1.8326878547668457, 1.7773268222808838], [-3.9212441444396973, 2.673799514770508, -2.6512556076049805, -1.0693507194519043, 1.4365510940551758, 4.4994635581970215, -0.18230636417865753, -0.11349618434906006, 1.0619287490844727, -0.6110003590583801, -2.2640018463134766, -1.7465966939926147, 1.440345287322998, -0.7906187176704407, 0.7513462901115417, -2.1309914588928223, -2.0824601650238037, -0.997333288192749, -3.8777284622192383, -0.5112823247909546, 0.9190769195556641, -0.9895515441894531, 2.9538750648498535, -4.9749603271484375, -2.5989558696746826, -1.3179792165756226, -1.8174998760223389, -3.15226411819458, -2.7364065647125244, -0.9442844986915588, 3.839124917984009, -3.5428428649902344, 1.2308257818222046, 2.1712586879730225, 0.6933364868164062, 0.6220201253890991, -1.0549519062042236, -4.047900676727295, 0.24033407866954803, -0.20232686400413513, -3.9085779190063477, 4.18718147277832, 0.5111992955207825, -2.941039562225342, 1.816880702972412, -2.912919759750366, 2.983694553375244, -2.483792543411255], [-2.9128971099853516, 0.8183740377426147, -4.721532821655273, 2.148427724838257, -3.08486008644104, 0.9390461444854736, 0.7355288863182068, -2.4554319381713867, 0.900512158870697, 2.1889474391937256, -1.1936618089675903, 3.0031845569610596, -0.494581401348114, 2.310783624649048, -4.832669258117676, 0.24519319832324982, -4.621167182922363, 2.7020647525787354, -0.588689923286438, 2.5312447547912598, 2.6464147567749023, 2.562819004058838, 8.674538612365723, 1.335405707359314, 1.748550534248352, 2.524113893508911, 1.9191299676895142, 0.9190982580184937, -1.8400397300720215, -1.8300665616989136, -1.915447473526001, 0.8887609243392944, -0.6806290149688721, 0.811767578125, 3.3981621265411377, 1.7220768928527832, 1.6919522285461426, 4.106246471405029, -2.4854698181152344, -0.3247767686843872, -1.3013391494750977, -2.203009843826294, 2.3081958293914795, 6.8500165939331055, -1.5588107109069824, 1.3794183731079102, -2.761186122894287, 2.1742751598358154], [-2.772705078125, 3.376268148422241, 1.39979887008667, -0.8984070420265198, -2.2270028591156006, 4.027110576629639, -3.114879608154297, 0.04377833381295204, -1.5228934288024902, -0.3263085186481476, -3.707014322280884, -1.922062635421753, -6.214983940124512, -2.1949169635772705, -0.9646913409233093, -4.268677711486816, -0.8740758299827576, -0.5261882543563843, -3.472754955291748, 2.059025526046753, -0.5980452299118042, -0.6744167804718018, 1.0168118476867676, 0.2644590735435486, -3.0698628425598145, -3.8805489540100098, -1.5805035829544067, 0.05471217259764671, -0.9333661794662476, 2.856696844100952, 0.6353974342346191, -1.3937162160873413, 1.5745903253555298, 1.5449162721633911, 1.7181627750396729, 1.7605146169662476, -2.9166696071624756, 2.496922016143799, -0.3738277852535248, -1.4742763042449951, -0.5585202574729919, 1.2818915843963623, 0.023242413997650146, -1.8711915016174316, -2.1270933151245117, 4.1276702880859375, -2.7838587760925293, 2.1653547286987305], [-1.8094741106033325, -2.2339134216308594, -2.152442693710327, 1.8473376035690308, -2.2637994289398193, -2.784754514694214, -1.4012919664382935, -2.0858571529388428, 3.5198616981506348, -0.5811181664466858, 0.48748183250427246, -0.3198678493499756, -3.0947303771972656, -3.3972675800323486, 0.29350560903549194, -5.413318634033203, -1.6542541980743408, 4.213382720947266, 0.48326799273490906, -1.6498762369155884, 1.1403241157531738, -4.351090431213379, 1.622260332107544, 1.1774394512176514, 0.5717195272445679, 2.1747007369995117, -0.9035667181015015, -2.2302627563476562, 0.014162804931402206, 2.2359619140625, -3.122119665145874, -3.8382937908172607, -3.2567121982574463, 1.3539891242980957, 1.3972902297973633, 0.5776382684707642, -2.6001250743865967, -3.994737148284912, 0.23751987516880035, 2.786478042602539, -0.801140308380127, -5.702613830566406, -0.8772134184837341, -2.1040561199188232, -3.1909847259521484, -1.76474130153656, -0.6065913438796997, -2.0362627506256104], [1.5732018947601318, 0.9664993286132812, 0.6986414194107056, 1.0958545207977295, -1.2590066194534302, 2.2215943336486816, 1.685835838317871, -0.13969743251800537, 2.32619047164917, -0.773162841796875, 4.469754695892334, -0.969792902469635, 1.5654464960098267, 0.3036867380142212, -3.4183952808380127, -3.4982993602752686, -0.01028057187795639, 5.417261123657227, -3.6609854698181152, -2.7050583362579346, -1.4462237358093262, -1.4841972589492798, 2.011709213256836, 1.4276618957519531, 3.292206287384033, 2.902238130569458, 0.8114063143730164, -0.2163044959306717, 2.1321637630462646, -1.906536340713501, 3.105710983276367, -1.6617323160171509, 2.7326223850250244, 0.8829236626625061, -3.167208194732666, -0.28404152393341064, 0.02939312718808651, -4.545172214508057, -1.0864454507827759, -5.0565314292907715, 2.0255424976348877, 0.5087769031524658, -3.9414684772491455, -2.2675223350524902, -2.5172829627990723, 4.121854305267334, -1.7569899559020996, 1.036980152130127], [-2.6636900901794434, -2.4051148891448975, -0.13306483626365662, 2.13155198097229, -3.268134593963623, -0.7264508605003357, 3.2445175647735596, 1.1070456504821777, -2.1923086643218994, 1.7155544757843018, 1.0857490301132202, -2.242642641067505, 2.1025023460388184, -1.5773181915283203, 2.2406251430511475, -3.4419798851013184, -4.404802322387695, -0.991916298866272, 2.6911938190460205, -4.506461143493652, -1.9267276525497437, -3.0550718307495117, 5.5402679443359375, -0.6515225172042847, -1.392329216003418, -0.18746143579483032, -0.16604790091514587, 1.3886150121688843, -1.6475911140441895, -2.8663439750671387, -2.1061573028564453, 0.061540551483631134, -0.8124383687973022, 0.5692406892776489, -1.6348167657852173, 0.588489294052124, -1.8872581720352173, 1.8609182834625244, 0.0926346629858017, 4.9821367263793945, 3.9743449687957764, 1.2876328229904175, -1.774084210395813, 1.704689860343933, 3.0709142684936523, 2.732219696044922, 3.38759183883667, -3.052908182144165], [2.0414106845855713, 0.9659242630004883, -5.592619895935059, -0.9101265668869019, -1.3305282592773438, -2.3111050128936768, -2.000426769256592, -3.1393120288848877, -3.8225581645965576, -3.3165979385375977, 4.536111354827881, 3.9818458557128906, 3.7237696647644043, 1.3120160102844238, -1.1622602939605713, 2.4721932411193848, -3.4459340572357178, 0.6706399321556091, -3.785888433456421, 1.1305633783340454, 2.6451942920684814, 0.5934710502624512, 3.617546796798706, 2.4893453121185303, -0.3979083299636841, -1.458882451057434, -1.6061875820159912, -2.0832934379577637, -2.9080440998077393, 4.629671096801758, -0.8426440358161926, -0.31645727157592773, -1.120962142944336, 3.375406265258789, 0.045305632054805756, -1.1997065544128418, -0.38612598180770874, -0.1576879322528839, -2.9167087078094482, -0.09749020636081696, -1.7747206687927246, -1.9529609680175781, 3.04079270362854, -1.6670351028442383, -2.1633644104003906, -0.34858012199401855, -0.8303954005241394, 1.5326229333877563], [4.3334221839904785, -3.072099447250366, -0.507182776927948, -2.9392316341400146, 0.9052644371986389, 1.3533151149749756, 0.4004512429237366, 0.983590304851532, -0.528789758682251, 2.6769893169403076, -0.935133159160614, -1.252920150756836, 0.2311585545539856, 3.2418384552001953, 0.4379280209541321, 1.0881190299987793, 0.48607534170150757, -0.9218593835830688, -1.6348077058792114, 6.252495765686035, -1.779023289680481, 0.3141530156135559, -0.3498570919036865, -0.36478936672210693, 2.531162738800049, 4.507689952850342, 5.3354291915893555, -2.051759958267212, -2.390049934387207, 2.7817764282226562, 4.347861289978027, -0.88242107629776, 0.37257832288742065, 0.0022633373737335205, -0.3656298518180847, -1.2473514080047607, 4.302469253540039, 5.548040866851807, 3.9221384525299072, 1.1034687757492065, -1.3084454536437988, 1.419450044631958, -1.9565141201019287, -2.5143961906433105, 2.576883316040039, -1.5797147750854492, 1.114888072013855, -3.644545555114746], [1.182831883430481, 1.6990127563476562, 0.3682166337966919, 0.2548768222332001, -2.100051164627075, -1.19171941280365, -0.31012842059135437, -0.08044339716434479, 1.2843672037124634, 2.399014949798584, 2.7792539596557617, 1.7134851217269897, -1.6097147464752197, -0.4046895503997803, -2.2305710315704346, 1.2688206434249878, -3.0715348720550537, 1.608643651008606, -3.3931829929351807, 3.971972703933716, -1.189836859703064, -0.9263149499893188, -0.26105839014053345, 3.982390880584717, 0.9992144703865051, 0.9441260695457458, -3.1906723976135254, 0.8615837097167969, -3.698056697845459, -0.7306187152862549, 2.7817721366882324, 0.13182856142520905, -1.6417726278305054, 1.6272262334823608, -3.244354248046875, -0.33950239419937134, -1.7003873586654663, -2.541701316833496, -6.146875858306885, -2.2650744915008545, 3.1243906021118164, -2.727808952331543, 3.049349069595337, -0.05699280649423599, -2.0792884826660156, -0.09987808018922806, 2.030362606048584, 1.4325895309448242], [-1.6962018013000488, -4.659491539001465, -6.636739253997803, 0.520182728767395, 1.7100263833999634, 1.4457393884658813, -2.0859992504119873, -1.687832236289978, 3.1332647800445557, 0.18815433979034424, -4.733119487762451, -0.25261861085891724, -2.191138505935669, 3.183945894241333, -3.7981274127960205, 0.037459053099155426, -2.379535436630249, 0.4686724841594696, 2.3181612491607666, 0.20432835817337036, 3.207040309906006, 1.505396842956543, -2.3565573692321777, 1.5156925916671753, 4.173742771148682, 0.04208078980445862, 3.064606189727783, 1.8533005714416504, -1.7755991220474243, -1.8562126159667969, 3.2003133296966553, -0.7164086103439331, -0.2541052997112274, 2.2230381965637207, -0.905505359172821, -3.2201647758483887, 3.400867462158203, 0.9497919678688049, 2.478276252746582, 4.3050971031188965, -0.6794378757476807, 1.3949331045150757, 1.051464319229126, -2.0311801433563232, 0.5526804327964783, 1.3224706649780273, -0.9703180193901062, -6.776543140411377], [0.8439860939979553, -2.4031405448913574, -1.8156459331512451, 0.1512940376996994, 1.3585565090179443, 0.008418165147304535, -3.155179500579834, 0.40837499499320984, -0.7715376019477844, -0.9969034194946289, -4.844623565673828, -3.3605194091796875, 0.6454818248748779, -1.4831292629241943, -1.3317978382110596, -0.46627435088157654, -1.875544786453247, -1.4661463499069214, -3.0461909770965576, 0.2869657576084137, 1.9391206502914429, 1.4331647157669067, -1.2653584480285645, -3.889362335205078, 3.569042205810547, 2.923769474029541, -0.5629079341888428, -2.8469154834747314, 0.5480200052261353, 2.3862969875335693, -3.0359911918640137, -3.3011038303375244, 0.8733658790588379, -1.9608607292175293, -0.976803183555603, 2.617626190185547, -0.7549996972084045, 1.3428972959518433, -0.8225145936012268, -7.521206855773926, -0.5458342432975769, -0.472312331199646, -1.2963435649871826, -3.559696912765503, -0.5137161612510681, -1.4161710739135742, -0.9665167927742004, -4.131767272949219], [-0.299871027469635, -3.110611915588379, -1.8235658407211304, -4.603839874267578, 4.363119125366211, 4.960343360900879, -3.432706356048584, 0.39190569519996643, 1.034761667251587, -1.829817771911621, -0.35529229044914246, 0.32842445373535156, -0.45298853516578674, -0.2507930099964142, 4.068889141082764, 1.805773377418518, -3.633922815322876, -0.7179903388023376, -0.3109411597251892, 2.5835213661193848, -2.4386465549468994, -1.0152424573898315, -0.5000848770141602, 1.1248865127563477, 0.2860681116580963, 2.6200268268585205, 0.34976983070373535, -2.167656183242798, -2.6415863037109375, 1.056993842124939, -0.7604098916053772, -0.955596387386322, -1.332228183746338, 0.6572386026382446, 1.2150802612304688, -4.681399345397949, -0.08340014517307281, -2.9259133338928223, -1.4564626216888428, -0.22761170566082, -1.0105996131896973, -0.5210909843444824, -0.10837948322296143, -0.47033989429473877, 1.1116344928741455, -3.9073574542999268, -2.5884172916412354, -4.257678031921387], [1.5443717241287231, -1.3227977752685547, -1.004882574081421, -5.241458415985107, -1.1148145198822021, 5.257765769958496, 0.7792233228683472, 0.5610758066177368, 3.5175466537475586, 2.946540594100952, -2.0182905197143555, 1.0722731351852417, 1.3353245258331299, -3.9402780532836914, 0.5271420478820801, -3.809933662414551, 0.611768364906311, 2.5941762924194336, 3.462372064590454, -1.7045072317123413, -2.0323877334594727, -0.5126860737800598, -1.2872587442398071, -1.4302934408187866, 5.491779804229736, 1.4832559823989868, 1.4829957485198975, 1.1026185750961304, 1.376909613609314, 1.8175256252288818, -3.1255056858062744, -1.2342889308929443, 0.10254786163568497, 2.4632577896118164, 0.9954707026481628, -0.07005473971366882, -1.9026439189910889, -2.480376958847046, 5.669808387756348, 2.9739880561828613, 0.006013631820678711, 3.2983624935150146, 4.270469665527344, 1.1108546257019043, -0.36187973618507385, -4.988244533538818, -1.3941984176635742, 0.1781184822320938], [-2.6172847747802734, -3.2996532917022705, 1.4067585468292236, -0.9299378395080566, 1.9903925657272339, 0.820491373538971, 2.7146356105804443, -0.2630181610584259, 2.798741340637207, -0.6696836948394775, 0.3862534761428833, 0.4169051945209503, 2.764554500579834, 3.305778980255127, 5.391195774078369, -0.9582861065864563, 2.9945852756500244, 1.8265442848205566, -0.2477457970380783, -0.25051558017730713, -2.1068873405456543, 3.356473207473755, 2.7093214988708496, -0.8358074426651001, 1.8653899431228638, -0.8996375203132629, -2.1451778411865234, -5.34096622467041, -3.7605092525482178, 1.9652361869812012, 3.3778605461120605, -2.1088178157806396, -2.2900893688201904, -0.7330009937286377, -1.2614378929138184, -3.5560553073883057, -1.1280986070632935, 0.6100520491600037, -0.29622405767440796, 3.158550977706909, -0.6587218046188354, 1.6614866256713867, 0.8887948989868164, 0.9578039050102234, -2.1353979110717773, -4.209971904754639, -1.8959816694259644, 0.17985448241233826], [2.003385305404663, -2.9240217208862305, -2.1215615272521973, 1.1713043451309204, 1.6720341444015503, -5.315609931945801, 2.8527562618255615, -5.7749176025390625, -0.5241797566413879, -3.812553882598877, 0.22430714964866638, 0.023346543312072754, -0.1617393046617508, 2.2055301666259766, 0.4695095419883728, 1.505051851272583, -4.114346027374268, 0.7952563166618347, 1.653839349746704, -1.8424696922302246, 5.506975173950195, 1.1358495950698853, 2.6190364360809326, 0.053652577102184296, 2.3420305252075195, 2.591989755630493, 0.4638007879257202, 0.8357430696487427, -0.8556749224662781, 0.5469275712966919, 1.332335114479065, 2.776552438735962, 2.122053861618042, 1.5102818012237549, -2.001276969909668, -1.7692186832427979, -0.47519952058792114, 6.621118545532227, 5.594181537628174, -2.5921213626861572, -1.102554202079773, 1.8478068113327026, 1.4622876644134521, -3.5748634338378906, 0.918125569820404, 0.22550126910209656, -1.2957634925842285, -2.23284912109375], [1.43503999710083, 0.5097016096115112, 2.2665767669677734, 0.37772995233535767, -0.07111507654190063, 0.4469907581806183, -2.815150260925293, 0.43518897891044617, -2.5276360511779785, 2.3659021854400635, -3.1997203826904297, 1.7356805801391602, 2.494292736053467, 1.8688490390777588, -2.1289854049682617, 1.098240852355957, 0.08458007872104645, 1.5677602291107178, -4.035891056060791, 0.34977683424949646, -1.738520860671997, 2.509803295135498, 5.447478294372559, 1.736946940422058, -2.6003308296203613, 2.478569746017456, -2.9751744270324707, 0.4942709803581238, -0.41527098417282104, 1.5759333372116089, 2.3985016345977783, -4.43916654586792, 3.0122182369232178, 0.9705417156219482, 5.273323059082031, -0.3525778651237488, -0.02237606793642044, 6.1894049644470215, 1.3739053010940552, 3.346874952316284, 1.8542909622192383, 2.1416094303131104, -1.9370298385620117, 2.009718179702759, 1.5953923463821411, -0.09811541438102722, 1.8265372514724731, -1.5518208742141724], [1.021040439605713, -3.971672773361206, -4.354642391204834, 0.24301967024803162, -2.461941719055176, -0.01627461239695549, 0.13786301016807556, 1.0760716199874878, 1.493747591972351, 3.2221455574035645, 1.9652049541473389, 2.8331384658813477, 0.5048272609710693, 2.1101012229919434, 3.730604648590088, 0.4941927194595337, 7.158675670623779, -1.5756645202636719, -3.001854658126831, -2.1596617698669434, 1.89905846118927, -5.265092849731445, -1.0626180171966553, 0.399485319852829, -2.7272889614105225, 1.973114252090454, 2.502882719039917, 7.780821323394775, 0.37117305397987366, 5.149603366851807, -4.294219017028809, 0.323787659406662, 2.5045688152313232, -3.064471483230591, 2.3420140743255615, 0.3964165151119232, 1.435665488243103, -1.2968075275421143, 3.4130032062530518, 0.48625773191452026, -0.17144455015659332, 2.8318300247192383, -1.548291802406311, -1.3085907697677612, 0.520547091960907, -0.1089758574962616, -1.4969202280044556, -0.767991840839386], [-0.2671186923980713, -0.7765693664550781, 1.9463169574737549, -2.9574882984161377, -0.310360848903656, -1.7558635473251343, -3.4772512912750244, 0.5810012817382812, 2.8115644454956055, -0.9187163710594177, -2.9807240962982178, -1.371541976928711, -0.44160813093185425, 1.2025485038757324, 4.170107841491699, -2.5749831199645996, 2.1400856971740723, -0.7310371398925781, 1.0309898853302002, 0.9392362833023071, -2.538740873336792, 3.1966872215270996, -0.9450470805168152, -1.9338487386703491, -0.939698338508606, 3.0619380474090576, -0.28441721200942993, -2.6090896129608154, -1.003460168838501, -0.349823534488678, -0.38264042139053345, 3.497286558151245, 0.3762732744216919, 4.313179969787598, -0.6370128393173218, -2.20418643951416, 0.5422008037567139, -0.7287072539329529, -1.686161994934082, -1.9584672451019287, -6.049056053161621, 0.3585266172885895, 2.278796672821045, 1.7719365358352661, 2.2758960723876953, -4.768702030181885, 1.641249179840088, -0.801322340965271], [3.944098949432373, 2.6993048191070557, 1.098992943763733, -1.9287693500518799, -6.623607635498047, 0.627799391746521, -1.8764939308166504, -1.315954566001892, 0.9515596628189087, -3.911989212036133, -1.1445797681808472, 4.424811363220215, -1.675731897354126, -2.460143566131592, -1.8890800476074219, 3.775851249694824, 0.365996778011322, 1.7295805215835571, -3.1626994609832764, 3.062676191329956, 1.99753999710083, 3.7293365001678467, 0.9955571889877319, -0.5642203092575073, -4.41387414932251, -1.7336479425430298, -0.004818946123123169, 1.2358685731887817, -3.8479816913604736, -0.23371157050132751, 0.5914082527160645, -0.5468546152114868, 2.005511522293091, 0.17915798723697662, -1.20694100856781, 2.3270881175994873, -1.785979151725769, -2.579360008239746, 1.6769036054611206, 2.2913448810577393, 3.09415864944458, 0.12288696318864822, -0.9900230169296265, 0.8835221529006958, 1.755662441253662, 4.503724098205566, -1.2281445264816284, 2.856698989868164], [-1.0107542276382446, -0.2291855812072754, 0.13426236808300018, -1.5890966653823853, -1.9027273654937744, 0.4921584725379944, 2.8499691486358643, 0.1255893111228943, 2.924724817276001, -3.783446788787842, 3.799051523208618, 2.629150867462158, -2.9747588634490967, -4.19325065612793, -0.35558706521987915, 2.8015482425689697, -0.03580837696790695, 2.9366588592529297, -0.8012928366661072, -0.8958758115768433, -2.120875597000122, 0.03814224898815155, -0.5327860116958618, 0.7515258193016052, 2.87355637550354, 2.5097243785858154, 1.8131763935089111, 1.0949485301971436, 0.06498241424560547, 1.1983567476272583, 2.231746196746826, 2.8895716667175293, 0.680033802986145, -2.468816041946411, 0.015792522579431534, -5.017756938934326, 0.7252497673034668, 1.5757473707199097, -2.1185808181762695, -8.677581787109375, 1.0966181755065918, 3.2092719078063965, 2.6532630920410156, -1.8868706226348877, 2.1241886615753174, 1.4002662897109985, 2.299436569213867, -0.09437959641218185], [-1.9476879835128784, 6.071368217468262, -2.746060609817505, -0.22001168131828308, 0.8958168625831604, -0.09272991120815277, 1.984804630279541, 2.040433645248413, -3.6904258728027344, 0.5235433578491211, 0.390951007604599, -0.5790170431137085, 3.8645739555358887, 1.9141069650650024, -0.6065344214439392, 2.0253891944885254, 1.9521698951721191, 4.907151222229004, -1.0926991701126099, -0.6900972723960876, -1.2140843868255615, 1.9942160844802856, -2.65975022315979, -3.4664785861968994, -0.4237807095050812, -1.541557788848877, 0.6500943899154663, 1.0691736936569214, -3.571875810623169, 1.146860957145691, 1.5551396608352661, 0.17054963111877441, -1.5020605325698853, 0.6923112869262695, 4.0168609619140625, -0.06621703505516052, 3.085855484008789, -0.3730754256248474, -1.0174962282180786, -1.9288113117218018, 0.8250072002410889, 1.0692557096481323, -1.2544009685516357, 1.673492670059204, -5.073457717895508, 3.4128153324127197, -0.24184611439704895, -0.5122341513633728], [0.5352862477302551, -2.7032601833343506, 3.710935115814209, 1.1719335317611694, -0.4972473084926605, 1.1337902545928955, -1.5071203708648682, 2.304002046585083, -0.6557432413101196, -0.024396196007728577, 1.672023057937622, -0.6273563504219055, -0.8630043864250183, -1.7354719638824463, 3.114137887954712, 2.1593756675720215, 0.833200216293335, -2.940600633621216, -4.449487209320068, 0.49046561121940613, 2.1151821613311768, 2.8455822467803955, -0.37883517146110535, 1.2435816526412964, 0.6400688886642456, 1.1538163423538208, 1.0225800275802612, -0.08747435361146927, 2.1717209815979004, 1.198599934577942, -1.2129660844802856, -0.5226903557777405, -2.0489418506622314, -0.1812201738357544, -1.799415111541748, -1.4432225227355957, 1.1023412942886353, -2.178785562515259, 4.917418956756592, -5.513967990875244, -0.007695287466049194, 3.336672782897949, -1.8082693815231323, 2.025998115539551, -0.08194491267204285, -1.0512514114379883, -0.3928493559360504, -3.9643986225128174], [0.45548999309539795, 1.0777522325515747, -1.7637438774108887, -2.683195114135742, -1.2527210712432861, -1.7620102167129517, 2.069856882095337, 4.203123569488525, 2.364995241165161, 4.5636887550354, -0.8532279133796692, 7.54490852355957, -4.186063289642334, -0.6462126970291138, -1.8721717596054077, 1.3156700134277344, 4.6584553718566895, 0.7052114605903625, -3.582792282104492, -3.262827157974243, 0.11136572808027267, -2.6695520877838135, 1.6322438716888428, -0.6013163924217224, 4.004731178283691, -0.5223198533058167, -1.083793044090271, 1.953691005706787, 1.8183839321136475, -4.278862476348877, 2.278378963470459, -3.950380563735962, 0.2854917049407959, 1.6160476207733154, 0.6608269214630127, -1.260593295097351, -0.27699944376945496, -2.7570302486419678, -1.7847968339920044, -0.7609692215919495, 2.7618043422698975, -2.7282021045684814, 1.1617233753204346, -3.178010940551758, -0.22716392576694489, 3.3038110733032227, -1.5228135585784912, 0.08892040699720383], [-1.362761378288269, 0.3418302536010742, -0.6191858053207397, 0.7722901105880737, -0.6997801661491394, 0.694084882736206, -1.9142988920211792, 1.4490076303482056, -0.24423661828041077, 3.7929255962371826, 1.2182426452636719, 4.049994945526123, -0.3241015374660492, 5.529268741607666, -3.3384201526641846, -3.480062961578369, -1.0840595960617065, -0.9737064838409424, -0.06007611006498337, -0.7194101214408875, -2.616834878921509, 2.675461530685425, 0.21971812844276428, -2.8089566230773926, 0.7143115401268005, -1.3574392795562744, -1.1054216623306274, 2.161022186279297, 2.2531511783599854, 2.744391679763794, 3.019591808319092, -1.2871910333633423, -0.22441673278808594, -0.02634422481060028, -0.9701442718505859, 1.0298855304718018, 3.9982352256774902, -1.7422106266021729, -1.9679845571517944, -1.0767529010772705, 2.8460187911987305, 0.6202021837234497, 0.9161292910575867, -1.9245980978012085, 0.569555938243866, -1.938176155090332, -1.4706546068191528, 1.2977514266967773], [0.9201544523239136, 0.5323154330253601, -0.06679144501686096, -0.8440446257591248, -2.5724189281463623, 0.22296960651874542, 0.7256377339363098, 2.2039709091186523, -1.4710478782653809, 1.6757943630218506, 0.6854583621025085, -2.7982327938079834, 2.2243752479553223, 1.1508790254592896, -1.5214598178863525, 0.09102813154459, 3.1176586151123047, 0.8588384985923767, 2.448618173599243, -3.876676559448242, -3.1713333129882812, 1.852096676826477, -4.004756450653076, 4.330362796783447, 2.2680020332336426, 0.9363067150115967, -0.27680912613868713, 1.4335682392120361, -0.4090335965156555, -4.105996131896973, 0.7532795667648315, -4.144464015960693, 2.433178424835205, -0.9320711493492126, 4.735897064208984, 1.8728982210159302, -1.4239234924316406, -2.858405828475952, 0.14338219165802002, 1.0456178188323975, 2.3844127655029297, -0.5804091691970825, -0.7335641980171204, 4.298908710479736, -5.229809284210205, 2.315903663635254, -0.4876231849193573, 1.6814237833023071], [-0.4656648635864258, 1.4000040292739868, -0.8695025444030762, -0.49678391218185425, -3.676135301589966, 0.8311707973480225, 0.6946796178817749, 1.157158613204956, 1.0937860012054443, 0.8081414103507996, -3.034864664077759, 0.5041412115097046, -0.00038444623351097107, -2.204469680786133, -2.2861311435699463, -3.4904632568359375, -0.3807647228240967, 1.9209372997283936, -4.293828010559082, 0.07162972539663315, -0.41060879826545715, -0.5483959913253784, -4.032286167144775, -3.9334654808044434, -2.166105270385742, -2.588327407836914, -3.651207685470581, 0.315378874540329, -6.216569423675537, 1.335191011428833, -0.9362539649009705, 3.4719619750976562, 0.7224903106689453, 6.188474655151367, 3.2987592220306396, 1.4237565994262695, -0.21831925213336945, -0.237125426530838, 2.4159748554229736, -2.2340521812438965, 0.5994765758514404, -0.11266543716192245, 1.2892378568649292, 0.19604690372943878, 0.33813920617103577, 5.705012798309326, 4.613463401794434, -1.1261754035949707], [-0.1920224130153656, 1.6936073303222656, -0.3398415148258209, 2.12778902053833, -3.212230682373047, -4.816423416137695, 0.5995346903800964, 3.0728650093078613, 0.20448079705238342, -1.908941388130188, -0.04014384001493454, 2.67716383934021, 3.6602020263671875, -0.3798261284828186, 5.643312931060791, 2.481398820877075, -4.097321510314941, -4.305400848388672, -1.5312082767486572, 2.201850175857544, 2.016868829727173, -5.6832122802734375, -1.247498869895935, -2.9155993461608887, 2.831627607345581, 0.3304860591888428, -1.15262770652771, -3.8222742080688477, -2.146275520324707, 4.001584053039551, -3.4783194065093994, 2.39650297164917, 1.5701358318328857, 0.15692773461341858, -4.473475456237793, 4.077495574951172, -0.7859508991241455, 4.090507984161377, 1.092504858970642, 1.5495469570159912, -2.2340431213378906, -1.9933490753173828, -0.1561504304409027, -3.9155149459838867, -2.892179012298584, -0.6832350492477417, 2.6576743125915527, 4.031515598297119], [0.08583860099315643, -2.7033326625823975, -0.9893032312393188, -0.2581470012664795, -2.6507489681243896, 0.5425238013267517, 0.564827024936676, 3.5475878715515137, -1.3671331405639648, -2.0777623653411865, 3.490607500076294, -2.0137805938720703, 1.9567620754241943, -4.502875804901123, -2.0396783351898193, 2.787762403488159, 0.021028675138950348, 2.4475414752960205, 2.2737374305725098, -1.3601927757263184, -3.2082200050354004e-05, 1.1137502193450928, 2.251351833343506, 6.3557634353637695, 4.943070888519287, 0.6734751462936401, 1.5535471439361572, -2.5821337699890137, -1.8839105367660522, 1.3057671785354614, 0.14197134971618652, 3.4583659172058105, 3.583090305328369, -0.07991604506969452, -4.649019718170166, 0.4256407916545868, 1.5861247777938843, -2.5580055713653564, -1.116023063659668, -1.1844946146011353, 0.10313870012760162, -2.022346019744873, -0.7678247690200806, -1.5227340459823608, 0.10832449793815613, -1.1207607984542847, -1.1127249002456665, -3.297031879425049], [2.37648344039917, 1.061827301979065, 0.43756765127182007, 1.5241162776947021, -0.9467034339904785, 3.7692794799804688, -0.18369846045970917, 3.3199877738952637, -4.834780216217041, 1.0383286476135254, 4.213737487792969, -3.166865587234497, 6.504494667053223, -1.6594514846801758, -2.040876865386963, -1.871862530708313, -2.4710981845855713, -3.1697804927825928, 5.505027770996094, -2.2914984226226807, -0.6452054381370544, -0.3937801718711853, -4.0674967765808105, 3.6483683586120605, -3.2862603664398193, -0.1236710250377655, -2.885075092315674, -0.08128127455711365, 2.970510482788086, -0.34949415922164917, -0.05075227469205856, -2.3590071201324463, 3.493330478668213, -1.2455841302871704, 0.6887550950050354, 0.9162797927856445, -2.53490948677063, -0.08089005947113037, -0.6418046951293945, -2.182960033416748, -0.059318967163562775, -1.2806718349456787, -1.0456740856170654, -1.166452407836914, -1.4838143587112427, -2.443899154663086, 1.3042802810668945, 3.4040720462799072], [3.847245931625366, -2.7605299949645996, -3.42167329788208, -5.588355541229248, 1.9375890493392944, -0.4426235854625702, -0.5556541085243225, -0.9733206033706665, -4.316164016723633, -0.13897930085659027, -3.2218050956726074, -0.8249406218528748, -0.5046815276145935, 0.09759357571601868, 0.4859088659286499, -0.9289234280586243, -2.759979724884033, -0.06166287511587143, -2.0946695804595947, -0.0743694007396698, 1.0943745374679565, -0.8748849034309387, -0.5825906991958618, 0.805056095123291, 0.7785545587539673, 4.5880818367004395, -2.477306604385376, -2.747446060180664, -1.4467087984085083, -1.6800603866577148, -1.5106284618377686, 1.7515746355056763, -2.2325069904327393, -0.6315295100212097, 1.491058588027954, -0.5267782211303711, 3.8840157985687256, -0.7953947186470032, -1.7609988451004028, -0.9837263226509094, -0.8356356024742126, 1.3764770030975342, -3.2100164890289307, -1.9410780668258667, 1.8779293298721313, -4.394771099090576, -1.7464706897735596, -1.472269892692566], [-4.836210250854492, -1.954920768737793, -3.060218095779419, -0.11961831897497177, 2.381061553955078, 0.8560309410095215, 0.03666161000728607, 2.8260462284088135, -0.029140129685401917, 6.668476104736328, 3.0298800468444824, 3.19602632522583, -2.0283708572387695, 1.1874241828918457, -3.0924150943756104, -2.211909532546997, -0.7618356943130493, -0.2559053897857666, 0.3057458996772766, 0.10367206484079361, 6.019628047943115, -1.4617050886154175, -2.2611136436462402, 3.588061571121216, 1.0592689514160156, 6.592366695404053, 0.5034706592559814, 1.089614748954773, -4.69690465927124, -1.4653185606002808, -2.303161144256592, 1.4502092599868774, 0.4748867154121399, -1.8883951902389526, -0.7458536624908447, -1.3169058561325073, -1.0319015979766846, 0.07766353338956833, 3.7973430156707764, -5.5685200691223145, 3.3282644748687744, 6.696864604949951, 0.999523401260376, 2.7616541385650635, -2.455793619155884, 1.1545109748840332, 2.484243869781494, -0.03903748467564583], [-1.932666540145874, 1.4051032066345215, -2.91371488571167, 0.6031454801559448, -2.095654010772705, 1.680467963218689, 2.4395194053649902, -3.6168463230133057, -3.1669223308563232, 5.173309326171875, 3.054400682449341, 1.001016616821289, 4.369022846221924, 0.26250654458999634, -2.510570526123047, -2.0368130207061768, 0.2593458592891693, -0.8661322593688965, 2.3384194374084473, 0.9431682229042053, 0.7492807507514954, 0.0646841824054718, -1.8856737613677979, 0.15748819708824158, -1.2005865573883057, -0.05784650892019272, 0.5315252542495728, -0.9439870119094849, 1.659147024154663, 1.4430127143859863, 3.7664239406585693, 0.5622801184654236, -3.876535654067993, 0.28372418880462646, -3.376255750656128, 0.29113906621932983, 3.726407051086426, 1.9443762302398682, 3.8507468700408936, -5.55264139175415, -2.1499762535095215, -2.255035877227783, -0.949266254901886, -2.1566762924194336, 0.08655616641044617, 0.725149929523468, 1.581425666809082, 3.5311741828918457], [-3.8671610355377197, 4.021929740905762, 2.936335325241089, 1.6559280157089233, 2.042104482650757, -0.7345372438430786, 1.1198415756225586, 0.4769165515899658, 2.637633800506592, 0.5766870975494385, -1.409724473953247, 0.9202648401260376, -2.5184364318847656, -0.5816231966018677, 1.110392451286316, 4.435919761657715, 0.9843945503234863, -4.359097480773926, -2.3852462768554688, 0.23138344287872314, 1.2430590391159058, 0.7315128445625305, -0.9980246424674988, -1.9568697214126587, -1.915698528289795, -3.0092222690582275, 0.4217400848865509, -0.22638823091983795, 0.41010087728500366, 0.488861620426178, 1.1721957921981812, 1.596160650253296, -1.7310510873794556, -3.4450716972351074, -1.1560688018798828, 0.3395875096321106, -0.3898654878139496, -1.1218674182891846, -1.3655043840408325, 1.8354521989822388, 0.8342053294181824, 0.6836318969726562, 1.8647044897079468, 2.751498222351074, 0.19598448276519775, -0.670817494392395, -0.5451471209526062, 0.20789743959903717], [-2.571687698364258, 0.3996361792087555, 3.7716176509857178, 4.040045738220215, -1.8920321464538574, 1.8725543022155762, -2.2964072227478027, -1.2738151550292969, 0.19586291909217834, 0.2637237012386322, 0.4703022241592407, 3.631870985031128, -2.557184934616089, -1.5861170291900635, 0.41980597376823425, -0.8034817576408386, -2.4290432929992676, 0.4212628901004791, -0.5332180261611938, -0.8688639998435974, 3.1668860912323, 5.8322319984436035, 1.175429344177246, 6.290274143218994, 0.3524090051651001, -2.4217662811279297, 1.672110915184021, 1.0372329950332642, -7.000378131866455, 2.32037091255188, 4.903060436248779, -2.5624630451202393, 2.0590624809265137, -1.1667360067367554, -0.034251511096954346, 0.22639165818691254, 2.359245777130127, -3.834691286087036, -6.920741081237793, -0.4119299650192261, 2.2210617065429688, 1.5191539525985718, 3.9958038330078125, 0.5360614061355591, -1.8891186714172363, 0.7737424969673157, -0.04044236242771149, 2.609454870223999], [4.096938133239746, -0.8357195854187012, -1.4532054662704468, 4.552567005157471, 2.333625078201294, 1.936635136604309, -1.952555775642395, -1.3785436153411865, -0.49417805671691895, -2.552628755569458, 2.072721481323242, -0.381012499332428, 1.631397008895874, -3.1131341457366943, -0.2848799228668213, -0.961061954498291, 0.16769441962242126, -1.9217298030853271, 0.4861021637916565, -1.892762303352356, -0.05451711267232895, 0.6836212873458862, -3.142134189605713, -0.16826042532920837, -1.9714934825897217, 3.10935640335083, 3.213505744934082, -0.30965572595596313, -1.7698595523834229, 0.7886609435081482, -2.220446825027466, 0.06201301887631416, -4.413842678070068, -0.7326041460037231, -0.5465509295463562, -4.298813343048096, 0.3625239133834839, 0.5512654781341553, -2.993269920349121, -0.7166155576705933, 2.703857660293579, -1.8832415342330933, -0.8573699593544006, -0.7588574886322021, -2.7963075637817383, -0.808502733707428, -1.0390057563781738, 1.616458773612976], [-0.5565243363380432, -2.610668659210205, 2.8085544109344482, 0.253825843334198, 4.31162166595459, 1.7830857038497925, -0.17215362191200256, 0.11376000195741653, -0.3416414260864258, 3.148169755935669, 4.505455493927002, -1.3262559175491333, -1.3766027688980103, 2.459367275238037, 1.8112215995788574, -0.766495406627655, -2.455954074859619, -1.2930423021316528, -0.9458646774291992, 0.11960378289222717, -1.6127644777297974, 1.5160969495773315, 2.573265552520752, -2.7149202823638916, -4.036574840545654, 3.32490873336792, 2.0058159828186035, 1.7353415489196777, 0.49637117981910706, -1.2267524003982544, 0.33877983689308167, -0.29617050290107727, 1.4004188776016235, -1.2825859785079956, 2.6021924018859863, 1.6571564674377441, 3.8895821571350098, -1.8145273923873901, -2.5288801193237305, 1.9230490922927856, 2.3955492973327637, 0.9301566481590271, 3.0217206478118896, 1.4519743919372559, -1.4409825801849365, 0.01900838315486908, -0.6877878904342651, 1.7209855318069458], [3.497598171234131, 2.6854519844055176, 0.5008257031440735, 3.663274049758911, 0.4328062832355499, 2.6135950088500977, 2.329880475997925, -1.0087156295776367, -1.96571683883667, -2.044264554977417, -1.3960144519805908, -1.7268716096878052, 0.6090643405914307, 3.6706149578094482, -1.9910776615142822, -4.984377384185791, -7.459437847137451, -2.820941209793091, -3.17500376701355, -4.181675910949707, 0.6791919469833374, 0.40033724904060364, -0.3819153308868408, 3.3377861976623535, -2.4242823123931885, 1.5650713443756104, 0.1276727318763733, -3.5531039237976074, -3.7096574306488037, -0.157586470246315, 1.218709111213684, 1.5816326141357422, -1.5746999979019165, -1.0246652364730835, 0.9750419855117798, -1.9322354793548584, 0.5086840987205505, 4.215379238128662, -0.09331183135509491, 1.200801134109497, -3.8024587631225586, 3.115194797515869, 0.3126867115497589, 1.6455131769180298, -1.1241743564605713, -0.6708263754844666, -3.6868813037872314, 0.8907524347305298], [5.566150665283203, -1.1721255779266357, -1.9629725217819214, 3.0968620777130127, -0.09997719526290894, 0.41743582487106323, 1.2708566188812256, 0.4329652190208435, 0.5422961711883545, -3.372549057006836, -0.764210045337677, -1.1669423580169678, -0.23146536946296692, 0.5828077793121338, 2.3222336769104004, -1.5264062881469727, -3.818948745727539, 3.328369379043579, -1.5507947206497192, 0.4564213454723358, -0.2017415165901184, 3.2361629009246826, -2.5831692218780518, -1.6286569833755493, -1.240376591682434, -6.624905109405518, 1.6695194244384766, -0.47669878602027893, -0.25632739067077637, -4.127906322479248, 0.08475098758935928, -1.7334116697311401, -1.7896960973739624, -3.9256815910339355, -2.846287965774536, -1.069714903831482, 0.5047943592071533, 0.3942364454269409, -2.187373638153076, 4.554304599761963, -1.5693496465682983, -3.0673162937164307, -2.2632622718811035, -0.19711148738861084, -1.199662208557129, -0.7583911418914795, -2.786536931991577, 1.623584270477295], [-1.2970408201217651, -0.13634783029556274, 5.291687965393066, -6.113030910491943, 4.671131134033203, -3.94636869430542, 0.39205706119537354, -0.49094638228416443, 0.6997227668762207, 3.5726916790008545, -3.4815993309020996, -2.6099555492401123, 0.7564437985420227, -0.624291181564331, -2.7863729000091553, -5.860803604125977, -4.915503025054932, -0.43873873353004456, -2.3599188327789307, -1.3829514980316162, 4.331613063812256, -1.547883152961731, -0.9214946627616882, 0.13278019428253174, -5.956593990325928, -2.9808173179626465, -0.5498787760734558, 0.7744075059890747, -1.345423698425293, -4.020133018493652, 1.9820219278335571, 3.3542165756225586, -0.18352439999580383, -0.09894930571317673, 4.879541397094727, -1.6084563732147217, -4.061915874481201, 1.131239891052246, -0.8269873857498169, 0.24981388449668884, 0.15769807994365692, -1.2920271158218384, -0.8920535445213318, -0.4659176468849182, 0.5639060139656067, 1.813341498374939, 4.82111930847168, -0.6626218557357788], [0.4624970257282257, -1.335105299949646, -0.7606031894683838, -1.3218218088150024, 3.2882025241851807, 1.1334834098815918, 2.9477574825286865, -0.705579400062561, 4.455319881439209, -4.6940412521362305, 2.8508007526397705, -0.8137127161026001, 1.3218036890029907, -1.2338978052139282, -2.4475643634796143, 1.3621537685394287, -2.0297422409057617, 2.052642345428467, 2.1313316822052, 1.2435023784637451, -1.402313470840454, 3.080174446105957, 2.8707077503204346, -0.7117370367050171, -1.5130738019943237, 0.18686817586421967, -0.9148020148277283, -0.11291586607694626, 3.415900468826294, -2.15336275100708, -2.810748338699341, 0.7766972184181213, 3.3798866271972656, -0.9980065822601318, 1.1719566583633423, -0.5390169620513916, 0.9018393754959106, 0.08419343829154968, 2.0425915718078613, 0.16671720147132874, 1.3577183485031128, -0.4682011604309082, -3.279836654663086, -1.9206370115280151, -2.031669855117798, 0.3319385349750519, 2.0306642055511475, 0.1626705527305603], [1.5808398723602295, 2.5071420669555664, 0.7107261419296265, 0.2238084077835083, -1.3759772777557373, -1.2060292959213257, -3.806751251220703, 4.22206449508667, -1.6639044284820557, -3.912818193435669, 3.1362342834472656, 1.9130525588989258, -3.366132974624634, -3.754969835281372, -2.044537305831909, 0.009675547480583191, 2.60513973236084, 1.4592761993408203, 1.3679094314575195, -2.4120821952819824, 3.042839527130127, -4.801053047180176, -2.5394480228424072, 2.3108768463134766, -0.28822067379951477, -1.8338273763656616, -0.4342716932296753, 3.1842780113220215, -2.7398035526275635, 6.679523944854736, 0.8006858229637146, -2.4380390644073486, -0.5072010159492493, 0.554475724697113, 1.1583229303359985, 5.930539131164551, -3.965465545654297, 1.1388182640075684, -1.9853177070617676, 0.9379881024360657, 0.8656432032585144, 4.5301289558410645, -2.863429069519043, -1.6781041622161865, 0.2722173035144806, 1.467152714729309, 0.9337095022201538, -2.0155768394470215], [1.8229495286941528, 1.0791972875595093, -3.7160744667053223, -2.9778130054473877, 2.8275907039642334, -4.402109622955322, -3.4109649658203125, 1.7343062162399292, 0.6774232387542725, 1.136759638786316, -4.847324371337891, -0.9708740711212158, 0.03483137488365173, -1.0350735187530518, -1.104164719581604, -1.9921878576278687, -1.6292320489883423, -0.43104857206344604, -1.1995694637298584, -0.6718108654022217, 2.5969905853271484, -2.2067995071411133, 1.8038957118988037, -0.2665756940841675, -1.1740304231643677, 5.157106399536133, -1.5625526905059814, 0.26401495933532715, 1.0726652145385742, -1.4800119400024414, -1.4146852493286133, 0.6997065544128418, -0.699324369430542, -0.5798186659812927, -0.9671146869659424, 0.8375728726387024, -0.6590712070465088, -1.0306464433670044, 0.04705296456813812, 0.472164511680603, -1.8045884370803833, -2.6585559844970703, -0.39697155356407166, -3.0762557983398438, -3.7242794036865234, 0.8747532367706299, -3.661606550216675, -0.8527102470397949], [-2.722104549407959, 0.27940040826797485, 0.09695535153150558, 2.2587504386901855, -0.6951609253883362, 2.9975554943084717, -1.9588737487792969, 6.280337810516357, -0.5601187348365784, 1.7491066455841064, -3.721897602081299, -1.503559947013855, 0.8302032947540283, -1.3102692365646362, -1.9003105163574219, 1.9202616214752197, -2.3378677368164062, -2.166322708129883, 2.6983225345611572, 2.5705835819244385, -1.103562593460083, -1.8874902725219727, 4.0673604011535645, -5.718492031097412, -0.15466716885566711, -3.148496627807617, 0.3699727952480316, -1.7898198366165161, -3.0800344944000244, -3.1219611167907715, 1.4557538032531738, -0.09831008315086365, -1.5922582149505615, 0.8208004236221313, 1.6309870481491089, 5.125766754150391, -4.544803142547607, 0.14462921023368835, -2.206717014312744, -3.336820602416992, 1.0540457963943481, 0.8715869784355164, 1.185149073600769, 1.181406855583191, 5.496186256408691, 0.1673775166273117, 1.1723719835281372, -0.3924272954463959], [3.3311429023742676, 2.229707717895508, 4.46174955368042, -0.7605610489845276, -2.275890588760376, -1.6578443050384521, -2.128599166870117, 0.5062612891197205, 1.7958447933197021, -1.4404710531234741, 5.412606239318848, -0.48492029309272766, -0.698867917060852, 3.413269281387329, 0.4342198967933655, 0.32202303409576416, 0.5221015810966492, 0.08927837759256363, 2.9097189903259277, -4.9749674797058105, -1.4482167959213257, -1.8219473361968994, -1.8226238489151, -2.8076860904693604, 5.098092555999756, -0.7841832041740417, -2.6194369792938232, 0.2956167459487915, 0.0615755170583725, -1.424363613128662, 4.193629741668701, -1.5329002141952515, -2.2795584201812744, 1.5789991617202759, -1.4755566120147705, -1.325047254562378, 0.2203928828239441, 2.658104658126831, -4.4976487159729, -3.757756233215332, -0.6360517740249634, -0.4384395480155945, -1.8146207332611084, -0.6475760340690613, -1.6953692436218262, 0.5976446270942688, 2.746361017227173, -3.064232349395752], [-3.144001007080078, 2.659278392791748, -2.3265674114227295, -1.0548992156982422, -2.485288143157959, 0.8858464360237122, -1.9989595413208008, 1.2828326225280762, -2.4879581928253174, -4.576160907745361, 0.33079949021339417, 3.241638422012329, -2.141685724258423, 1.538601279258728, 1.9508278369903564, 1.6515010595321655, -2.01877760887146, -0.09681087732315063, 1.8453137874603271, 4.639878273010254, -3.3179707527160645, -2.885601043701172, -0.8433425426483154, -0.5261898040771484, 3.0167760848999023, -1.3887141942977905, 2.004568099975586, 0.41541412472724915, -0.49348244071006775, -1.2389776706695557, 3.2488255500793457, -0.8455745577812195, 1.7632791996002197, -3.8301033973693848, -0.6511642336845398, 4.037669658660889, -1.3949192762374878, 2.441896677017212, -1.8018159866333008, 1.74125337600708, 0.5376602411270142, 2.583756923675537, 1.0213594436645508, -0.9985013008117676, 0.6249029636383057, 1.531342625617981, -1.2481839656829834, 0.05420466512441635], [-3.5445024967193604, -0.3625089228153229, 0.3682291805744171, -0.6417969465255737, -2.5693061351776123, 1.4438512325286865, -0.19472169876098633, 2.3933675289154053, 0.07257698476314545, -0.24822336435317993, -2.895709991455078, -0.28239643573760986, 1.8878917694091797, 2.4090285301208496, 3.6734654903411865, 3.537940740585327, -0.8899829387664795, -0.11438228189945221, -0.6394636034965515, -5.324368000030518, 2.100414991378784, 3.061063528060913, 1.660645604133606, 0.04786898195743561, -5.171130180358887, 3.8877971172332764, -6.581415176391602, -0.4442967176437378, 0.9690729379653931, -0.663722574710846, -0.8232764601707458, -0.9941709041595459, 0.8450220227241516, -2.589714288711548, -3.0881052017211914, -0.3447881042957306, -0.7950277924537659, 3.8863160610198975, 1.0186811685562134, -3.1223459243774414, -1.7184970378875732, 2.148301124572754, 2.2078804969787598, 1.5017974376678467, -5.596644401550293, 4.810320854187012, -1.9520512819290161, -0.016333051025867462], [-5.054739475250244, -1.8861253261566162, 1.6775908470153809, -1.1639072895050049, 1.642868995666504, -1.1953911781311035, 3.8751635551452637, 2.161125659942627, -1.9590935707092285, -2.6641831398010254, 1.2347456216812134, -0.801712155342102, 4.913630962371826, -0.9892066717147827, 6.164811134338379, -4.382853031158447, 0.9655641317367554, -0.187778502702713, 1.7982388734817505, 1.7416307926177979, -2.1155881881713867, -3.8586671352386475, -4.51853084564209, 2.7928502559661865, 1.8154685497283936, -0.46022355556488037, -2.0339298248291016, -0.21630173921585083, 0.5826781988143921, 3.1739065647125244, 0.43466922640800476, -3.780428171157837, -2.9929087162017822, -1.4312710762023926, 0.23392397165298462, 2.6920361518859863, 0.04810738563537598, 0.8670269250869751, -2.778252363204956, -1.21286141872406, -4.218811511993408, -0.6876667737960815, 2.8161380290985107, 1.0396783351898193, 0.25004470348358154, -2.476548433303833, -2.7757256031036377, -2.686436653137207], [-1.7801005840301514, -0.7525691390037537, -1.8727418184280396, -2.0937283039093018, -0.15264484286308289, -0.9046383500099182, 0.7180320620536804, 0.3224841356277466, -3.085023880004883, -1.0796926021575928, -0.6803966760635376, 0.3822668492794037, -3.259432315826416, 1.7382304668426514, 0.2442016452550888, -2.4302797317504883, -0.8231712579727173, 4.062554836273193, -4.97262716293335, 2.7081120014190674, -0.4573526084423065, 2.1742231845855713, -0.26661840081214905, -0.2434980571269989, 0.05384064093232155, 3.9085514545440674, -3.2120723724365234, -0.40615314245224, 0.19747218489646912, -0.4469534158706665, -0.9449357986450195, -0.3302859961986542, -1.3618464469909668, -1.8330247402191162, 3.247649908065796, 4.154003620147705, -1.4846969842910767, -1.3152331113815308, 4.922424793243408, -1.5327790975570679, -0.9571869373321533, 5.936637878417969, 2.5124876499176025, -2.26992130279541, -1.694191575050354, -2.063596248626709, -1.2833030223846436, -2.961656332015991], [-1.6695752143859863, 0.7399605512619019, 0.2413838654756546, -3.4520740509033203, 0.7235614657402039, 1.8462917804718018, -2.4179601669311523, 1.0899335145950317, -0.8921105861663818, 3.871762990951538, 3.5521233081817627, 1.741833209991455, 0.1853639781475067, 2.6346049308776855, 0.32228732109069824, 1.019562840461731, 5.023489952087402, 0.37587791681289673, -1.8201894760131836, 4.215170860290527, -0.20315298438072205, 0.5823701024055481, 6.622542381286621, 1.7831740379333496, -2.162174701690674, 0.31542274355888367, 1.0762207508087158, -1.41411554813385, 2.442711353302002, 1.3431546688079834, -1.1884111166000366, 1.1329327821731567, 0.23952370882034302, -2.5872385501861572, -1.4876766204833984, 1.4660694599151611, 4.217189311981201, -3.702859401702881, -0.8374651670455933, 4.3974714279174805, 0.23108206689357758, -1.2217994928359985, 0.1317548155784607, 0.3486175537109375, -1.8999356031417847, 1.659761667251587, 1.6013785600662231, -0.7258492112159729], [-1.4653944969177246, 3.817282199859619, 0.21862316131591797, 2.2677431106567383, -5.699634075164795, 0.6673275828361511, -0.45987027883529663, 3.6166019439697266, -0.2894752025604248, -3.0541365146636963, 0.6110114455223083, -1.265796184539795, 2.434656858444214, -0.557320237159729, -0.2932817339897156, 5.5092878341674805, -2.5102853775024414, -0.646765410900116, 2.246379852294922, 0.6264093518257141, 3.2866876125335693, 2.6974384784698486, -3.8860738277435303, -0.3961305618286133, 0.5307369828224182, 0.5167528986930847, -2.3329203128814697, 0.16763944923877716, 0.39755934476852417, 4.810546398162842, 0.24713319540023804, -2.4748449325561523, -3.859659194946289, -2.5795466899871826, 2.823678493499756, 0.7457141876220703, 1.8863199949264526, -3.840369939804077, -1.598351001739502, 3.410482406616211, 4.3234405517578125, -2.175677537918091, 0.8334702253341675, 1.736697793006897, -0.6274817585945129, -1.2414380311965942, 0.24722519516944885, -0.6670678853988647], [-0.05419209972023964, -1.0409560203552246, -3.0500283241271973, -1.6371817588806152, 3.798319101333618, -2.301486015319824, 0.6274259090423584, 2.3490793704986572, -1.7967277765274048, -0.15770620107650757, 0.7575117945671082, -0.10406800359487534, 7.067821025848389, -0.09814447164535522, 3.9689722061157227, 0.9900134205818176, -1.012787103652954, 0.5936170220375061, 1.689785122871399, 4.112791061401367, -4.61348819732666, 3.16753888130188, -3.6156601905822754, -4.622251510620117, -1.1003026962280273, -4.85797643661499, 1.9013363122940063, -1.0432860851287842, -0.016697071492671967, -0.1327461451292038, -3.991718053817749, -4.4350080490112305, 0.4526321291923523, -1.5169082880020142, -0.14818546175956726, 3.180595874786377, 2.9243664741516113, 0.3998910188674927, 1.6946768760681152, -1.2069594860076904, 1.3575656414031982, 5.016547203063965, 2.122567892074585, -3.4661362171173096, 2.493821144104004, -0.6025025248527527, 1.6567987203598022, 0.9875868558883667], [0.7792266011238098, -1.3301503658294678, 0.12245942652225494, 0.3031911551952362, -0.5288815498352051, -3.4575188159942627, -1.3463751077651978, 3.857741355895996, 2.155174732208252, 4.1279520988464355, 3.232417583465576, 0.20166826248168945, 1.2865684032440186, 2.729565382003784, -0.17557823657989502, 4.197119235992432, 1.660356879234314, -0.28412026166915894, -0.4583583176136017, 2.1996419429779053, -1.6738996505737305, 0.36859941482543945, 2.103886127471924, -1.4277267456054688, 1.76109778881073, -1.1421513557434082, -0.6939892172813416, -2.8525218963623047, 1.1515917778015137, -2.002101421356201, -4.4814839363098145, -3.560807943344116, -3.6698086261749268, 2.9972145557403564, -1.5888828039169312, 2.470571279525757, -0.032609060406684875, -0.21095585823059082, -1.5093233585357666, 0.1102771982550621, -1.083574891090393, 0.33347272872924805, 1.9888639450073242, -1.4605655670166016, 4.687525749206543, 2.840141773223877, 0.4605099558830261, 2.282397747039795], [-0.21961914002895355, -0.15801848471164703, 2.0823352336883545, -1.8680773973464966, 3.3415699005126953, 5.22703742980957, 5.390182971954346, 3.939517021179199, -2.4589927196502686, 0.4813883304595947, 3.01259708404541, -5.071540355682373, -2.374260425567627, -4.592264652252197, 4.137997627258301, 1.8706601858139038, 0.7673574686050415, 2.4432907104492188, 1.2529351711273193, -1.987213134765625, 0.9415184855461121, -1.4086761474609375, -1.2176649570465088, 0.28504040837287903, 2.0502219200134277, 7.744657516479492, -2.3102283477783203, -1.0603748559951782, -2.442216396331787, -2.1291584968566895, 1.1245383024215698, -0.2105824053287506, -0.8517155647277832, 1.661247968673706, -0.5567253828048706, 0.23021844029426575, 3.1449577808380127, 1.8359057903289795, 2.6740880012512207, 1.67367684841156, -3.8463878631591797, 0.7768748998641968, -4.854282379150391, 0.19972699880599976, 4.820751667022705, 1.4033935070037842, 4.086842060089111, -0.9243105053901672], [-0.3138163387775421, -2.410026788711548, -1.4744383096694946, 0.583428680896759, -1.703352689743042, 0.42139729857444763, 0.03757806122303009, -0.3857123851776123, 1.9097360372543335, -1.0107688903808594, -1.6244406700134277, -0.4389053285121918, -2.8159828186035156, -1.2802037000656128, -1.16654634475708, -0.4122112989425659, -1.3754491806030273, 3.8946497440338135, 0.14090125262737274, -3.9499263763427734, 2.4516282081604004, 1.5463182926177979, 0.3222636580467224, 1.3952281475067139, -2.0691092014312744, 0.5764000415802002, -0.9175947308540344, -1.8604342937469482, -0.5784318447113037, -1.4064704179763794, -6.059798240661621, 2.3121845722198486, 0.8262106776237488, 0.3033621609210968, -1.3243409395217896, -3.6907308101654053, -2.7185542583465576, 1.3776378631591797, 3.4930386543273926, -1.2607380151748657, -3.174567222595215, -1.632043719291687, -0.2853950262069702, 0.5254325866699219, -0.012169059365987778, 1.4122192859649658, -0.9783932566642761, -1.6281161308288574], [-0.2566704750061035, 3.584498643875122, -1.1564587354660034, -0.9383544921875, 0.8372045159339905, -3.3598568439483643, 1.5899995565414429, 3.501272439956665, -0.5176689028739929, 2.6035337448120117, -0.5365986227989197, 0.21022740006446838, -2.4305260181427, 0.916162371635437, -0.16422805190086365, 3.0325615406036377, -0.45432978868484497, -0.8952045440673828, -4.166529178619385, -2.463893175125122, -1.23888099193573, -3.457472324371338, 1.1116188764572144, 1.5622178316116333, 2.956174612045288, -2.270658493041992, 4.481083869934082, -0.25363436341285706, 1.2951979637145996, -3.252068519592285, -5.337369918823242, -7.905230522155762, -0.11033672094345093, 0.2555951178073883, 0.07637147605419159, 0.8124779462814331, -1.4423046112060547, 4.114487648010254, -0.7298018336296082, -1.6781980991363525, 1.7780557870864868, -2.708651065826416, 4.083308219909668, -0.09527916461229324, 2.932446241378784, -0.302992045879364, 1.1615862846374512, 2.9292874336242676], [1.0585449934005737, -2.331622838973999, -0.021039769053459167, 0.025071166455745697, -0.48813700675964355, 0.9558695554733276, 4.276134014129639, -1.587469220161438, -0.3765582740306854, -1.5942755937576294, -0.11352259665727615, -0.9364834427833557, 4.195624351501465, -0.7128593325614929, -2.279352903366089, 2.3979651927948, 3.8187453746795654, 0.7870503067970276, 3.289870262145996, -0.10912786424160004, 1.6627490520477295, -4.202024936676025, 1.2375164031982422, 0.6037501692771912, 2.426384925842285, -2.6673038005828857, -1.503673791885376, -1.4763609170913696, -1.53362238407135, 1.0463342666625977, 5.606287956237793, 1.9630992412567139, 1.8496288061141968, -2.6078429222106934, -1.2917143106460571, 0.390926718711853, 2.3167364597320557, -4.340388298034668, -0.8530496954917908, -0.9407158493995667, 3.3613791465759277, -2.1807003021240234, -1.0535259246826172, 1.0775487422943115, 3.314253807067871, -2.230487585067749, -1.2802441120147705, 0.5681136846542358], [-1.063109040260315, 2.8094022274017334, -0.762859046459198, 4.289361476898193, 1.3838754892349243, -2.2004542350769043, -0.21527190506458282, -0.10087848454713821, 2.4924914836883545, 0.4987085461616516, 0.9465749263763428, 0.709809422492981, -1.8335237503051758, -4.068076133728027, 0.9004438519477844, -0.008298229426145554, 3.048903465270996, 0.42469847202301025, 2.28202486038208, 0.8062325716018677, -2.068140745162964, -3.6228060722351074, 0.030419986695051193, -5.957732200622559, -1.283489465713501, 2.481276273727417, 0.20725642144680023, 3.30210542678833, -0.8960909247398376, 0.7987931370735168, -2.4373085498809814, -1.1658554077148438, 1.8433645963668823, -0.8686965107917786, 0.18722553551197052, 1.9126228094100952, 0.37162965536117554, -3.407054901123047, 3.4933342933654785, -1.3629260063171387, 2.299191474914551, -0.8734240531921387, -0.9709182381629944, -0.600743293762207, 2.8706324100494385, 1.0811392068862915, 3.5620815753936768, -0.5946778059005737], [0.9545522928237915, 2.215211868286133, -1.0031650066375732, 0.5432394742965698, 2.570995807647705, 0.2421848326921463, 4.027761936187744, -0.6608390212059021, 0.5271371603012085, -1.0604891777038574, 1.0311576128005981, 0.8148627281188965, -5.610858917236328, 0.6311190128326416, -1.0465617179870605, -2.6132493019104004, -0.03130129352211952, 1.3537627458572388, 1.6401941776275635, -1.3140822649002075, -2.4629533290863037, -5.191331386566162, -0.6020488739013672, -2.9095282554626465, 3.3979766368865967, -0.4027268588542938, 0.6709111332893372, -2.5456631183624268, -0.3911948502063751, 0.32368379831314087, 1.2452362775802612, 2.522569417953491, 2.1085240840911865, -1.570603609085083, 2.8265328407287598, -2.9918124675750732, 5.146510124206543, 1.4695476293563843, 1.978848934173584, 0.1512385904788971, 1.6811846494674683, -5.049413204193115, 4.782674789428711, -1.9092775583267212, -0.04880625009536743, 4.252877712249756, 1.6273887157440186, 1.679882287979126], [3.9969542026519775, 0.9876341223716736, -2.406815528869629, 0.9954199194908142, -2.100501537322998, 3.7953269481658936, 0.11435683071613312, 1.3338351249694824, -4.47916316986084, -3.452291250228882, 1.6043809652328491, 2.1889147758483887, -0.886696994304657, -1.629446029663086, 2.4789047241210938, -1.9106773138046265, 0.05214910954236984, 0.5821933746337891, -0.0964612066745758, 0.5203698873519897, -1.3752096891403198, -1.4935270547866821, -1.819331407546997, 0.35975319147109985, 1.7108525037765503, 0.9334230422973633, 0.6018660664558411, -2.924424648284912, -5.200324535369873, -3.360269546508789, -0.625074565410614, -1.7611737251281738, -1.7275222539901733, 2.650519609451294, -3.393200397491455, -2.410733461380005, -0.7219377756118774, 0.7867437601089478, -2.137983798980713, -3.068552017211914, -5.077022552490234, -0.13452990353107452, -2.379859209060669, -2.403960943222046, 0.2750302851200104, -0.07202678918838501, -1.0135596990585327, -3.44956374168396], [-1.8135299682617188, -2.0607705116271973, 0.8505529761314392, 0.07834473252296448, 0.9333308339118958, 3.7296903133392334, -0.44725561141967773, -0.9981498122215271, -0.11960332840681076, 0.9415766000747681, -2.6627140045166016, 2.7834432125091553, 5.621929168701172, 1.3008484840393066, 3.117619514465332, 0.5245327353477478, 0.30073294043540955, 3.1065142154693604, -1.8237113952636719, -3.3195061683654785, 0.5127062797546387, -0.03183677792549133, -1.3123986721038818, 3.205509662628174, -1.373901128768921, 1.7973929643630981, 1.115488886833191, -1.7672443389892578, 0.7539752125740051, -2.062969207763672, -2.3583695888519287, 2.1320674419403076, 5.243005752563477, -1.195039987564087, 2.8048737049102783, -3.462317943572998, -2.2484612464904785, 1.2502262592315674, -0.60431969165802, 1.1866320371627808, -4.803485870361328, 2.588365316390991, -2.043003797531128, -3.464111089706421, -0.5170538425445557, -0.850046694278717, -2.3033063411712646, 1.3378891944885254], [-1.2322548627853394, 2.1492202281951904, 1.8197592496871948, 0.42232781648635864, 3.8955841064453125, -2.4210362434387207, -1.7775696516036987, -0.28764569759368896, -0.39000123739242554, 2.8051505088806152, 2.478381633758545, -2.92075514793396, -5.2322540283203125, -1.1819651126861572, 3.287757158279419, -0.01275864988565445, 0.9109013080596924, 0.9544947743415833, 3.4589219093322754, -1.822192668914795, 1.6237512826919556, -2.14743709564209, -0.173075333237648, -2.433948040008545, 1.2112520933151245, -0.8742272257804871, -3.945803642272949, -0.495485782623291, 1.257139801979065, 4.658864498138428, 3.257296085357666, -1.7272976636886597, -4.615476608276367, -2.856295347213745, 2.3764801025390625, -0.36764591932296753, 3.3397839069366455, 0.8687447309494019, -0.3582019805908203, -0.027946200221776962, -1.5989383459091187, -0.8119229674339294, -1.0766160488128662, -1.9114550352096558, 1.3308912515640259, -0.30842673778533936, 0.6511988043785095, -0.8476973176002502], [-0.13799118995666504, 2.5977635383605957, 4.085736274719238, 1.6865532398223877, 0.7170915007591248, -2.2680816650390625, -0.02859533578157425, -0.3979499340057373, -2.6451187133789062, 1.8492481708526611, -4.054153919219971, -1.5646467208862305, -0.9479124546051025, -0.4096217155456543, -4.47361946105957, 1.7984685897827148, -2.215669631958008, -2.326395273208618, -1.8025181293487549, 3.172208309173584, -2.1397202014923096, 2.2752416133880615, -2.4970996379852295, -0.8440724611282349, -1.8059773445129395, 3.3806583881378174, 3.2911882400512695, 0.6520958542823792, -2.498750686645508, -4.60533332824707, 0.11652731150388718, 3.6339118480682373, -2.6597347259521484, 0.24983824789524078, 1.163821816444397, -0.5655065774917603, 0.627421498298645, 0.519529402256012, -0.6982752680778503, -1.116358757019043, 2.1455037593841553, 1.0860315561294556, 1.0722280740737915, 1.2628731727600098, -3.288522243499756, -2.163501501083374, 6.410500526428223, 1.5713346004486084], [3.8992161750793457, -1.281077265739441, -4.233325958251953, 2.4673280715942383, 0.6219710111618042, -0.5004405975341797, -3.9189252853393555, -3.2269113063812256, -4.0625200271606445, -1.5029417276382446, -1.8636269569396973, 1.123849868774414, 0.5995981693267822, -2.799417734146118, 1.1488878726959229, -0.8972378373146057, -2.438591241836548, -4.511809825897217, -1.7849596738815308, -0.9120509624481201, 0.13351225852966309, -3.2112903594970703, 0.13640637695789337, -0.5520401000976562, 0.7617281675338745, 2.885802984237671, -4.132444858551025, -2.3979203701019287, -1.5236579179763794, -1.3487333059310913, -2.3646960258483887, -1.3484761714935303, 5.940696716308594, 5.697504043579102, -1.599790096282959, -0.009243950247764587, -5.316850185394287, 5.071043014526367, 3.444216012954712, -0.024363458156585693, 0.40140625834465027, 3.0272974967956543, -1.4218697547912598, -1.7970860004425049, 3.4545857906341553, -0.02131456881761551, 1.617545247077942, -1.6590451002120972], [0.5135870575904846, 0.1638605296611786, 0.6406574249267578, 0.5270361304283142, 0.03528064489364624, 0.5104228258132935, -0.5518456697463989, -1.3791437149047852, -5.560171604156494, 0.5289403200149536, 2.4228644371032715, -0.2811589539051056, -0.23048827052116394, 0.09972835332155228, 1.1203432083129883, 1.0249663591384888, -1.8689347505569458, 0.7954635620117188, -0.1434134542942047, -1.6183189153671265, 2.1089301109313965, 1.3369613885879517, -2.815429449081421, -1.6776981353759766, 1.2169324159622192, -0.6235626935958862, -1.594881296157837, 4.647700786590576, 3.205625534057617, -0.2104991227388382, -1.0508784055709839, -3.7345023155212402, 0.6803249716758728, 2.601208448410034, -3.936657190322876, -1.7497121095657349, 3.1616926193237305, 2.902385950088501, -2.205557346343994, 2.188694477081299, -0.67451012134552, -2.430203914642334, -0.41633340716362, -3.013195753097534, -1.3971099853515625, -4.2412872314453125, 4.141439914703369, -0.2957572937011719], [0.5482622385025024, -6.476284980773926, -1.6733230352401733, -0.3658125400543213, 4.403671741485596, -0.9098076224327087, -1.9312939643859863, 0.9550201892852783, -1.8926416635513306, 0.04766659438610077, 0.5087471008300781, -1.0470011234283447, 0.47011399269104004, -2.0299112796783447, -1.9061152935028076, 0.3089071810245514, 1.8960996866226196, -5.611924648284912, 1.5844308137893677, -1.812620997428894, 0.023138783872127533, 2.506753921508789, 3.2326807975769043, -2.9126343727111816, -0.22735823690891266, -2.794361114501953, 4.239490985870361, 2.3325040340423584, -0.28277456760406494, -1.0617550611495972, 0.3145952820777893, -1.462099313735962, 2.374199867248535, 1.4647387266159058, -0.5844876170158386, 0.7844203114509583, -1.1227360963821411, 2.0192203521728516, 0.10880382359027863, -0.9493056535720825, 1.5122976303100586, -0.020016998052597046, 0.1742359697818756, 2.6295223236083984, -0.1545550525188446, 0.49251964688301086, 0.5487414002418518, -1.1321924924850464], [-2.7524099349975586, 0.8528888821601868, 3.5067245960235596, -1.4860960245132446, -0.933083176612854, 0.7863141894340515, -0.1955035924911499, 3.50403094291687, -3.5092151165008545, 0.8089244961738586, 0.11504630744457245, -0.6232872009277344, -2.797502040863037, 0.43745046854019165, 2.5466887950897217, 1.458229422569275, 0.44319769740104675, -1.2369505167007446, 0.1519337296485901, 1.260949969291687, -1.7214349508285522, -0.654056966304779, 1.0607988834381104, 0.03567555174231529, -6.242753028869629, 1.5010719299316406, 2.454662322998047, 3.6811482906341553, 0.12703683972358704, -2.476288318634033, 1.2177996635437012, 1.161054015159607, 2.627977132797241, -2.741030216217041, 1.7426531314849854, -4.890991687774658, -2.540780544281006, 1.2272611856460571, 4.386850357055664, 0.11560377478599548, -3.0508084297180176, -0.567857563495636, -0.1493971347808838, 0.018773727118968964, 2.2451822757720947, 2.940521478652954, -3.0737247467041016, 3.8806474208831787], [-3.1179118156433105, 4.359466075897217, 2.5011441707611084, -1.2945612668991089, -0.271638959646225, 1.36174738407135, -0.5101560354232788, 4.445685386657715, 3.450895309448242, 0.04718371853232384, -2.1154184341430664, 0.04064292088150978, 1.9892585277557373, 0.18079936504364014, 2.272465229034424, -1.4817360639572144, 0.5895395874977112, 1.3748767375946045, 0.8823238611221313, -2.306091785430908, -2.9195644855499268, 1.4512571096420288, 0.08780655264854431, 0.4439891576766968, -2.4212727546691895, 0.3003392815589905, -1.671416163444519, -0.8663257360458374, 5.152615070343018, -1.33737313747406, -0.5154324769973755, -1.7912667989730835, 3.593374729156494, -1.7921768426895142, 2.0884029865264893, -1.1795308589935303, 2.0935165882110596, 0.5355345606803894, -2.941261053085327, 0.6805781722068787, -3.409618854522705, 0.8042469024658203, 2.046956777572632, -3.3064026832580566, 6.071169853210449, -0.13707874715328217, -0.17217852175235748, 1.8264414072036743], [1.246789813041687, 2.2588419914245605, -2.4815781116485596, 3.3822195529937744, -0.4544222354888916, 5.279014587402344, -1.9945815801620483, 3.9926047325134277, -4.675131797790527, -1.4394173622131348, 2.971235752105713, -2.0116353034973145, -3.4071531295776367, 0.5383140444755554, -1.176306962966919, 1.2362306118011475, -3.6954586505889893, -3.095628023147583, 1.3543756008148193, -2.827585458755493, 6.257282257080078, -0.36104172468185425, -0.25860005617141724, 2.481618881225586, 2.3094911575317383, -0.7103592753410339, 2.2860288619995117, 1.3927384614944458, 1.453611969947815, 0.17780736088752747, -2.286012649536133, 2.099458932876587, 1.7772471904754639, 2.5095767974853516, -1.08475923538208, 1.0806623697280884, -2.332845687866211, 1.8675711154937744, 1.766960859298706, 3.0437240600585938, 0.4897485375404358, -2.4293670654296875, -3.039757013320923, 2.1185505390167236, 0.09788285940885544, -2.5259203910827637, -0.2938719093799591, -2.982855796813965], [7.384383678436279, -1.3524831533432007, 2.421060800552368, 1.3761180639266968, 2.5121283531188965, -1.2429641485214233, 0.7186627984046936, 0.5960163474082947, -4.254059791564941, 1.8097584247589111, 3.3865325450897217, 5.583614349365234, 4.2522101402282715, 0.0898398831486702, 0.6341248750686646, 0.006939150393009186, -2.1736042499542236, -1.4943881034851074, 0.5970849990844727, 1.6365982294082642, -1.262378454208374, 4.808727741241455, 1.4041920900344849, 0.7248891592025757, -2.665426731109619, 1.1008867025375366, 2.432465076446533, -2.3003621101379395, -0.9731321930885315, 1.2880585193634033, 2.8383889198303223, -6.1544599533081055, -5.158516883850098, -0.515522837638855, -1.7323460578918457, 1.2264801263809204, -2.321685314178467, 1.8262752294540405, -2.6545820236206055, -1.8449500799179077, -4.672649383544922, 1.684264063835144, 1.0675292015075684, 1.1128157377243042, -0.642924427986145, 1.1904492378234863, -0.46245089173316956, -2.8212835788726807], [-1.3205771446228027, -1.528507113456726, -0.21798333525657654, -4.598891735076904, 0.15036150813102722, -1.4879345893859863, -0.32131898403167725, -1.0493773221969604, 0.9785240292549133, 2.884730577468872, 1.845481038093567, 3.20039439201355, 2.8514554500579834, -1.6618508100509644, -3.452150821685791, -0.5618129968643188, -4.868504047393799, 1.1827802658081055, 3.8368847370147705, -3.0630874633789062, -0.4201642870903015, 0.21539458632469177, 3.6089932918548584, -3.5552117824554443, 2.0443732738494873, 4.454451560974121, 2.3549225330352783, 2.37799334526062, 0.51694655418396, -1.5676404237747192, -0.40034565329551697, -0.8144305944442749, -3.262991428375244, -1.1063544750213623, 3.175936222076416, 0.09442000836133957, -2.436845541000366, -2.6173763275146484, 2.426151752471924, -3.2301838397979736, -1.3646656274795532, 2.330012798309326, 2.3161184787750244, 5.234034538269043, 3.336472988128662, 0.5637357234954834, 0.6298485398292542, 0.0015326961874961853], [-3.7933156490325928, 3.238769292831421, 0.8528302907943726, -0.45056650042533875, 1.2782176733016968, -3.3182098865509033, -0.8895740509033203, 1.665261149406433, -1.2938131093978882, 0.40976405143737793, 0.6683082580566406, -0.4801505208015442, -3.5322394371032715, 0.9186463356018066, 0.5857464671134949, 1.1272369623184204, 0.9045719504356384, 1.6175165176391602, 1.1210219860076904, 2.8813791275024414, 1.7328054904937744, 1.4301974773406982, 0.5438979268074036, 0.9961098432540894, 2.7218494415283203, 1.666006088256836, -2.70949125289917, 1.0573593378067017, 4.778183937072754, 2.0964150428771973, -0.1730562150478363, -0.7859712839126587, -0.8423787355422974, 2.9127674102783203, -3.83039927482605, 0.9604647755622864, -3.431434392929077, 2.3405792713165283, -1.2937034368515015, -4.532864093780518, 3.0834293365478516, -6.456085205078125, 1.2637087106704712, 1.397903323173523, 2.227231025695801, 1.2973823547363281, 0.40347081422805786, 1.0181330442428589], [-0.8658381104469299, 3.8450565338134766, 1.4739130735397339, 2.2069644927978516, 1.4820468425750732, 1.0601465702056885, 0.1731535643339157, 0.6396905183792114, -2.189209222793579, -2.2095038890838623, -1.167356014251709, 0.9172972440719604, 1.1523321866989136, 1.5145901441574097, -1.7513723373413086, 2.1967289447784424, -1.6735581159591675, 2.078739643096924, 2.689422607421875, -1.0143014192581177, 1.237478494644165, 2.0847814083099365, -1.9826411008834839, -0.9200681447982788, -0.687944769859314, 1.757176399230957, 2.577440023422241, -2.051495313644409, -0.5934839248657227, -1.7960156202316284, 0.034360453486442566, 3.0985679626464844, -0.6834049224853516, 0.33219456672668457, -0.32424208521842957, 0.12800391018390656, -0.6065227389335632, 1.567989468574524, 2.171330690383911, -0.11150059103965759, 2.712428092956543, 1.8369712829589844, -0.31765347719192505, 0.04925048351287842, 0.16872340440750122, 1.9554003477096558, -3.548610210418701, 2.9316294193267822], [1.3617135286331177, 2.282848358154297, -1.9075123071670532, 0.19902360439300537, 3.002983808517456, -2.1498823165893555, 3.518517017364502, 2.4857301712036133, -3.1711180210113525, -2.145454168319702, -3.5499930381774902, 0.08450086414813995, 1.6816394329071045, -1.3162636756896973, 2.0084195137023926, -3.6037518978118896, 1.7711470127105713, 0.7855576276779175, -2.4467055797576904, 0.9107472896575928, -2.3140175342559814, 3.8808414936065674, -1.1309518814086914, 0.27312085032463074, -1.461775541305542, -2.4129979610443115, -1.778835415840149, -2.195117950439453, -0.789799690246582, 0.12499235570430756, -3.0712099075317383, -2.1410024166107178, -2.639187812805176, 0.8390238881111145, -3.745060920715332, -3.493643283843994, 0.17203308641910553, -2.7457633018493652, 2.0305423736572266, -2.3790273666381836, 2.3092615604400635, -1.6147124767303467, 1.0829689502716064, -4.258528709411621, 0.6752496361732483, 3.6114349365234375, 2.884770393371582, -0.09709629416465759], [0.6702851057052612, 1.702390432357788, 0.9802007675170898, -0.6731370091438293, 0.7207697033882141, -1.1807844638824463, -1.4625259637832642, -0.5093390941619873, 1.6777724027633667, 0.4477129578590393, -1.2337998151779175, -0.3642005920410156, -2.1992201805114746, -1.2005897760391235, -2.010202646255493, -6.235986709594727, 4.413658618927002, 6.937796592712402, -0.41670042276382446, -0.9497103095054626, 2.0913634300231934, -0.18301120400428772, -0.7465928792953491, 3.5169284343719482, -1.985439419746399, 2.7299914360046387, -0.011096592992544174, 2.7240545749664307, -0.07507065683603287, -3.600318193435669, -0.21136119961738586, -3.255723476409912, -2.6899123191833496, -1.3486416339874268, -1.686821460723877, -0.37016671895980835, 2.532331943511963, -1.0640692710876465, 0.11969465762376785, 0.7478325366973877, 3.351963996887207, 1.1751090288162231, -0.5835979580879211, -0.5987719297409058, -1.1043946743011475, -0.02383188158273697, 2.5048704147338867, 0.6468040943145752], [-3.0622706413269043, -1.5550003051757812, -1.6480096578598022, 5.392611503601074, -1.6578376293182373, -3.541905641555786, 0.5908346772193909, 2.176891565322876, 0.6230535507202148, 2.1101701259613037, -1.153986930847168, 1.1643786430358887, -4.626320838928223, -0.8589425086975098, -4.400064945220947, -0.39407452940940857, 2.050963878631592, -4.208755970001221, -1.6859549283981323, -2.695150136947632, -2.2251265048980713, 0.6804990768432617, 2.5916876792907715, 0.07292909175157547, -0.11284506320953369, -0.5023858547210693, -2.6472156047821045, -3.167534828186035, -5.55540657043457, -0.21461085975170135, -0.6878899335861206, -2.324805498123169, 2.319451093673706, 1.9820632934570312, -1.8149142265319824, -0.1767515242099762, -1.5461900234222412, 0.11480692774057388, 1.3973151445388794, -3.249208450317383, 0.8079752922058105, 0.49942654371261597, 1.2832484245300293, 2.0720813274383545, -2.313443422317505, -0.9554451704025269, 2.093552827835083, 3.0599801540374756], [1.1902521848678589, -2.7584328651428223, 0.2158195674419403, 1.6501085758209229, -1.8349369764328003, 0.004336744546890259, -3.6103010177612305, -0.9096284508705139, 1.2288421392440796, -0.995456337928772, 1.300926685333252, 0.4351416826248169, 0.3434106707572937, -2.0391600131988525, -0.2555493414402008, -4.26231050491333, -0.23198549449443817, -0.9244533181190491, -4.181396961212158, -2.48085618019104, 1.6896425485610962, 5.39852237701416, -0.24478647112846375, 3.142918825149536, -2.5590033531188965, 1.4459160566329956, 0.14514334499835968, 0.23266693949699402, -1.7793926000595093, 2.122507095336914, -2.750028610229492, -1.7270842790603638, 1.0197397470474243, -0.5793350338935852, -4.469820022583008, -1.8691434860229492, 1.6032395362854004, 3.787210464477539, 0.7894821166992188, 0.12739846110343933, -7.498653411865234, 2.9531970024108887, 1.5251741409301758, -2.388685703277588, -1.4492546319961548, -1.6179444789886475, 1.6443824768066406, -1.0079445838928223], [-3.570570945739746, 4.338228702545166, -0.873846173286438, -1.8763587474822998, 0.5032185912132263, 1.9404321908950806, 1.2295657396316528, -0.03753962367773056, 0.2607141435146332, -2.5720748901367188, 3.0557382106781006, -1.9200944900512695, 0.8189697265625, 0.1489219218492508, -2.4070262908935547, -1.0515038967132568, -0.2977358102798462, -0.21012082695960999, 0.7997058033943176, -0.21450275182724, -2.253816843032837, -3.226398468017578, 3.789348602294922, 1.490261435508728, -3.7419164180755615, 1.5417160987854004, -2.3184752464294434, 1.1952508687973022, -3.4985203742980957, 0.09240993857383728, 0.613723874092102, 3.9133615493774414, -0.1364835798740387, 2.8075804710388184, 0.07537870854139328, 1.4621624946594238, -2.6499311923980713, 2.383283853530884, 2.7245657444000244, -2.5639097690582275, -5.206088066101074, -0.5240705013275146, -1.7764418125152588, 0.48619794845581055, -1.0191969871520996, -0.7110495567321777, -2.789581298828125, -0.6473324298858643], [-2.037764549255371, -1.9916472434997559, 0.17914332449436188, -3.8733150959014893, 1.4346431493759155, 1.0355863571166992, 1.3122954368591309, -2.392167806625366, 3.688821792602539, -1.6452548503875732, 0.4036977291107178, -1.160410761833191, 2.047321081161499, -0.9741647243499756, 0.46455514430999756, -1.4088599681854248, -0.40700992941856384, 1.9083608388900757, 0.15152700245380402, 2.4799325466156006, 0.47410842776298523, -1.9186458587646484, 1.0779221057891846, 0.7842411994934082, 0.668440043926239, 1.4451018571853638, -1.2727230787277222, -1.5374600887298584, 2.7254385948181152, -0.03095577284693718, 3.8207623958587646, 0.5115728974342346, 0.27481406927108765, 3.3580737113952637, 2.3427846431732178, 0.9592623114585876, 3.91439151763916, -0.7940172553062439, 2.8376383781433105, 0.025737103074789047, 3.7877602577209473, -1.7100234031677246, -4.1443681716918945, -0.5689821243286133, -1.1263411045074463, -4.065450668334961, 2.465118408203125, 1.064337968826294], [0.08662594854831696, 3.3570685386657715, -4.442112922668457, -1.11606764793396, 3.144524097442627, 1.2866992950439453, 1.6955896615982056, -3.3462374210357666, 1.0407110452651978, 0.7553451061248779, 1.193595290184021, 5.0452117919921875, 2.1201424598693848, 2.80228590965271, -1.9228917360305786, 1.950223445892334, 2.5499489307403564, -3.119248390197754, 0.7592263221740723, 1.3841828107833862, 0.5833699107170105, 0.16854506731033325, -2.939775228500366, 3.787075996398926, 1.6793467998504639, -2.1986727714538574, -6.191993713378906, -0.6782234907150269, -0.6122427582740784, -0.944923460483551, 3.8212194442749023, 0.9723454117774963, 0.7147960662841797, -2.0146772861480713, 0.03654692322015762, -0.8507450222969055, 1.7429981231689453, -1.023016333580017, -3.058999538421631, 3.92502498626709, -2.3085343837738037, -4.3806471824646, 0.34875863790512085, 2.4979467391967773, 0.3150443136692047, 2.228336811065674, -0.9995866417884827, -2.2122585773468018], [2.1374337673187256, -2.144862651824951, 0.05085242539644241, -1.922953486442566, 1.1279642581939697, 0.9798402190208435, -2.3519175052642822, -1.144372582435608, -2.64170241355896, 1.1378008127212524, -0.054319772869348526, -3.188687324523926, 2.5125210285186768, -2.6288747787475586, 3.113421678543091, 1.9237396717071533, 2.9878759384155273, 0.3543878197669983, 1.4988244771957397, -0.008278056047856808, 0.38064077496528625, 5.104925155639648, -2.9691226482391357, 0.8904069662094116, 0.5592468976974487, 1.5266302824020386, -3.3905348777770996, 2.853821039199829, -1.1389391422271729, 2.0449059009552, -2.2204604148864746, 1.1738568544387817, 0.012007184326648712, -3.0596723556518555, -1.6550241708755493, -0.6081283688545227, -0.1197333037853241, 3.6650898456573486, 4.101522445678711, 0.7939963936805725, -0.18304668366909027, 2.054670810699463, -4.036076545715332, 0.522913932800293, 3.6393094062805176, 0.030588753521442413, 1.6898270845413208, 5.0078277587890625], [0.3883172273635864, 2.2233431339263916, -1.063392996788025, 2.9096829891204834, 2.424689292907715, 3.4528443813323975, -1.491000771522522, 4.490402698516846, 1.7498635053634644, 0.2657676041126251, 1.8767187595367432, 1.2851159572601318, -3.308250665664673, 4.109413146972656, -0.4676128327846527, 0.396106094121933, 1.0385029315948486, 0.5911595821380615, 0.5481177568435669, 1.650932788848877, -3.177645683288574, -0.8911974430084229, -0.8263136148452759, 3.4158167839050293, 1.4878286123275757, 0.5666470527648926, 4.725515842437744, 2.2192955017089844, -0.44571322202682495, 3.1510202884674072, -0.1320679783821106, -2.7992725372314453, 4.179838180541992, -0.235173761844635, -0.23931074142456055, 0.19795922935009003, -5.920316219329834, -2.0536155700683594, -3.7723729610443115, -0.6894256472587585, 0.7684726715087891, -2.331594467163086, 3.313727617263794, -0.7397522330284119, 1.6421608924865723, -2.1787657737731934, 2.8483128547668457, -0.6462126970291138], [1.1298514604568481, 4.32036828994751, 1.1169040203094482, 1.1839001178741455, 1.4523741006851196, 0.3891264796257019, 3.1553261280059814, -4.0780744552612305, 0.027352042496204376, -1.0243778228759766, -1.7029509544372559, -0.7562152147293091, -3.534766435623169, -4.9754958152771, -1.6115769147872925, -0.6455792784690857, 0.022470302879810333, -2.74184513092041, -2.9444122314453125, -1.5345567464828491, 2.4126522541046143, -3.0680179595947266, 1.4976297616958618, -1.8434890508651733, -1.9050825834274292, 3.7656166553497314, 2.042203426361084, -0.9155752658843994, 3.222283124923706, 0.06738783419132233, -0.7566820383071899, -1.1778041124343872, 0.5463533401489258, 3.4817421436309814, 2.8411483764648438, 3.090705394744873, -0.19596587121486664, -3.530132293701172, -2.6306588649749756, 2.5349631309509277, -0.676720142364502, -3.6753945350646973, -5.549011707305908, -5.251143932342529, 1.0714157819747925, 0.24820613861083984, 0.8291798233985901, -2.7559974193573], [1.5231274366378784, 1.452903389930725, 2.39196515083313, 0.2509358823299408, 1.3096481561660767, 4.423603534698486, 1.2199290990829468, -2.0057878494262695, 1.5885870456695557, -1.6160138845443726, -1.238619327545166, 2.9250407218933105, -2.7770004272460938, 1.7804850339889526, 5.63401985168457, -5.07380485534668, -1.581843376159668, -0.9680649042129517, 2.7912979125976562, 0.10478039085865021, -0.8397009968757629, -2.905482053756714, 4.007967472076416, -0.6548808813095093, -0.1535094678401947, -2.4537932872772217, -1.7745473384857178, -0.2967170476913452, 0.10027442872524261, 0.1741572469472885, -2.885075807571411, -1.2185518741607666, -0.9856843948364258, -3.0432658195495605, -0.8836730122566223, 6.05435848236084, 1.913222074508667, -0.5700393915176392, 3.8544158935546875, 4.340152263641357, 0.0573890395462513, 0.40582290291786194, 1.2697398662567139, 2.0859789848327637, -0.45041024684906006, 2.9962387084960938, -2.847949981689453, -0.7579500079154968], [3.712596893310547, 3.7228009700775146, -0.9298847913742065, 0.4290429353713989, -2.7291228771209717, 1.046648621559143, -1.5727044343948364, -1.7548925876617432, 5.348559379577637, 1.2926515340805054, -1.9059463739395142, -1.910290241241455, -0.47688618302345276, 2.330083131790161, 1.1259028911590576, 0.4592284858226776, -0.7183001041412354, 1.04552161693573, -4.517205238342285, -0.4584399163722992, -0.3940209746360779, -2.230821132659912, 3.329655170440674, -1.760025978088379, -1.6029082536697388, -3.2051024436950684, 4.897603511810303, -4.024685859680176, -3.1657471656799316, -3.130284309387207, -2.05501127243042, 1.6106643676757812, -2.2740163803100586, -1.6651846170425415, -1.180295705795288, -0.2502354383468628, -1.2055338621139526, -2.9142940044403076, -3.726463556289673, -0.795253574848175, 2.161356210708618, 2.171584367752075, 1.1036348342895508, 0.30724143981933594, -1.1930140256881714, -0.9024745225906372, -0.7797073125839233, 0.27186787128448486], [-0.176500141620636, 1.628137469291687, -2.2015750408172607, -2.8240280151367188, 1.4543020725250244, -2.8734734058380127, 1.8247413635253906, -1.249527096748352, -1.8829243183135986, 2.979649782180786, -5.684502124786377, 3.163421154022217, -4.800751686096191, 3.4657461643218994, 4.344018936157227, -4.298513412475586, 1.290587067604065, -5.956582069396973, -2.553164482116699, -0.9402993321418762, -3.033015489578247, -5.832139015197754, 0.18950115144252777, -1.0176070928573608, -0.19943200051784515, -2.787760019302368, -1.4618496894836426, 0.15539266169071198, -1.119368314743042, -1.2103475332260132, -2.0423295497894287, -1.5240817070007324, 0.7863622903823853, -0.504422128200531, -4.498182773590088, -6.0834879875183105, 0.7688039541244507, -4.6944899559021, 0.7200303673744202, 4.823037147521973, -2.4649412631988525, 0.017480269074440002, 2.5346484184265137, 1.3660054206848145, 3.944225549697876, 4.144842624664307, -1.8573923110961914, -1.4829165935516357], [2.8707289695739746, 3.5963759422302246, -1.5698940753936768, -1.5987550020217896, -4.678409576416016, 2.8158950805664062, 0.5255039930343628, 1.2158281803131104, -0.3330751657485962, -0.8733097314834595, 1.2836915254592896, -1.1106212139129639, -1.7806845903396606, 0.5359877347946167, -2.6766433715820312, 0.39903756976127625, -0.691221296787262, 1.1956411600112915, -0.7516257762908936, -0.6546890735626221, 1.2560782432556152, -1.5659797191619873, 1.9264613389968872, 1.1661847829818726, 5.388922691345215, 1.151738166809082, -0.972806990146637, -0.20904994010925293, -0.96576327085495, -2.0901782512664795, -3.2874388694763184, 0.6661344766616821, 1.9777787923812866, 1.417303442955017, 2.268375873565674, -2.3639020919799805, -5.769905090332031, -1.0721418857574463, 2.1369571685791016, -1.434736967086792, -2.9671385288238525, 3.6378324031829834, -0.9894324541091919, -2.0112123489379883, -1.2266443967819214, -0.21797779202461243, -0.7887703776359558, -0.22220811247825623], [2.180345296859741, -0.09845474362373352, 0.2781063914299011, 1.8895426988601685, 2.2042813301086426, -6.019482135772705, 0.6693378686904907, -1.5661379098892212, 4.606400012969971, 0.9591031074523926, -0.8555383682250977, -0.5769548416137695, -0.04504111409187317, -2.428553581237793, -1.4742848873138428, -1.0073068141937256, 2.249441623687744, -5.140553951263428, -0.7411239743232727, 0.2986980080604553, -4.224428176879883, -3.2213613986968994, 