{"0.weight": [[-3.4344534873962402, 1.5768749713897705, 3.351121187210083, -0.26369258761405945, 2.5599918365478516, -1.885905385017395, -1.9014160633087158, 1.558605432510376, 2.256922960281372, -2.4409263134002686, 1.1253676414489746, 2.535712718963623, -0.4684338867664337, -0.7306196093559265, -0.3416537344455719, -2.2939836978912354, -0.4349343478679657, -4.700256824493408, 0.8992462754249573, 1.732212781906128, 1.6112101078033447, -2.166137218475342, 5.315710067749023, -4.00542688369751, 1.0747191905975342, 3.731051206588745, -1.9760667085647583, -1.8676773309707642, 0.6382805705070496, 0.06724195182323456, 0.8026745915412903, 1.62795090675354, 0.8267362713813782, -2.666156768798828, -1.6886303424835205, 0.9132794737815857, 1.567742943763733, 0.36662739515304565, 1.525204062461853, 1.0456854104995728, 0.27143535017967224, 0.6341266632080078, 2.504211664199829, 1.2513850927352905, -2.316194534301758, 3.1640713214874268, -2.9383938312530518, 2.6685922145843506], [4.960190296173096, 2.111548900604248, -0.04764652997255325, -1.5654611587524414, 4.594936847686768, -0.5702433586120605, -0.07994099706411362, -2.494260787963867, 0.7172656059265137, -3.3267810344696045, -2.7296862602233887, 3.529372453689575, -2.373598575592041, 1.479013204574585, 5.339164733886719, -0.7409563064575195, -2.8734395503997803, 2.48982572555542, 3.4276046752929688, -0.9768677353858948, 3.9914166927337646, -0.11444531381130219, 3.735837459564209, 1.4388326406478882, -0.4199409782886505, -0.28559473156929016, -2.2758588790893555, 1.16152822971344, 2.270676374435425, -1.7098064422607422, 3.6374800205230713, 1.4132713079452515, 2.585409641265869, 1.5021504163742065, -3.2425758838653564, -3.628981113433838, 1.4537156820297241, -0.016440391540527344, 5.3979692459106445, 2.0990898609161377, -2.1973047256469727, -1.7291865348815918, -1.081521987915039, -1.0194354057312012, 2.707602024078369, -5.437004089355469, -0.9188222289085388, 0.8602321147918701], [-3.9141035079956055, -0.1627909541130066, 2.204643726348877, -2.4262232780456543, -1.2248541116714478, 1.2585076093673706, 1.779647946357727, 0.915739893913269, -3.5542521476745605, -0.14835257828235626, 2.187321186065674, 2.476551055908203, -3.770429849624634, 3.7152767181396484, -4.281676292419434, 2.788783550262451, 0.13867151737213135, -3.8019607067108154, -0.7258635759353638, -0.7636980414390564, 2.9344751834869385, -2.106445074081421, -0.43030011653900146, -0.9791320562362671, 2.0946879386901855, -1.743175745010376, -2.1564841270446777, 0.7155779004096985, -0.5862664580345154, 4.123826503753662, 4.137935161590576, 0.45188629627227783, 1.6719430685043335, 1.3022205829620361, 1.099624514579773, -0.7435318827629089, 0.6876543164253235, 2.4153029918670654, 0.9747348427772522, 2.306511640548706, 1.1466827392578125, -2.14066743850708, -0.21045494079589844, 2.7182230949401855, 0.14417006075382233, 0.11410107463598251, 2.800585985183716, 2.2481565475463867], [0.000715993344783783, 1.6456183195114136, 2.9303224086761475, -4.28923225402832, -0.1557648777961731, 4.281821250915527, -1.5381958484649658, 1.3011362552642822, 1.7044751644134521, 2.805912971496582, -1.1160417795181274, 3.9290659427642822, 3.205495595932007, 1.0454416275024414, 1.9764560461044312, 2.6289093494415283, 0.044568732380867004, 3.24748158454895, -1.9894986152648926, -3.807452917098999, -0.9691097736358643, -0.09183568507432938, -2.178118944168091, 1.4474303722381592, 2.026810646057129, 0.19599835574626923, -1.316215991973877, 1.152724027633667, -2.041349172592163, 1.3345922231674194, 0.8630270957946777, -2.8969247341156006, 0.37033435702323914, 1.0374584197998047, 2.5701003074645996, -1.035738468170166, -1.6729629039764404, -3.2168288230895996, -0.8221283555030823, -1.0970789194107056, -3.4527029991149902, 1.5823769569396973, 2.9280622005462646, 1.9135321378707886, -2.2399022579193115, 0.672318160533905, -0.0007707774639129639, 0.20888756215572357], [-0.3069440722465515, -1.0562673807144165, 0.042061697691679, 2.273193120956421, -1.5948407649993896, -2.978848457336426, 0.8819484710693359, -2.8736584186553955, -0.4573896527290344, -2.7375128269195557, 4.102573871612549, 0.8293952345848083, 1.3479232788085938, -0.8625688552856445, 0.24278996884822845, 1.9049580097198486, -1.643472671508789, 0.5957720875740051, -0.16774506866931915, -0.1865873634815216, 0.3974670469760895, -2.3233752250671387, -1.192338466644287, 4.037137031555176, -0.44261932373046875, 1.3175837993621826, 1.679854154586792, 1.1549454927444458, -2.6309924125671387, 1.1459460258483887, 2.983990430831909, 2.154557943344116, -0.19052308797836304, -1.3505754470825195, 3.756925106048584, 0.9183728098869324, 1.8453381061553955, 2.1466622352600098, 0.8322926759719849, 5.326440334320068, 3.3445522785186768, -0.031114749610424042, -2.30442476272583, 1.1416313648223877, 2.008058547973633, -3.3623292446136475, -0.7100419998168945, -2.560621738433838], [1.812270998954773, -0.6276810765266418, 0.30329495668411255, 2.144231081008911, 4.477049350738525, 0.5343128442764282, -1.2922112941741943, -1.3481756448745728, 2.993732213973999, -2.564206600189209, 0.9359322786331177, 4.221569538116455, -2.217341423034668, 0.8000801205635071, -2.2580392360687256, -1.6529982089996338, -1.014098048210144, 0.014574497938156128, 2.5162434577941895, -1.3325321674346924, 3.618159770965576, -3.550196409225464, 0.7201413512229919, -4.019669055938721, -0.8491726517677307, 1.9828078746795654, -1.4509142637252808, -0.3304787576198578, -4.053212642669678, 0.09207142889499664, 1.7013561725616455, -3.366780996322632, -1.4400641918182373, -3.139224052429199, -1.3948922157287598, 2.6970810890197754, -1.8359326124191284, -0.0004328843206167221, -1.5515437126159668, 2.418290853500366, -2.2730400562286377, -1.0117814540863037, 2.5735645294189453, 0.4526507556438446, -0.4785177409648895, 0.939687967300415, 0.2558857500553131, 3.9525647163391113], [-3.066387891769409, -1.7820525169372559, 1.3752179145812988, 0.9420733451843262, -0.9637584686279297, 2.778686046600342, -1.829732060432434, -2.949631690979004, 3.8662991523742676, 2.7049596309661865, -2.7962284088134766, 0.9044883251190186, -3.2437455654144287, -2.9303441047668457, 1.1496821641921997, 0.8319573998451233, 1.0842081308364868, -2.061474561691284, -1.6548340320587158, -1.0263923406600952, -0.5413621664047241, -1.881416916847229, -1.3496201038360596, 2.7665183544158936, -1.4494973421096802, -2.1847431659698486, 3.3255224227905273, -1.253317952156067, 0.11213564872741699, -0.46605759859085083, 3.54001784324646, 0.9775097966194153, -1.8221962451934814, 1.6070237159729004, -0.9863355159759521, -0.2902979850769043, -0.6851931810379028, 0.8581025004386902, 0.1940772533416748, -1.6939245462417603, 1.0659735202789307, -0.7758150100708008, -0.40569478273391724, 1.710744857788086, -0.4620751738548279, -2.2546274662017822, 1.7305774688720703, 2.921799898147583], [3.510772228240967, -1.2767421007156372, 0.363359272480011, -1.0789896249771118, 2.449362277984619, 1.6199944019317627, 1.1857494115829468, 0.044873692095279694, 0.25427278876304626, -1.151882290840149, 1.7229714393615723, -2.899035930633545, -0.9449858665466309, -3.470935583114624, -0.10886944830417633, -2.201045513153076, 1.360639214515686, 1.9323573112487793, 0.9435172080993652, -2.4730961322784424, 0.9870806932449341, -1.6427711248397827, 2.029561996459961, 3.076077461242676, -2.8294103145599365, -4.500176429748535, 2.2434115409851074, 6.259124755859375, -4.338923454284668, 2.0503787994384766, 1.33049476146698, 1.8886345624923706, -0.19111382961273193, -1.945299744606018, -0.9721247553825378, 0.30698347091674805, -3.4296717643737793, 0.39341890811920166, 0.5542094111442566, 0.7856911420822144, 5.121669292449951, -1.8473172187805176, -0.1647854745388031, 2.850789785385132, 1.1510035991668701, -1.2191954851150513, -2.184224843978882, -0.7821064591407776], [3.3676939010620117, -1.904802680015564, 1.016701102256775, 1.0333929061889648, 1.6420992612838745, -4.919982433319092, 0.32734233140945435, 1.7546617984771729, -0.06693875789642334, 1.2267875671386719, 0.4876714050769806, 1.4337955713272095, 1.067211627960205, 1.4730585813522339, -0.009015500545501709, -2.0723421573638916, -0.7192617058753967, 0.5152495503425598, -0.25485506653785706, -0.11475900560617447, -0.4834021329879761, -0.07901214063167572, -1.7767547369003296, 1.6979420185089111, 3.508270025253296, 2.0122249126434326, -3.1486740112304688, 0.26235613226890564, -5.888625144958496, -1.8573756217956543, 1.2361711263656616, -2.6583895683288574, 1.6995484828948975, -2.3410003185272217, -1.1404129266738892, -1.9867959022521973, 0.3540293872356415, 4.7935895919799805, 0.68540358543396, -0.6289716362953186, 1.6526120901107788, 3.435476303100586, -2.5390703678131104, -4.6111836433410645, 3.834963083267212, -2.290365695953369, 0.8922773599624634, 0.2732299864292145], [3.88252854347229, 1.175079107284546, 7.689492702484131, -2.223205327987671, -3.5373029708862305, -1.278922200202942, -1.616898775100708, -3.051522970199585, 2.095095157623291, 4.0435991287231445, 1.7346619367599487, -4.065559387207031, -0.08842276781797409, 0.6794276833534241, -1.3455500602722168, 1.8575495481491089, 0.9859300851821899, 3.2724411487579346, 2.3893470764160156, -3.868878126144409, -0.9887577891349792, -2.404731035232544, 0.6733860373497009, 2.455435037612915, -2.4082283973693848, -1.5766956806182861, 0.5360726118087769, -0.6766318678855896, 3.3381669521331787, -0.7376769185066223, -2.347017288208008, -1.5474568605422974, 0.8168343901634216, 2.3850080966949463, -2.049699068069458, 2.556980848312378, 0.8807007670402527, 4.373663425445557, -2.992946147918701, -0.867864727973938, 1.0368473529815674, -0.3275362253189087, -2.6068239212036133, 2.4823484420776367, 1.6765868663787842, 1.5854755640029907, 0.5660502314567566, 2.733675956726074], [-0.7570822238922119, -2.569573163986206, 3.9592766761779785, -3.013293981552124, 3.7937209606170654, -0.21444351971149445, -2.9326858520507812, -0.4821874797344208, 3.181854009628296, -1.0158435106277466, -4.696950912475586, -4.533477306365967, -0.9428646564483643, 0.0006184205412864685, 2.23264741897583, -2.8720757961273193, 3.3921737670898438, -2.8307242393493652, -2.665778875350952, 3.0480897426605225, 1.719078540802002, -0.6265912055969238, 3.3443193435668945, -0.018557235598564148, -1.6234097480773926, -0.9768542051315308, -3.172973155975342, -0.238022118806839, -2.1256701946258545, 3.9030416011810303, 3.5601139068603516, -2.416043281555176, -0.7565945982933044, 2.96264910697937, -0.00232057087123394, -1.7029949426651, 0.9284857511520386, 0.006279892288148403, -0.8567028045654297, -1.1327036619186401, 0.8769102096557617, 4.982814788818359, 2.780229091644287, 2.9212002754211426, 1.6314159631729126, 1.3988832235336304, -3.2108144760131836, -0.6916506886482239], [1.8491110801696777, -1.7376964092254639, -0.09125274419784546, -0.04778006672859192, -1.5097450017929077, 0.6856315732002258, 0.35181668400764465, 1.1688017845153809, 3.58426570892334, -0.7863413095474243, 0.9772395491600037, -1.2216252088546753, -3.6993470191955566, 1.351965308189392, -2.020298957824707, -0.5567366480827332, -1.9401702880859375, 2.7591679096221924, -0.5318602323532104, -1.573956847190857, -4.276240825653076, -0.8147767782211304, -2.4037163257598877, 1.746159315109253, -2.172133445739746, -0.8052945137023926, -2.8703620433807373, -1.202400803565979, -0.17783255875110626, 6.595734596252441, -2.4251182079315186, -4.151595115661621, -4.736064910888672, 1.825666904449463, 0.0009021088480949402, -1.1902539730072021, -0.43299514055252075, -1.9101691246032715, -1.2664387226104736, 0.5884122252464294, 1.7330302000045776, 3.122859477996826, 3.1893503665924072, -0.5199478268623352, 1.554910659790039, -1.5807318687438965, 2.3122806549072266, -3.4474284648895264], [0.3232836425304413, 1.7958422899246216, 4.800716400146484, 3.8138670921325684, 0.9346112608909607, -4.466792106628418, 0.03443574160337448, -0.8349567651748657, 2.8854987621307373, -0.7296163439750671, -2.9023849964141846, -1.8077667951583862, 6.424657821655273, 2.7070889472961426, 1.6172640323638916, -1.170142650604248, 0.41688603162765503, 0.8277277946472168, -1.0865896940231323, -2.2228245735168457, 0.7689411044120789, 1.8419348001480103, 0.4890440106391907, -1.113223910331726, -2.1340603828430176, 3.431068181991577, -2.283205986022949, 2.7151541709899902, -0.48894909024238586, 1.9998831748962402, -3.567479133605957, 1.4619396924972534, 0.20944306254386902, 2.6797428131103516, 2.5062782764434814, -1.2583434581756592, -0.8024016618728638, -0.32451751828193665, -0.8282889127731323, 2.2728285789489746, 0.7365797162055969, -1.7873430252075195, 2.283625364303589, 2.694249391555786, -5.734857082366943, -0.9196917414665222, 1.0102736949920654, 2.18282151222229], [-6.084036827087402, -3.0641963481903076, -0.03650307282805443, -1.490640640258789, -1.4510220289230347, -3.158269166946411, -1.783552646636963, -1.636815071105957, 2.309250593185425, 1.165884017944336, -0.7481276988983154, -0.5672494173049927, -0.04440763592720032, 0.2765336334705353, -1.0172808170318604, 0.2633517384529114, -1.6201969385147095, 0.7653889656066895, 2.1558923721313477, -1.512955904006958, 1.8160223960876465, -2.445600748062134, 2.202401638031006, 0.9265300035476685, 0.042783670127391815, 0.5051460862159729, 2.791954517364502, 1.9005866050720215, -1.1433334350585938, -0.058862749487161636, 0.2429879605770111, 0.11907844990491867, 2.0289390087127686, -0.1778041422367096, 4.949642658233643, -0.001048251986503601, 2.0071840286254883, -2.5558156967163086, 2.2355220317840576, -0.7594884037971497, 0.83568274974823, 0.23413313925266266, 0.8426691293716431, 0.4849833548069, 6.875461101531982, -3.0486671924591064, 4.19944953918457, 0.6949337720870972], [0.13483476638793945, -1.845740556716919, -2.478642702102661, 3.240762948989868, 1.1279504299163818, 1.639482021331787, -1.6096198558807373, -0.2787191569805145, 0.07147105038166046, 0.40629851818084717, 0.6321360468864441, -0.6870529651641846, -1.161825180053711, -3.9699466228485107, 0.062329649925231934, 0.45795881748199463, -0.06055878847837448, -1.4184553623199463, -2.840393304824829, 0.8124639391899109, 4.700981140136719, 1.918994426727295, -3.2262074947357178, 1.702172040939331, 0.4673214256763458, 2.3350062370300293, -2.3764922618865967, 3.7375762462615967, -3.5255064964294434, -2.0795438289642334, 2.234710931777954, -2.52646541595459, -1.3482657670974731, 3.4079856872558594, -2.3979127407073975, -0.17662900686264038, 1.3283190727233887, 1.7516388893127441, 2.5549979209899902, 3.3802807331085205, -3.5272340774536133, -7.071267604827881, -1.2113968133926392, 1.3357515335083008, -0.9434671998023987, 2.4482553005218506, 2.3379969596862793, -2.8082785606384277], [-2.7170052528381348, 1.3320714235305786, 2.5881528854370117, 2.1772964000701904, -2.7770841121673584, -0.7394813895225525, 1.9550564289093018, 1.9045944213867188, 1.4678876399993896, 2.1678125858306885, -2.243281126022339, 0.5119400024414062, 0.6386306285858154, 4.235387325286865, 0.0786626785993576, 2.1272711753845215, -1.0436941385269165, 2.7024054527282715, -0.7352758049964905, -0.19142365455627441, 2.2510201930999756, -1.4738616943359375, -0.898119330406189, -1.3062752485275269, 0.39664652943611145, 3.7010695934295654, -0.5055162310600281, 1.286937952041626, 1.548414707183838, -0.0038943886756896973, -0.4115101993083954, 1.2176121473312378, -1.164779543876648, 2.0327298641204834, 0.6229999661445618, 0.8254041075706482, -0.5811158418655396, -2.929042100906372, -0.4151465594768524, -2.09893798828125, 0.3547135591506958, 3.366466522216797, 3.355872631072998, 1.6299443244934082, -0.007700711488723755, 2.280580759048462, 1.5864638090133667, -1.2415285110473633], [0.3232616186141968, 1.85404634475708, -1.9366378784179688, -4.255986213684082, -2.024268627166748, -2.590167760848999, 1.6639485359191895, -0.17384342849254608, -0.6774230003356934, -3.9590516090393066, 2.528585195541382, -0.029812023043632507, -3.778273105621338, 3.491716146469116, -5.109609127044678, -3.5564029216766357, -0.6532663106918335, -1.4674649238586426, 1.9831093549728394, 0.7105516791343689, 0.3682069182395935, 0.1513761281967163, 2.5685815811157227, -1.0365420579910278, 1.5121225118637085, -1.3044005632400513, -1.41571044921875, -3.0478458404541016, -2.177645444869995, 3.538329601287842, -2.110600471496582, 4.3321614265441895, 1.6660972833633423, 3.4670815467834473, -1.2861976623535156, 3.4889235496520996, 1.7731380462646484, 1.9059045314788818, 1.035794973373413, -2.307220935821533, -2.6048598289489746, 0.5009966492652893, 3.1149024963378906, 1.3178151845932007, 1.3049052953720093, 0.29590460658073425, 1.6181737184524536, -0.5726419687271118], [-0.5937044620513916, 3.178219795227051, -0.793408989906311, -2.2124385833740234, 0.8511289954185486, 2.971557140350342, -0.9960834383964539, -2.5811259746551514, 1.6366777420043945, -1.257269263267517, -1.0494307279586792, 1.2032380104064941, -3.0316271781921387, 0.6433239579200745, 0.9017478227615356, 0.8283728957176208, -1.3942331075668335, -0.3907349705696106, -0.9456313848495483, -1.2083656787872314, 0.7509207129478455, 0.9371108412742615, -0.308176189661026, -1.5734355449676514, -4.720345973968506, -1.7138500213623047, 0.796122670173645, 1.6040350198745728, 1.1172292232513428, 1.2255181074142456, -2.1580488681793213, 1.6327229738235474, -0.6656514406204224, 3.2830402851104736, -2.18540620803833, -1.1662819385528564, 3.4580984115600586, -2.423330545425415, 2.8257222175598145, -4.01296329498291, -2.2873501777648926, 3.2779202461242676, -1.1474107503890991, 1.0126252174377441, 2.515026330947876, 3.327195167541504, -1.668979525566101, -0.4110894799232483], [-0.6173006296157837, -1.9500713348388672, -0.6867401003837585, 0.23232126235961914, -1.9436365365982056, -1.6214046478271484, -2.1479997634887695, 1.8824483156204224, -3.856095314025879, 1.9739445447921753, 1.8971021175384521, 0.5796139240264893, -1.112773060798645, -2.841237783432007, 0.5016522407531738, -1.1144299507141113, 1.3020983934402466, 2.2652900218963623, 0.02027525007724762, 5.395212650299072, 2.171093225479126, -1.8074719905853271, -2.8389551639556885, 4.757619857788086, 7.095665454864502, 1.1421840190887451, -1.077411413192749, 0.6673917770385742, 1.8404672145843506, 0.5200944542884827, 0.4683785140514374, 5.35737943649292, -0.909752368927002, 2.41151762008667, -0.734150230884552, -1.5606186389923096, 1.1313869953155518, 2.810007095336914, -2.694349765777588, 3.1706275939941406, 1.8239508867263794, 0.7072147130966187, -1.5780833959579468, -3.1832008361816406, 1.91494619846344, 2.4123878479003906, -1.9769871234893799, -3.131274461746216], [3.498755693435669, 1.9309067726135254, -3.8731043338775635, -2.130892753601074, 2.2288241386413574, -0.49115633964538574, -0.14096882939338684, -1.3218456506729126, -3.195939540863037, 2.240870237350464, -2.4117486476898193, -2.150664806365967, 0.6211012005805969, 0.8623759746551514, -2.71484637260437, 1.083252191543579, -1.2927861213684082, 3.4293408393859863, -0.11495720595121384, 2.19497013092041, 0.4898313283920288, 1.7997043132781982, -0.43757718801498413, 2.2745275497436523, 0.27285897731781006, -0.6641647815704346, -0.8551067113876343, 1.9810147285461426, -0.9068589806556702, -1.8450039625167847, 0.7339689135551453, 0.6911655068397522, -0.10896066576242447, -0.149529829621315, -0.7470827698707581, -2.3616714477539062, -0.06276006996631622, 0.5534330010414124, -4.327915191650391, 3.8530592918395996, 1.38430917263031, -2.0639679431915283, 0.1291462481021881, -0.9419245719909668, -1.1232244968414307, -0.39567068219184875, 3.1378273963928223, -0.8029723167419434], [2.5233278274536133, 0.5461452603340149, -0.4086149036884308, 1.633042573928833, -1.3480666875839233, 1.9473170042037964, -2.001207113265991, 2.4972453117370605, -1.494962453842163, -5.185490608215332, 1.7404166460037231, 5.686152458190918, -1.2274763584136963, -1.3426828384399414, -2.9476826190948486, -3.0018651485443115, 2.0632572174072266, 0.3157584071159363, -0.24260658025741577, 2.3147668838500977, 1.4006834030151367, -2.0180084705352783, -0.7181383967399597, 1.4661836624145508, 1.2181390523910522, -0.40411579608917236, -2.3188061714172363, -0.590838611125946, 3.880145788192749, -1.5082885026931763, -0.17671726644039154, -1.9660513401031494, 0.3856925666332245, 2.6689038276672363, -3.6922080516815186, 1.2966792583465576, 8.771297454833984, 0.22330012917518616, -4.360138893127441, 0.0598008930683136, 4.272671222686768, -1.0610573291778564, -1.9083268642425537, 1.2707414627075195, -1.0022650957107544, -1.9835792779922485, 4.085090160369873, 4.555107116699219], [-3.541947364807129, -2.7333121299743652, 5.090439319610596, 1.702428936958313, -1.1995803117752075, -4.788702964782715, 1.4208189249038696, -1.8522822856903076, 0.696601927280426, -0.44099169969558716, -2.443272829055786, 0.39284825325012207, -2.83742356300354, -2.6019539833068848, -0.848553478717804, 2.257269859313965, -0.023507162928581238, 0.34761571884155273, -1.1653786897659302, -1.8095214366912842, -0.08745501190423965, 0.8467668294906616, -0.4931940734386444, -8.336160659790039, -1.6420810222625732, 2.424722671508789, 3.161548614501953, -4.65917444229126, 3.8792831897735596, 2.467867374420166, 0.5011664032936096, -0.4814330041408539, 3.29229736328125, -1.710885763168335, -1.6001492738723755, 2.2064878940582275, -2.1315226554870605, 2.481208086013794, 4.79497766494751, -0.6832795143127441, -0.9156020879745483, -5.339061260223389, -2.142622232437134, 2.586219072341919, 3.226480722427368, -3.852820634841919, 0.9280834197998047, 0.5185185670852661], [1.1983449459075928, 1.6301162242889404, 0.8865153789520264, -3.224419593811035, 0.4619779586791992, -0.15183047950267792, 2.693333625793457, 4.370438098907471, 0.7561237812042236, -2.504166603088379, -0.43499261140823364, 0.45101091265678406, 3.3683888912200928, -0.1550050526857376, 0.20351172983646393, -3.11616849899292, 2.387324333190918, -0.5009073615074158, 0.6149134635925293, 2.708996057510376, -0.3826325535774231, -2.7765188217163086, -5.332540035247803, -1.5095603466033936, 3.56337571144104, 1.830647587776184, -2.0322418212890625, 1.3994895219802856, 0.8736625909805298, -3.601365804672241, -1.017777681350708, 2.8387904167175293, -0.9450059533119202, -1.2897815704345703, -2.0268287658691406, 2.5402779579162598, 2.119814395904541, -2.7333362102508545, -2.9751334190368652, 1.6602028608322144, 1.8679231405258179, 1.0326818227767944, -0.11238829791545868, -1.2573388814926147, 2.508427381515503, -1.8656115531921387, 1.3837271928787231, -2.102726936340332], [2.600383758544922, -4.100957870483398, 0.5930917263031006, 3.2199795246124268, -2.62626314163208, -1.4164193868637085, -3.1999940872192383, 2.2846035957336426, 0.036713749170303345, 1.2937699556350708, -1.919116735458374, 2.8650875091552734, -4.1370062828063965, 1.1034064292907715, -0.8225783109664917, 0.9025731086730957, 3.0762810707092285, 1.8397334814071655, -0.47203969955444336, 0.6463642120361328, -2.3704535961151123, 0.8719155788421631, 0.19983512163162231, 1.2133444547653198, -0.9077619910240173, -0.3377187252044678, -1.6862120628356934, -4.000842571258545, 0.6178817749023438, -4.568239688873291, -5.799697399139404, 1.2898286581039429, -0.11894489824771881, -5.521459579467773, -2.1227216720581055, -0.10290709137916565, 4.025272846221924, 0.1086369976401329, 1.5424107313156128, 1.7344880104064941, -2.258702278137207, 0.03962274640798569, -1.9105817079544067, 4.0399041175842285, 1.7768316268920898, -0.6358041763305664, -3.756711721420288, 2.7798423767089844], [-3.1609201431274414, 2.171977996826172, 2.789710760116577, 3.168804168701172, -4.093973636627197, 0.22681385278701782, 2.363664150238037, 0.21864819526672363, -5.283313751220703, -1.4513988494873047, 0.15238428115844727, 1.7543565034866333, -4.269972801208496, -1.0839167833328247, -1.8641278743743896, 1.773453950881958, -0.46711379289627075, 1.5819146633148193, 3.378922462463379, -0.4721437394618988, 2.822551965713501, -1.7951396703720093, 0.7049741148948669, 1.7051060199737549, -3.6905689239501953, -0.15950775146484375, -0.2933617830276489, -1.3523744344711304, 3.3552472591400146, -2.2978827953338623, -1.2621724605560303, -3.491621732711792, 1.1223366260528564, -0.6382940411567688, -5.865973949432373, 2.3160457611083984, 4.371589183807373, -0.8597589731216431, 0.2775466740131378, 0.5105343461036682, -0.25542235374450684, 0.23244434595108032, -1.1592776775360107, 1.0431545972824097, -3.6046273708343506, -1.6525293588638306, 1.2623015642166138, 2.46199107170105], [1.454674482345581, 0.4796636402606964, -0.33147454261779785, 3.1602067947387695, -0.7451386451721191, 1.118678331375122, 2.072193145751953, -2.7451727390289307, -1.7427622079849243, -1.6289087533950806, -1.5846463441848755, 1.5487169027328491, -0.20502474904060364, -1.519595742225647, -0.34668365120887756, -4.443203449249268, 0.5492959022521973, -2.687764883041382, 3.730743646621704, -1.2227576971054077, 2.4861392974853516, 3.9173667430877686, 3.235546350479126, 0.9522507786750793, 0.18376287817955017, 2.0412774085998535, -3.642334222793579, -0.9491130113601685, 2.3661792278289795, -4.648763179779053, -1.176567554473877, 0.6944377422332764, 0.7367656230926514, 0.4638814330101013, -3.834588050842285, -0.18812021613121033, 1.8159945011138916, -3.309556007385254, -1.3687469959259033, 1.4405553340911865, -4.30415153503418, 3.2450919151306152, 2.1135997772216797, -0.7131087183952332, 5.049618244171143, 1.4790301322937012, -3.860783576965332, 1.3138233423233032], [-3.619245767593384, 0.29290834069252014, 0.5378365516662598, 0.38084542751312256, -0.413260817527771, 0.10072031617164612, -2.751086473464966, 2.3289120197296143, 0.6744800806045532, 1.3348889350891113, 0.7840215563774109, 0.6068881750106812, -0.16464845836162567, 4.529738903045654, 1.8832192420959473, 1.0057522058486938, -2.9383649826049805, -1.8012113571166992, 1.8116202354431152, 1.5878896713256836, 2.151313066482544, 0.7963330745697021, -1.8047423362731934, 3.9913690090179443, -2.3386330604553223, -2.197080612182617, 6.081223487854004, 2.0223164558410645, 0.7205032110214233, 5.422100067138672, -2.3866097927093506, 1.49039888381958, 4.944392204284668, -3.1500778198242188, 3.911341428756714, -2.850956439971924, -1.3261303901672363, -1.7979624271392822, -0.3846297264099121, -3.322726249694824, 1.2922677993774414, -1.0228028297424316, 0.4495764672756195, -1.3092966079711914, -2.4011850357055664, -1.256007432937622, 2.0154457092285156, -4.63290548324585], [-2.702507972717285, 2.2292287349700928, 2.6317546367645264, 0.9221647381782532, 3.177379608154297, -1.5091885328292847, 0.6436421871185303, -5.807941913604736, 1.944812536239624, -0.22091872990131378, -2.066526174545288, -2.1084506511688232, 2.962998867034912, -2.870454788208008, 0.013677438721060753, -5.442126274108887, 0.24501478672027588, -2.763150691986084, 2.545422077178955, -0.11450918018817902, 0.7085245251655579, -1.4644019603729248, 2.5279321670532227, -0.1135316789150238, -1.0130996704101562, -0.16763147711753845, 1.5675015449523926, 4.111447334289551, -1.5713763236999512, -0.2826313376426697, -4.540298938751221, -0.3181198239326477, 0.08263437449932098, -0.3873945474624634, 0.18342074751853943, 0.35384729504585266, 2.71767520904541, 0.2691253125667572, -3.37129545211792, -3.8213846683502197, 1.8038321733474731, -2.144371747970581, -4.956473350524902, -3.641920804977417, -0.11791712045669556, 0.08427518606185913, -1.5335997343063354, -0.7090943455696106], [0.7838296294212341, -2.4058191776275635, 0.4652706980705261, -4.138885021209717, -3.59036922454834, 1.1604089736938477, -0.4590667486190796, 1.6694101095199585, -0.3973575532436371, 2.159464120864868, 1.252518892288208, 2.5482444763183594, 5.112898826599121, -2.7832095623016357, 1.4024696350097656, -0.9779815673828125, 3.810173511505127, -0.3886750638484955, 1.8568909168243408, -1.9454847574234009, 2.495074987411499, -1.4524178504943848, 0.5794373750686646, -2.6859631538391113, 1.424129843711853, 1.0396175384521484, -0.7890133857727051, -0.8111433386802673, -1.039947271347046, 0.04920991510152817, 3.185105800628662, -1.2415014505386353, -2.0841128826141357, -0.35008546710014343, -1.3035528659820557, 2.3868463039398193, -0.19489160180091858, 2.178330421447754, -1.7589244842529297, 0.03526776283979416, -1.625140905380249, -0.4899914264678955, 2.459824800491333, 0.6044319272041321, 1.8113551139831543, -1.1283762454986572, -0.14959870278835297, 4.189966201782227], [-0.7425256967544556, -0.28138068318367004, 0.2611536383628845, 3.8600943088531494, 3.452770471572876, 3.9751548767089844, -0.11979080736637115, 1.5566776990890503, -0.3625109791755676, 2.2819392681121826, -4.627569198608398, 0.6216062903404236, 2.888241767883301, 6.337735176086426, 0.5918811559677124, 3.047646999359131, -1.9847583770751953, 2.373441696166992, -3.8651797771453857, 0.8177180886268616, 3.5661990642547607, -0.0610516220331192, 3.47212290763855, 0.5485085844993591, 5.285470008850098, 0.39858290553092957, -4.517711162567139, -0.5456721782684326, 0.7985166311264038, -2.5650603771209717, -8.385346412658691, 0.29697197675704956, -2.0143239498138428, 4.4633307456970215, 0.6173355579376221, 0.6034387350082397, -3.189018726348877, 0.5027838945388794, 1.1331731081008911, -2.673624038696289, -2.972867250442505, -1.280066728591919, 2.189378023147583, 0.4642626643180847, -4.374932765960693, -2.3198904991149902, -2.79899001121521, -0.21118807792663574], [-2.4939305782318115, 0.6726112365722656, 1.5670349597930908, -0.24890899658203125, -0.14192020893096924, 0.014566339552402496, -0.5046516060829163, 1.5120986700057983, 1.3502548933029175, 0.435829222202301, -0.6811037063598633, -3.0893776416778564, -7.283797740936279, 3.7985122203826904, -0.5565838813781738, -0.9656476378440857, 2.7881009578704834, -4.0113677978515625, -0.9191315770149231, -1.6438137292861938, 1.9616048336029053, -2.3630993366241455, -1.4365322589874268, 4.367571830749512, -0.36109399795532227, -1.2338626384735107, 1.8080819845199585, -1.6153732538223267, 1.102555751800537, -7.0866594314575195, -1.821330189704895, 0.8682444095611572, -3.9748640060424805, -2.273085355758667, -3.401158094406128, -1.6161025762557983, 0.37702706456184387, 3.042588472366333, 1.353713035583496, 2.655324697494507, 1.7326244115829468, 4.218227386474609, -2.5071282386779785, 1.653172492980957, -3.631835699081421, -3.416914463043213, 1.411320686340332, 1.1198017597198486], [-0.8186193704605103, 0.7802872657775879, 2.0696582794189453, -1.563889741897583, -0.742019534111023, -4.200739860534668, -0.3949419856071472, 1.5901172161102295, -3.1365928649902344, -0.7859068512916565, -2.7132506370544434, -1.5387133359909058, 0.9827409982681274, 0.516832172870636, 0.6779898405075073, -3.508763551712036, 1.0089433193206787, -2.2095797061920166, -2.8331241607666016, 1.4202806949615479, 0.3973408639431, 4.60789680480957, -0.6115127205848694, 0.37120071053504944, -0.5798647403717041, -5.5209760665893555, -1.2629731893539429, 1.7249356508255005, 3.993298053741455, 0.47385600209236145, 1.9128440618515015, 2.26653790473938, 0.4735073447227478, -1.437024474143982, 1.5588473081588745, -1.6489630937576294, -1.900465965270996, 0.07171975076198578, 4.77586555480957, 4.463644981384277, 2.545975685119629, -2.3895998001098633, -1.4549229145050049, -0.3324507772922516, 0.8252370357513428, 2.4031193256378174, -0.7271237373352051, -1.1725939512252808], [-0.7938666939735413, 2.4981930255889893, -1.8300142288208008, -0.25616198778152466, -5.360254287719727, 0.36819401383399963, 1.5245709419250488, 1.2038856744766235, -1.8052533864974976, -0.9750348329544067, 1.3901211023330688, -2.4144935607910156, 2.7549121379852295, 3.442674160003662, -1.0079171657562256, 0.8327057957649231, 3.272456645965576, -3.93892765045166, 0.11629033088684082, 0.22862949967384338, 0.03361823409795761, -0.47771507501602173, -1.4158934354782104, 2.0592947006225586, 0.20924893021583557, -0.7658966779708862, -3.473947525024414, -0.4083341658115387, -2.0547878742218018, 1.5115177631378174, -3.8157896995544434, 0.6456531882286072, -3.3860998153686523, -3.0378286838531494, -0.30732133984565735, -1.1037318706512451, 2.8789331912994385, 3.465550184249878, 3.9110796451568604, 0.497416615486145, -1.5412085056304932, -2.9294817447662354, 0.5069550275802612, 0.579505980014801, -1.848602533340454, 1.8058898448944092, -3.2335729598999023, 2.106837749481201], [0.08118876814842224, 0.4612678289413452, -6.220688343048096, 0.06025317311286926, -2.7916877269744873, 1.862684965133667, -4.6995463371276855, -0.025034425780177116, -0.03148290514945984, 4.738908767700195, -4.032612323760986, -1.3413251638412476, 1.1529521942138672, -0.9339095950126648, 3.0375850200653076, -4.817054748535156, 1.5561684370040894, 2.3480560779571533, 2.4418129920959473, 4.0163774490356445, -0.05551791563630104, -4.05234432220459, -0.8041846752166748, -1.3334276676177979, 1.1696661710739136, -1.2422969341278076, -3.695160150527954, -4.0086350440979, 3.034109115600586, -1.9701035022735596, -2.088815212249756, 6.075064182281494, 2.1814308166503906, 1.56967294216156, 1.14408278465271, 2.901082992553711, -0.15343999862670898, 0.6290108561515808, -3.0758512020111084, -1.8018537759780884, 1.1025718450546265, -5.405808448791504, -1.2655709981918335, 2.9804670810699463, -1.718000888824463, 2.2987589836120605, -5.260923385620117, -0.07035687565803528], [-2.1624698638916016, 0.37377578020095825, -2.495137929916382, 0.841966450214386, -4.774848937988281, 1.7843899726867676, -0.32170867919921875, 2.1346192359924316, 1.9133061170578003, -2.5192816257476807, 2.6340181827545166, -1.7808279991149902, -2.801539897918701, 2.103947162628174, 3.3530821800231934, -0.1541210412979126, -2.584730863571167, -0.8871753811836243, -0.6180680990219116, -0.006750084459781647, -0.3282403349876404, 1.620626449584961, -1.6180630922317505, 0.460615336894989, 1.988050937652588, -1.1485569477081299, 3.7831642627716064, 1.048168659210205, -0.46464017033576965, 1.842205286026001, -1.3723585605621338, 3.8910417556762695, -2.1778202056884766, -5.808945655822754, -4.108698844909668, -2.279279947280884, -0.681804895401001, 6.3349833488464355, -1.5674192905426025, -1.0565623044967651, -0.3477638363838196, 2.109422206878662, -2.9585745334625244, 1.0626410245895386, 1.486788272857666, -1.7690508365631104, -0.8129853010177612, -0.13098075985908508], [2.3259270191192627, 1.520859718322754, -3.116826295852661, 5.297352313995361, -1.2677459716796875, -1.3993474245071411, 1.343916654586792, -1.824558138847351, -0.35368651151657104, 0.0032187998294830322, 0.5365290641784668, 1.8203961849212646, -0.9805662631988525, 1.0837451219558716, 0.06156400963664055, 2.8192009925842285, 0.7547834515571594, 4.15479850769043, -0.8164162039756775, -1.2215927839279175, -0.32725536823272705, -3.561375141143799, -0.3545911908149719, 3.9397385120391846, 2.2401583194732666, 2.628220558166504, 0.2479616403579712, -0.05140441656112671, -1.2491298913955688, -0.722776472568512, -0.24410416185855865, 0.2910946309566498, 2.6526873111724854, -3.342905282974243, -1.5652709007263184, 3.739516496658325, -0.263160765171051, -3.399587392807007, -1.8272473812103271, 1.9824037551879883, -1.8374290466308594, 0.7510348558425903, -0.8215619325637817, -1.1343653202056885, -1.0630284547805786, 2.154916286468506, 6.3638081550598145, -0.08703669905662537], [0.9505100846290588, -0.396234393119812, 1.4468880891799927, -0.7610269784927368, -3.5347816944122314, -3.4287102222442627, 2.885838031768799, -2.5405783653259277, 2.005094051361084, 2.4175467491149902, 0.5295908451080322, -0.49289366602897644, 2.9330544471740723, 2.7375617027282715, 4.894367218017578, -2.0213887691497803, 0.5584694147109985, 0.11345133185386658, -1.6772431135177612, 0.22591271996498108, -0.30813005566596985, -0.7346410751342773, -3.3164384365081787, -0.022008925676345825, -2.8901355266571045, 1.3951975107192993, -2.2150464057922363, 0.4357864558696747, 0.36005139350891113, -0.18279340863227844, 1.406098484992981, 0.534906804561615, -0.3001672923564911, 4.1091718673706055, 0.17710906267166138, 0.013519670814275742, 1.8283823728561401, -0.3399811387062073, -1.0351203680038452, -4.952733516693115, 0.377895712852478, -2.060767650604248, -2.481938600540161, -4.106836318969727, 3.673631429672241, -0.44055092334747314, 1.7585068941116333, 2.257476568222046], [-1.5567691326141357, -3.728987693786621, 2.085883855819702, 1.1634567975997925, 0.4617554843425751, -4.286243438720703, 2.0098068714141846, -2.4575109481811523, 1.8265873193740845, -2.5767288208007812, 1.833931803703308, -0.620067834854126, -0.08614283800125122, 3.702366590499878, -1.6559652090072632, 1.1561558246612549, 1.5731725692749023, -0.3770429193973541, -5.127151966094971, -1.0760869979858398, 0.6200307607650757, -0.7799564599990845, -2.012312650680542, -0.8250306844711304, 3.9786300659179688, 2.249178886413574, 1.1337698698043823, 1.222278118133545, -0.9162963032722473, -5.190549373626709, -1.4791048765182495, 1.0705235004425049, 0.7941418290138245, -2.7994422912597656, 0.17974835634231567, 0.24106869101524353, 0.7645626068115234, -1.7136659622192383, 1.648040533065796, 3.4681549072265625, -0.3821403980255127, 0.39070624113082886, 2.93990159034729, 1.4244564771652222, -0.2962515652179718, 1.2868131399154663, 3.3159427642822266, -0.7745523452758789], [-2.241692543029785, 1.0441131591796875, 1.3633513450622559, -1.8414514064788818, -0.5868937373161316, -3.4316651821136475, -1.6702271699905396, 0.5125290155410767, -1.812856674194336, -1.0951377153396606, -0.6455878615379333, -3.021742820739746, 0.5445356369018555, 1.6421880722045898, 4.795521259307861, 2.0248444080352783, -0.9411877989768982, -2.7050719261169434, -1.6479390859603882, -1.94541335105896, -0.5274214744567871, -2.425222158432007, 1.9149223566055298, -0.45705845952033997, -1.0483112335205078, -2.797379970550537, -1.6288564205169678, 3.504326581954956, -3.865684747695923, 1.976174235343933, 1.2516188621520996, -0.5127098560333252, -0.2381659746170044, 0.9728289842605591, 0.5201516151428223, 1.4302562475204468, 3.2723121643066406, 2.2262086868286133, 0.7173342108726501, 0.7774425745010376, 1.7909964323043823, -2.1629152297973633, -1.897300124168396, 4.094691276550293, 4.552516937255859, 1.793549656867981, 0.19658029079437256, -0.2919218838214874], [0.15922527015209198, 3.106393575668335, -1.7814998626708984, 1.529752254486084, -4.4127116203308105, 0.27405837178230286, -0.3222349286079407, 2.33748459815979, 4.473385334014893, -2.803727149963379, -0.14121383428573608, 3.8365702629089355, 0.3940321207046509, 1.5186959505081177, 1.1073148250579834, 1.0571479797363281, -2.6936168670654297, -0.48182153701782227, -1.4227021932601929, 4.5453619956970215, 1.1622486114501953, -3.1136972904205322, -1.901004433631897, -0.2999633550643921, 0.909581184387207, 2.2346584796905518, -1.0385212898254395, 0.25893861055374146, -0.0988508090376854, 0.5540409684181213, -2.47072434425354, 0.5926751494407654, 1.3657307624816895, 0.20702430605888367, -1.2576812505722046, 1.2138830423355103, 0.6039983034133911, -0.18730291724205017, -1.9177768230438232, 3.3173811435699463, 3.4567980766296387, -2.0795419216156006, -0.006703764200210571, 2.287667989730835, -0.2343354970216751, 1.0756157636642456, -3.890207290649414, -2.208669424057007], [1.1858795881271362, -4.381186008453369, 1.9557079076766968, 1.9440135955810547, -2.7064151763916016, 1.7764809131622314, -4.933226585388184, 2.8711183071136475, 0.09492896497249603, 1.0325361490249634, -5.792117595672607, 5.117744445800781, 0.11949186027050018, 2.1799769401550293, -2.9863626956939697, 1.5534369945526123, -1.203133463859558, 1.73567795753479, 3.719905376434326, 3.3030147552490234, -0.5860266089439392, -4.439855098724365, -1.5299086570739746, 0.6251591444015503, -4.921938896179199, -0.3543759882450104, 0.3549236059188843, 2.7228519916534424, -1.1332130432128906, -3.4416089057922363, -4.646038055419922, -1.8825528621673584, 3.5858681201934814, -1.8566272258758545, -2.6807518005371094, 0.1686270534992218, -0.0704137310385704, 0.19084589183330536, -1.4157336950302124, -5.011011600494385, 3.7861897945404053, -2.0154898166656494, 2.966005563735962, 2.0843513011932373, -0.8577321171760559, -0.6986013650894165, -2.590890407562256, 1.0649327039718628], [2.0981757640838623, 4.82833194732666, -0.9705608487129211, -1.0477869510650635, 0.06455215811729431, -5.315047264099121, -1.0698386430740356, 3.143240451812744, 0.41135162115097046, 1.1967761516571045, -2.804131507873535, 0.3707250952720642, -4.05778694152832, 3.6735525131225586, -0.5787829160690308, -4.055198669433594, 0.015758007764816284, -3.059483051300049, 0.76606285572052, 4.808252811431885, -1.579801082611084, -0.45309317111968994, -0.590548574924469, -0.12109686434268951, -2.1314101219177246, -1.8615142107009888, -0.8535668253898621, 1.258031964302063, 0.08618289232254028, -2.197977066040039, 0.8243497610092163, 0.7255194783210754, -0.6319963335990906, -0.6797991394996643, -2.9309046268463135, -0.9036186933517456, 5.075072288513184, -0.4654243588447571, 1.0840041637420654, -0.889116644859314, 3.076829671859741, 2.596845865249634, 0.7291039824485779, 4.105916976928711, 2.233931064605713, 0.8873701095581055, 0.6939201951026917, 4.1568474769592285], [0.7871830463409424, 0.4820471704006195, 3.84002423286438, 0.014889180660247803, -3.6683859825134277, -1.428908348083496, 0.06591835618019104, 0.8141718506813049, -1.3742804527282715, 3.0163862705230713, 1.5626438856124878, 3.3588757514953613, 0.2909184992313385, 0.12939724326133728, -3.378451108932495, 2.8907179832458496, 2.3775477409362793, 0.06369011849164963, 0.641791045665741, 2.695751190185547, 3.315849781036377, 3.457942485809326, 2.712204694747925, -2.1067206859588623, -0.28160208463668823, -0.10352837294340134, -0.3917381167411804, 1.095513105392456, 2.6174144744873047, -4.54208517074585, -1.0477862358093262, -2.1147003173828125, 3.8528847694396973, -1.531639814376831, -0.9201065897941589, -1.3465040922164917, -1.806885004043579, 2.1030755043029785, -4.855132102966309, -4.264408588409424, -5.001655101776123, -1.3367042541503906, 2.67464017868042, -0.8468859791755676, -2.1494228839874268, 3.3070569038391113, 4.967979907989502, 0.12267342954874039], [-2.190438747406006, 1.7509431838989258, -1.440058946609497, 0.16592341661453247, -1.4341585636138916, 3.554349899291992, 2.7718095779418945, -4.527247428894043, 1.4661694765090942, -0.9093104600906372, 0.08826325833797455, -0.1835157871246338, 6.004760265350342, 1.5057742595672607, 2.720872640609741, 2.1912424564361572, -5.139615058898926, -2.8109841346740723, -2.178720235824585, 1.1820828914642334, 0.019423022866249084, 0.8804401159286499, 2.6062543392181396, 2.1225650310516357, -4.307230472564697, -1.2984809875488281, 4.050501346588135, -0.5164958238601685, -1.2891277074813843, 1.024985671043396, -0.5468665361404419, 2.214003324508667, -2.6893534660339355, 5.708126068115234, 4.002598762512207, 2.4396073818206787, -4.6324381828308105, 1.9512747526168823, 3.7286288738250732, 0.8744609355926514, 0.37063127756118774, 0.2039109766483307, 4.070914268493652, 3.2145190238952637, -0.23622837662696838, 2.2204082012176514, -3.5120697021484375, 1.6964237689971924], [-3.3422248363494873, 4.8286919593811035, -1.6781718730926514, 1.988785982131958, -0.07160687446594238, -0.6122086644172668, 1.0753885507583618, -1.3644424676895142, 0.9407387971878052, 1.2327768802642822, 2.258481740951538, -1.7982561588287354, -0.6067671179771423, -3.20687198638916, -3.2442266941070557, 1.9572954177856445, 0.01588521897792816, -0.2301217019557953, 2.520444393157959, -2.502290725708008, -0.9279383420944214, -1.4502992630004883, -3.0053555965423584, 0.49860700964927673, 0.9047470092773438, 1.1792020797729492, 0.2630598843097687, 0.2816177308559418, 2.372323513031006, -1.5186840295791626, -1.4332956075668335, 1.0700663328170776, 1.0370748043060303, -3.9809534549713135, 1.30672025680542, 0.9950509667396545, 0.5014543533325195, -1.6891489028930664, -2.276479959487915, -3.082998275756836, -1.9160752296447754, -1.1177711486816406, -1.9924629926681519, 3.2864198684692383, -5.7087931632995605, 0.8830233812332153, 1.568962812423706, 3.9059746265411377], [-3.014249324798584, 2.4739396572113037, -0.7876796126365662, 1.3861651420593262, -2.929445266723633, -2.5363523960113525, -2.758484363555908, 2.2408547401428223, -0.7605908513069153, -2.268866777420044, -0.6147743463516235, 1.7090030908584595, 1.4360930919647217, -1.6980798244476318, 2.6462507247924805, -2.232511043548584, -4.054942607879639, -3.277233600616455, 3.4068140983581543, 0.9786646366119385, 4.070007801055908, -2.537065267562866, 0.3497826159000397, -0.2077430933713913, 0.9403445720672607, 1.0877602100372314, 1.0103944540023804, -0.631798505783081, 2.7582244873046875, 4.3127593994140625, 3.3986682891845703, -0.7994928359985352, -0.5718616247177124, 1.7093452215194702, -1.2809462547302246, 2.317636251449585, 0.4047640264034271, -1.1151777505874634, 0.061842016875743866, 2.847792625427246, 4.497693061828613, -1.3012678623199463, -5.450802326202393, -2.9711062908172607, 0.6922906041145325, 5.693820476531982, 3.8013648986816406, 3.486279249191284], [-0.7910071611404419, 0.33147957921028137, 4.762217998504639, 1.194985032081604, 1.7508801221847534, 1.9671112298965454, 0.17650330066680908, 0.9284003973007202, -3.094310760498047, 2.070521354675293, 1.2058429718017578, 1.3801013231277466, 4.1762614250183105, 3.433119773864746, 1.8779082298278809, 3.2624576091766357, 2.1403210163116455, 1.4760057926177979, 0.44832560420036316, 1.4206887483596802, -1.254685878753662, -1.9657574892044067, -0.4119000732898712, 0.8973537087440491, 0.878348708152771, 0.25633278489112854, 2.464601755142212, 0.2270168960094452, -1.7278234958648682, -0.895401120185852, -1.0157244205474854, -2.63405704498291, 2.136852979660034, 0.13974745571613312, -3.108459234237671, -0.1209833174943924, 0.422165185213089, -2.310370922088623, -0.612327516078949, 0.42377769947052, -2.6951310634613037, -1.7060760259628296, 2.253333806991577, 1.0858237743377686, -2.406683921813965, 1.361905813217163, 3.3319101333618164, 0.10851899534463882], [-2.5459346771240234, -2.279681444168091, 2.978423595428467, -0.3790733218193054, -1.9629130363464355, 1.4048758745193481, 0.11314421147108078, 0.4717823266983032, 0.9622955918312073, -0.39780619740486145, 4.638992786407471, 3.285228729248047, -0.4150436818599701, 3.594355821609497, 0.9662906527519226, 3.726684093475342, -2.5249922275543213, -0.459707647562027, -1.4441932439804077, 3.146165609359741, 0.08807247132062912, 0.6830472350120544, 2.2978713512420654, 2.228447675704956, 0.9887542128562927, 3.433802843093872, -1.9067076444625854, 2.4236598014831543, -3.014991521835327, 1.3518965244293213, -1.9332352876663208, 4.703805923461914, 1.4015116691589355, -1.794927716255188, 2.6371097564697266, -4.508059978485107, -0.7072584629058838, -0.8594585657119751, 2.4103617668151855, 0.5043392181396484, -2.3240344524383545, -0.6993947625160217, -3.8642780780792236, -1.9822360277175903, -3.007270336151123, 1.5251004695892334, 2.242267370223999, -3.0466561317443848], [-0.8893464803695679, -1.52336847782135, 2.0600743293762207, 2.1600637435913086, -0.7842265367507935, 0.30322322249412537, -1.6476727724075317, 0.4845264256000519, 0.8464115858078003, 2.612802267074585, -3.063131332397461, -2.356586217880249, 0.4351639747619629, 2.1375393867492676, -3.9590823650360107, 2.199537515640259, -0.2231711447238922, 0.639994204044342, 2.6058168411254883, -4.261100769042969, 0.7683912515640259, 3.0680716037750244, 3.6990807056427, 2.966884136199951, 0.5330830812454224, 4.338334560394287, 1.3463892936706543, -1.649395227432251, -5.240699768066406, 2.816627264022827, 0.8779652118682861, -2.6834447383880615, -2.134880781173706, 1.2577399015426636, 1.3629133701324463, 0.40114933252334595, -0.22725003957748413, -2.651305913925171, -1.6951794624328613, 0.6314640045166016, -4.565470218658447, -0.6177693605422974, -1.0429106950759888, 1.275303840637207, -2.3947882652282715, -0.8781476616859436, -0.5656675100326538, -4.014089107513428], [1.3111674785614014, -0.8283402919769287, 0.05446147173643112, 3.8996543884277344, 4.66094446182251, 0.40530306100845337, 1.1771117448806763, 1.4694187641143799, -0.10743413120508194, -2.0476295948028564, -1.5975542068481445, 3.766887903213501, 2.5592479705810547, -1.2469781637191772, -0.10143543779850006, 1.6034631729125977, -2.931182384490967, 2.088848352432251, 1.581102967262268, 2.7230982780456543, 0.19553998112678528, 1.979258418083191, 0.4358440637588501, -0.7658838629722595, -0.0014850534498691559, 0.05675968527793884, 1.2078220844268799, 2.910478353500366, 5.428607940673828, -0.790078341960907, -2.529820680618286, -1.4367488622665405, 0.3999286890029907, 3.4011785984039307, 5.951033592224121, -8.163217544555664, 2.8269083499908447, -1.7215079069137573, -4.126605987548828, 1.3563646078109741, -0.2394736409187317, -1.174432396888733, 0.1373092532157898, -0.476897656917572, -2.4071848392486572, 1.2795583009719849, 0.7943364381790161, 2.3562963008880615], [-2.448158025741577, 1.5149130821228027, -2.14548659324646, 4.124386310577393, 0.6295644044876099, -2.396972894668579, 4.452744960784912, 0.9949208498001099, -3.437082529067993, 0.7920502424240112, 1.0103161334991455, 7.51430606842041, 0.16157175600528717, 0.8077712655067444, 1.495061993598938, 0.5727298855781555, 2.0990824699401855, -0.2675275504589081, -1.9979472160339355, 0.7050310969352722, -2.588775157928467, 3.486952066421509, -4.104509353637695, -0.11292761564254761, -0.7314847707748413, 2.743467330932617, 4.376729488372803, 0.8766201734542847, -1.9293577671051025, -9.673925399780273, -0.9835069179534912, 4.0493011474609375, 0.32654237747192383, 2.8746254444122314, 2.1444525718688965, 2.810537338256836, -0.7411831021308899, -0.6881369352340698, 1.4149352312088013, -0.059392090886831284, -1.0861644744873047, -0.5048808455467224, 5.523963928222656, -3.7854502201080322, -3.669267416000366, 2.671034812927246, -1.8309193849563599, -1.5013360977172852], [-2.245999574661255, -1.9055911302566528, -2.0979485511779785, 1.98908269405365, -2.3904647827148438, 0.9775257706642151, -2.5444436073303223, 0.39797598123550415, 0.665496826171875, -0.6101940870285034, 0.5005888938903809, -1.0644714832305908, 0.41068750619888306, -0.11332330852746964, -0.8727552890777588, 2.1233975887298584, -4.835851192474365, 1.9216667413711548, -1.8267334699630737, -3.9740025997161865, 0.15191709995269775, -0.372098445892334, 2.155406951904297, -1.024145483970642, -1.2769417762756348, -3.173614025115967, 0.9583423137664795, 2.0541279315948486, 1.3810712099075317, 0.06869423389434814, -1.7686514854431152, -4.011196136474609, -0.8517290949821472, 0.9274826049804688, 1.7648755311965942, -2.4524004459381104, 0.7076973915100098, 0.1357753872871399, -4.2414960861206055, -2.0399563312530518, -1.5472991466522217, 0.5019680857658386, 0.003503262996673584, -1.9151854515075684, -4.430044651031494, 3.238266706466675, -1.027761459350586, 1.5629312992095947], [2.1100924015045166, 2.877669334411621, 2.131502151489258, -0.3492339253425598, -4.2785797119140625, 1.6402819156646729, -2.0186710357666016, -0.6214356422424316, 0.45839595794677734, -0.6562387943267822, 2.434502601623535, 3.18353271484375, -2.1232552528381348, -7.151292324066162, -1.1375750303268433, -1.5090861320495605, 2.280975103378296, 0.1864573359489441, 3.0217795372009277, 0.5232794880867004, 4.0671796798706055, -1.214907169342041, -2.1705245971679688, 0.2970791459083557, -0.8942655920982361, -4.724426746368408, -2.127562999725342, -4.380131721496582, 3.149475336074829, 0.28424549102783203, -2.4725544452667236, -1.5456793308258057, -2.0638577938079834, -1.6035574674606323, -1.061567783355713, -2.2634594440460205, -1.9252707958221436, 3.7510557174682617, -2.7463302612304688, -0.07073231786489487, 1.6388461589813232, 0.4891820549964905, 0.16619889438152313, 0.1177947148680687, 1.1457219123840332, 4.46536922454834, -2.5411536693573, -3.369213104248047], [3.3778719902038574, 2.0326552391052246, -2.735919237136841, -1.8754113912582397, -0.7864894270896912, 3.4249048233032227, 1.1608169078826904, 1.807633876800537, 2.157675266265869, 2.1588613986968994, 5.742351055145264, -0.7714720964431763, -0.8204110860824585, -1.047200083732605, -1.4921391010284424, -0.7805376052856445, 0.36224648356437683, 1.1069916486740112, -3.1146934032440186, 0.705090343952179, 1.2909759283065796, 0.04679446667432785, 3.1533796787261963, 2.232459545135498, 2.998762607574463, 4.634878158569336, -3.775339126586914, 0.3384437561035156, -0.5877264738082886, -0.7327302694320679, -0.6141811609268188, 1.0816078186035156, -4.013395309448242, -1.390031099319458, -1.2735965251922607, 1.8446292877197266, 0.39754754304885864, -1.0936379432678223, 0.9192414283752441, 0.7586179375648499, 2.2355153560638428, 0.6109542846679688, 0.2757117748260498, 4.429974555969238, 2.8867461681365967, 1.9949613809585571, -4.9702558517456055, 0.18522010743618011], [-4.366433143615723, -0.19227677583694458, 2.129702091217041, -1.7952880859375, -0.9203833937644958, 0.3312642574310303, 3.78755784034729, -3.6811325550079346, -1.7561876773834229, 1.7429633140563965, -3.919748067855835, -2.874840021133423, 1.8698105812072754, 0.7403566837310791, -1.156699776649475, -3.978062391281128, -2.682110071182251, 0.7815104722976685, 1.2360169887542725, 1.9876000881195068, 0.026571016758680344, -4.777921676635742, 2.3920681476593018, 2.989940881729126, 0.3757461607456207, 1.4589061737060547, 3.7752065658569336, 3.3647983074188232, -0.6589292883872986, -2.542060613632202, -3.303621530532837, 1.9613029956817627, 4.90629243850708, -1.2296080589294434, -0.5932891368865967, 4.0691657066345215, -1.790184736251831, 2.4693539142608643, -0.6238542795181274, -0.4993833899497986, 2.5790038108825684, -2.989586353302002, 1.102622151374817, 0.5240336656570435, 2.172900438308716, 1.363594889640808, -4.0259809494018555, 4.240660190582275], [-0.5193266868591309, -1.7529001235961914, 1.4110839366912842, 0.09716145694255829, 1.1053104400634766, -0.40073052048683167, -0.0403440035879612, 0.21380530297756195, -2.9964210987091064, -1.0311634540557861, 3.205709457397461, 0.15725883841514587, 0.31285902857780457, 0.024126555770635605, 4.267212867736816, -1.7349438667297363, -0.7504542469978333, -0.6220258474349976, 3.316122055053711, 1.1814782619476318, 1.6656380891799927, 3.821932792663574, -1.7294427156448364, -2.0076684951782227, -0.2730955183506012, 1.8079493045806885, 1.8573535680770874, -1.1547876596450806, 1.4432952404022217, 3.535511016845703, 0.15155819058418274, -1.9858596324920654, -2.033041477203369, -2.53863525390625, -1.6057437658309937, 1.9050270318984985, -4.595414638519287, 4.030537128448486, 1.3806134462356567, -0.9669049382209778, -0.6000651121139526, 0.8097931146621704, -0.28330832719802856, -3.6048362255096436, 2.886150360107422, -1.1568421125411987, 2.420382261276245, 3.2603564262390137], [-7.1393609046936035, 2.9575929641723633, 1.5184401273727417, 1.6241378784179688, 2.0372915267944336, -1.4989584684371948, -0.3549385070800781, -1.046931505203247, -2.389028787612915, 0.4074695408344269, 4.694074630737305, 0.9710391759872437, -0.031210660934448242, 0.010830029845237732, 0.6366291046142578, 2.1555421352386475, -0.7278383374214172, 2.8029422760009766, -0.07358706742525101, 0.7396149635314941, -0.6800006031990051, -2.5967817306518555, 1.8318889141082764, 0.8281809091567993, 1.3236427307128906, 0.38283389806747437, -1.990369200706482, 0.8032559156417847, 0.5657275319099426, -0.36008450388908386, 1.4434771537780762, -0.5465874671936035, 2.727191925048828, 0.9044322371482849, 4.92411994934082, 3.6589229106903076, -0.42339783906936646, -1.1500475406646729, 1.4236202239990234, -6.125565528869629, 0.06628968566656113, 3.1484735012054443, 0.8948404788970947, 2.9331517219543457, 5.318108558654785, 2.3701255321502686, 2.644371509552002, -3.783677577972412], [-0.2373269498348236, -0.32378581166267395, 0.4546554386615753, 0.0281007532030344, -4.394346714019775, 1.9727017879486084, -0.09423717111349106, 3.7828478813171387, -0.8207752704620361, 0.3614364564418793, -2.4064583778381348, -1.8640694618225098, -3.450695514678955, 1.9805896282196045, -1.7009429931640625, -0.5499035716056824, 1.369141936302185, 1.4433115720748901, -0.19502566754817963, 1.954485297203064, -0.706143856048584, -0.604745090007782, -0.8484101891517639, -2.28391695022583, 3.2640042304992676, 5.664254665374756, 1.5092984437942505, -1.1605279445648193, -0.565464973449707, -0.5319632291793823, 0.13134348392486572, 2.2897753715515137, -0.184116929769516, 0.17498330771923065, 0.8361110091209412, -0.6885949373245239, 3.608327865600586, 2.842872142791748, 4.47014045715332, -5.365620136260986, -2.1551806926727295, -1.273262619972229, -1.4236418008804321, -2.471193552017212, -0.30201709270477295, 1.3764424324035645, 0.9246194958686829, 1.2058136463165283], [-2.732646942138672, 1.8902318477630615, -0.16596508026123047, 2.937307596206665, 0.6264351010322571, -0.023221157491207123, 2.5135467052459717, -1.947540044784546, -1.7259538173675537, -6.531044960021973, 0.2386474907398224, -1.746190071105957, 4.175882339477539, -0.7223731875419617, 6.197945594787598, 0.43147242069244385, -0.5326220989227295, 1.142642617225647, -2.356607675552368, 1.8287853002548218, 0.8817316293716431, 1.0157716274261475, 0.2126292586326599, -4.347398281097412, -1.9062912464141846, -2.5677430629730225, 3.5800273418426514, 4.613481044769287, 2.3305859565734863, -3.404752254486084, 0.24337880313396454, -0.3239341974258423, 0.12586504220962524, -2.720623731613159, -2.165785789489746, 1.18173348903656, 3.6750149726867676, 0.21618029475212097, -1.2408746480941772, 2.0360031127929688, -3.6587185859680176, -1.8981727361679077, -1.5306284427642822, -0.8977862596511841, 1.6127278804779053, 0.8610371947288513, -1.768821120262146, 1.9294847249984741], [-1.7147315740585327, 2.201371431350708, -0.8302599787712097, -0.72902512550354, -1.9654698371887207, -5.241562843322754, -2.6421899795532227, 1.090738296508789, 6.555206775665283, -0.30871397256851196, -2.649005174636841, -4.456843376159668, 3.3165414333343506, 0.02172934263944626, -0.16650643944740295, 0.45428675413131714, 4.7085418701171875, 0.6999160051345825, 1.2641870975494385, 2.920680522918701, 2.439418315887451, -1.0571175813674927, 0.164751335978508, -3.254263401031494, -3.2302634716033936, -1.6794981956481934, 4.843890190124512, 2.737739324569702, -2.2700982093811035, 1.6155287027359009, 3.3571362495422363, -1.1387853622436523, -2.522238254547119, 1.9827748537063599, 0.700532078742981, -2.2050178050994873, 2.1663897037506104, 0.27352502942085266, 2.5923235416412354, 2.360506057739258, 0.8137062191963196, -0.23731669783592224, -2.9865915775299072, 5.532294273376465, 0.7526261806488037, -2.0227363109588623, -1.4447771310806274, 0.0002694949507713318], [-0.5653115510940552, 2.3879191875457764, 2.8565633296966553, -2.0425000190734863, -2.7864325046539307, 1.741665244102478, 0.9495617747306824, 0.15394486486911774, -0.3406749665737152, 0.4722590744495392, 3.310945987701416, 2.542025089263916, -1.5905818939208984, 1.8517909049987793, -2.379128932952881, 1.766539216041565, -1.744147539138794, 2.532444477081299, -0.21712994575500488, 2.8745789527893066, -1.7262060642242432, -3.0722544193267822, 0.6542036533355713, 1.561698079109192, 3.207331895828247, 1.1117569208145142, 2.439831256866455, -2.9247682094573975, -3.7568612098693848, -4.908092498779297, 1.6120882034301758, 0.14195014536380768, 0.7326139211654663, 0.5094137787818909, -1.4944692850112915, -2.1792731285095215, 0.7765386700630188, -0.6072136163711548, 0.5812050104141235, -0.12322470545768738, -0.7477535605430603, -2.62322735786438, -1.2040201425552368, -1.5713562965393066, -2.854069948196411, -2.5546650886535645, 2.9207346439361572, -4.53549861907959], [-0.6104096174240112, 0.11889457702636719, 3.066774368286133, 1.2386600971221924, -5.785040855407715, -3.7239060401916504, 0.1858859360218048, 0.17490549385547638, -0.03137423098087311, 1.6147884130477905, -1.1489167213439941, -3.1792540550231934, 0.7897835969924927, 1.388574481010437, 1.627672791481018, 2.203387975692749, 1.8437119722366333, -3.1088123321533203, -0.8408413529396057, -3.2883033752441406, -2.3726818561553955, 0.5114328861236572, -1.3434500694274902, -0.17110151052474976, 3.6002213954925537, 1.5526840686798096, 2.987010955810547, 1.5064626932144165, -5.902264595031738, -1.9263542890548706, -0.9352836608886719, -0.20094773173332214, 0.608788013458252, 0.5993831157684326, -2.4039571285247803, -0.010137602686882019, 1.0818908214569092, -0.27229052782058716, -1.4154677391052246, 4.357542514801025, 0.33322077989578247, -1.516912579536438, -2.435737133026123, -1.0566548109054565, 0.9461544156074524, 1.4742140769958496, 0.4957154095172882, 3.107433557510376], [0.03498123586177826, 3.600067138671875, -1.1552702188491821, -1.4460840225219727, 3.730255126953125, -1.750654935836792, 0.061252184212207794, 3.8316359519958496, 1.9501763582229614, 2.549450397491455, -2.7156407833099365, 3.0743212699890137, -0.4640408754348755, -2.5392837524414062, 0.6594206094741821, -0.14491616189479828, -0.8344165682792664, 1.0047547817230225, 1.2616477012634277, -5.7590250968933105, 4.809394836425781, 0.07763364166021347, 0.6823821067810059, 0.36714521050453186, 0.16525858640670776, 1.5497642755508423, -3.0296120643615723, 4.111517429351807, 2.0069313049316406, 2.8270254135131836, 2.5138635635375977, 2.1605889797210693, -0.11267579346895218, -0.06044313684105873, -2.184906005859375, -1.5705214738845825, -3.575369119644165, 0.15047980844974518, -0.8390008807182312, 0.5140438675880432, 0.5115036368370056, 0.6099302768707275, -0.09875276684761047, -2.242788791656494, 3.156266927719116, 5.205780506134033, -0.9265395402908325, -1.8826922178268433], [-2.620616912841797, -1.916770339012146, -3.489917278289795, 2.1033358573913574, -3.0673131942749023, -2.2010297775268555, -3.2923145294189453, 2.223275899887085, 2.5566210746765137, -0.7596065402030945, 1.1709688901901245, -1.2195281982421875, 2.1882801055908203, -0.40494152903556824, 0.3612547516822815, -2.799142360687256, 1.350573182106018, -0.4282933473587036, 1.6531727313995361, 4.358047962188721, 2.03296160697937, 1.3154739141464233, -1.5637452602386475, -1.2668559551239014, -1.3083653450012207, -1.3927615880966187, -4.253891944885254, 1.9975489377975464, -0.05816246569156647, 2.7611453533172607, -0.3337447941303253, 4.87495756149292, -0.40659430623054504, -0.7621046304702759, 0.6884807348251343, 4.968887805938721, -3.4082562923431396, -4.860470771789551, 1.0406463146209717, 2.955967903137207, -0.4524282217025757, 1.0334995985031128, 2.2703452110290527, 2.618837594985962, 2.7530505657196045, -1.7443387508392334, -1.207969307899475, -0.8751753568649292]], "0.bias": [1.1778972148895264, -1.392430305480957, 2.563892126083374, -0.6861701607704163, -3.3150105476379395, -2.8604609966278076, -1.052617073059082, 2.3314075469970703, 1.2846421003341675, -0.8443409204483032, -0.5930890440940857, 2.516991376876831, 0.3561649024486542, -7.0149102210998535, -0.9859412312507629, 2.3963565826416016, 1.9661550521850586, -1.9542925357818604, -3.5086867809295654, 0.7552509903907776, -1.919226050376892, 0.7602733969688416, -1.0217740535736084, 0.7513908743858337, 0.41825518012046814, 0.7750440835952759, 3.2143044471740723, -2.260634183883667, -2.224846601486206, -0.32500672340393066, -3.3824832439422607, -3.833934783935547, -2.9029381275177, 2.192643642425537, 1.3194941282272339, -3.5897083282470703, 2.2833642959594727, -3.2102057933807373, -3.942336082458496, -1.111627221107483, 0.31024596095085144, 4.358557224273682, -0.3612593710422516, 2.074453353881836, -1.6608752012252808, 0.09885728359222412, 0.06492376327514648, -0.02554801106452942, -4.159825801849365, -4.753940582275391, -4.531136989593506, -2.1968719959259033, 1.5236200094223022, 3.563647747039795, 1.1370307207107544, 1.2150074243545532, 5.279294013977051, 0.23963341116905212, 0.840497612953186, 0.35324835777282715, 0.3917044997215271, -0.8026112914085388, 5.596639633178711, 4.2517781257629395], "2.weight": [[3.3951265811920166, 3.737356662750244, -3.1012144088745117, 0.12595978379249573, 2.4235026836395264, 0.8150675892829895, -3.544957399368286, -2.0046355724334717, -1.4584405422210693, 3.6481266021728516, -1.67521071434021, -0.8788235187530518, -0.44897809624671936, -2.0356833934783936, -3.2331955432891846, 0.4419611096382141, 5.101517677307129, -2.4410600662231445, 3.9857749938964844, 0.8944118022918701, 0.5942531228065491, -0.056363098323345184, 0.6523921489715576, -1.0666548013687134, -0.7979006767272949, -2.1072795391082764, -2.419102907180786, 5.651044845581055, -0.6929712891578674, -0.7523556351661682, 1.0000057220458984, 4.523416996002197, -0.6066045165061951, 1.77974271774292, 1.997948408126831, 0.29511791467666626, 1.6663070917129517, 3.7015011310577393, 1.0672959089279175, 0.3807799816131592, -2.201554775238037, 1.882856011390686, 6.05154275894165, 3.8949670791625977, -1.9548853635787964, -0.3348116874694824, -1.7415310144424438, -1.1168205738067627, 1.216463565826416, -0.7443336248397827, 0.6340185403823853, -0.2574542164802551, -4.972548484802246, 0.5136305093765259, 0.8518092632293701, 2.9168784618377686, 3.049250841140747, 1.1905490159988403, -0.0013173818588256836, 0.8326181769371033, 2.5892789363861084, -0.34558331966400146, 0.13126306235790253, 2.859687328338623], [-0.6994972229003906, 1.0077329874038696, 1.7753241062164307, -1.4965567588806152, 1.0634359121322632, -1.744718313217163, 1.771553635597229, 0.8744367957115173, -0.7566218972206116, -0.04777888208627701, -0.6751513481140137, 0.5613415837287903, 3.419600009918213, 2.250915765762329, -3.546079158782959, -3.3500242233276367, 4.83783483505249, 3.3589351177215576, -1.7049639225006104, 2.3616201877593994, -0.6863357424736023, -1.0599706172943115, 3.6295905113220215, -0.9673788547515869, 1.6834405660629272, -0.03990840166807175, -3.1400058269500732, 2.4004244804382324, 0.5757846236228943, -2.3127400875091553, 1.9584224224090576, 3.361100912094116, -1.6766983270645142, 0.25234919786453247, -2.542463541030884, 0.5714662671089172, 0.956423282623291, 0.3928196132183075, -1.7536481618881226, 1.2860499620437622, -2.6089069843292236, 3.596046209335327, -3.9720892906188965, -1.7511978149414062, -0.7498120069503784, 0.21591126918792725, 0.5118153095245361, -5.544572830200195, -4.670473098754883, -1.2102959156036377, 0.6957178711891174, -0.1663299947977066, 2.4655141830444336, 4.597986698150635, 0.7024734616279602, 0.41616302728652954, -1.1703288555145264, -1.9344046115875244, 2.2681195735931396, -2.112837553024292, 1.6314228773117065, 5.103164196014404, 1.5735810995101929, 1.8078278303146362], [-1.327775478363037, -4.6620259284973145, -0.6618592739105225, -5.294836521148682, 2.7955682277679443, -2.8547840118408203, 3.1612322330474854, -0.9984407424926758, 1.3368650674819946, -2.3724470138549805, -0.9571812748908997, 2.4938812255859375, 0.6833862662315369, -0.42119908332824707, 2.9971554279327393, -3.046434164047241, 0.5196490287780762, -1.3470367193222046, -0.5117253661155701, 1.8023462295532227, 0.6026453971862793, -0.3657386898994446, -0.1299763321876526, -0.008997848257422447, -2.1843326091766357, -4.134550094604492, 0.26004910469055176, 0.26891404390335083, -3.4301981925964355, -1.6599440574645996, -0.6755602955818176, 1.6437941789627075, 2.955653429031372, -5.229516983032227, 2.1069977283477783, 0.7471185326576233, 0.5749053955078125, -1.162035346031189, 0.2415303885936737, -1.038914680480957, -6.693805694580078, 0.7319887280464172, -1.6502612829208374, -3.038113594055176, 0.9759579300880432, -1.4446518421173096, -0.013331636786460876, 0.3784494996070862, -2.727846384048462, -1.6726436614990234, -0.33711063861846924, 2.710988759994507, -5.034213542938232, -3.15412974357605, -0.4158734679222107, -4.048791885375977, 1.0057333707809448, -1.135938286781311, -2.1404263973236084, -1.356619119644165, 1.6501004695892334, 1.9600749015808105, 0.0029347725212574005, -2.176022529602051], [-2.6046292781829834, -2.6715428829193115, 0.02357129380106926, 0.9866355061531067, 2.319662570953369, 0.4673188030719757, 2.2465977668762207, 2.656252861022949, -2.0329391956329346, 2.7145426273345947, -3.4364609718322754, -3.126887083053589, 1.7484626770019531, -4.890545845031738, -0.7120338082313538, 0.8556665182113647, -1.395760416984558, 0.7485222816467285, 0.8256162405014038, -1.3095331192016602, -2.29794979095459, -0.03532078117132187, 4.927273273468018, -1.9386966228485107, -1.8828351497650146, -3.831580400466919, 0.42069193720817566, 3.3016271591186523, -3.5774312019348145, -1.3189195394515991, -0.6335378885269165, 2.3744864463806152, 0.18045911192893982, 4.62691068649292, -0.5749474167823792, -0.7795302271842957, 2.226391315460205, -0.18080416321754456, 4.292593479156494, 2.782935380935669, 4.421638011932373, -1.007157802581787, 1.0520414113998413, -0.6001984477043152, -0.8105151653289795, 0.4302051067352295, -0.36142510175704956, -0.22691543400287628, -4.762011528015137, 0.08557406067848206, -2.735386848449707, -4.593532085418701, 1.1487241983413696, 0.7922245860099792, 3.312502861022949, 1.453147053718567, 2.240206480026245, -3.7302093505859375, -0.3461901843547821, -1.681677222251892, 2.275790214538574, -0.585142195224762, 3.0234620571136475, 2.130781888961792], [3.7474277019500732, -2.5151829719543457, 1.2814133167266846, -1.9626537561416626, 2.770737648010254, 1.7719528675079346, -0.6091963052749634, -4.3811211585998535, -2.524730682373047, -0.7659481167793274, -2.1133110523223877, -1.0559179782867432, 1.7264466285705566, 1.0475482940673828, -4.150524139404297, -6.223628520965576, -1.482704520225525, -1.4552949666976929, 1.0068310499191284, -1.1724636554718018, 0.010408774018287659, -1.1101282835006714, 1.8894011974334717, -0.7668135762214661, -1.7104483842849731, -0.07623675465583801, -1.5103446245193481, -2.511563301086426, -0.26822900772094727, 3.680298328399658, -2.174743890762329, -1.0122721195220947, 3.969550848007202, -3.2453689575195312, 1.024985909461975, 2.0089447498321533, 0.08674832433462143, 3.5978779792785645, 0.6146894097328186, 1.4627896547317505, -2.5239410400390625, 3.754737138748169, 1.1404191255569458, -0.4776861071586609, 0.8801424503326416, 2.9444823265075684, -2.5641210079193115, -0.28023555874824524, 3.5969648361206055, 0.8937165141105652, -0.027825817465782166, 3.0839266777038574, -2.936387062072754, 0.04262923821806908, -2.37479829788208, 2.3720169067382812, 0.04874067008495331, -0.8426802754402161, -2.2675352096557617, -0.8807682991027832, -2.355250120162964, 4.086874485015869, -0.6270345449447632, -2.983457088470459], [3.6611640453338623, -0.864938497543335, 3.5318217277526855, -2.1266255378723145, -0.7617014646530151, 0.5740019083023071, -2.723020315170288, -4.9813690185546875, -2.109818935394287, 3.089686632156372, 1.6969879865646362, 0.6270849704742432, -5.006604194641113, -4.556999206542969, -0.6904006600379944, -3.1417927742004395, -1.375681757926941, 0.04215044528245926, -0.1387113630771637, -1.0514812469482422, 1.2610082626342773, -1.5957938432693481, -6.470750331878662, 0.030463427305221558, -4.179562568664551, -2.2532482147216797, 3.08920955657959, -2.086458206176758, -1.3826937675476074, -2.706528425216675, 2.1534292697906494, -3.300375461578369, -2.151942253112793, 1.3210973739624023, -1.4795342683792114, 2.073397636413574, 1.0447360277175903, -0.7860307097434998, 1.0625466108322144, 1.4313251972198486, -3.6141276359558105, 0.2121002972126007, 0.019017478451132774, 4.161894798278809, -1.89595365524292, 6.46707010269165, -4.793064117431641, 1.3905285596847534, 0.3949315845966339, 1.0582661628723145, -0.5129905939102173, -0.13603168725967407, -0.13067276775836945, -0.8899549841880798, 1.114034652709961, -4.415365695953369, 1.7778868675231934, 2.4382221698760986, 2.502761125564575, 4.360683917999268, 2.6615917682647705, 2.9093408584594727, 0.16621771454811096, -2.3418920040130615]], "2.bias": [2.522487163543701, -0.23860332369804382, 2.8694519996643066, 0.8154017329216003, 1.0580453872680664, 1.2731748819351196]}